{"model_data": {"model": "SimpleRNN", "input_size": 1, "skip": 1, "output_size": 1, "unit_type": "LSTM", "num_layers": 1, "hidden_size": 40, "bias_fl": true}, "state_dict": {"rec.weight_ih_l0": [[0.007272212766110897], [0.3780463635921478], [-0.013689752668142319], [-0.0010683395667001605], [0.0243194829672575], [0.05422305315732956], [0.00011165722389705479], [0.019628264009952545], [-0.003122383961454034], [0.016646919772028923], [0.0066583240404725075], [-0.0008808591519482434], [0.12033089995384216], [-0.00048610131489112973], [-0.12248377501964569], [-0.0845557302236557], [0.015110945329070091], [-6.535306965815835e-06], [-0.10834702104330063], [-3.147157485727803e-06], [0.2643621265888214], [-0.032795097678899765], [0.002967491978779435], [-4.8983558372128755e-05], [8.982028521131724e-05], [0.0010233977809548378], [-6.219277565833181e-05], [-0.002161792479455471], [-0.005788871087133884], [6.263572686293628e-06], [0.036928579211235046], [-0.1125413253903389], [-3.1940595363266766e-05], [-0.029912060126662254], [-3.2804859984025825e-07], [-0.7242108583450317], [-0.0011303501669317484], [0.026936788111925125], [1.3496702422344242e-07], [-0.5103383660316467], [-0.0014094720827415586], [0.4154863655567169], [-0.0006757623050361872], [-0.0005669031525030732], [0.07427015900611877], [-0.11295515298843384], [0.0001032548098010011], [0.02279188111424446], [-0.001046871650032699], [0.008670150302350521], [0.02344696968793869], [0.00012664057430811226], [0.17291541397571564], [0.0009045990882441401], [0.02003246732056141], [-0.02778608351945877], [0.033656440675258636], [-2.5349168026878033e-06], [-0.06675484776496887], [-1.9344502106832806e-06], [0.2740979492664337], [-0.08355633169412613], [0.02083381451666355], [2.749238774413243e-05], [0.0012615385930985212], [0.005807624198496342], [-1.956256528501399e-05], [0.0006424181628972292], [-0.002045802539214492], [8.545085620426107e-06], [0.08832653611898422], [0.07005967944860458], [-5.730030807171715e-06], [-0.1622895449399948], [-6.828357612675973e-08], [-0.4343116581439972], [0.000193753803614527], [-0.05794815346598625], [1.6101030553272722e-07], [-0.3003099262714386], [0.1244322881102562], [-1.152143955230713], [-0.3410685956478119], [-0.04835294187068939], [-0.5962838530540466], [-0.01699783094227314], [0.0065995785407722], [-0.34067919850349426], [-0.1740516871213913], [0.1949251890182495], [0.2643742561340332], [0.07780198007822037], [-0.8021892309188843], [-0.10647939145565033], [0.05674416199326515], [0.24067026376724243], [-0.016666246578097343], [-0.003872640198096633], [-0.5355610251426697], [0.0019459219183772802], [0.277558296918869], [-0.19157810509204865], [0.3176799714565277], [0.019730158150196075], [-0.06272748857736588], [-0.16033406555652618], [0.012459351681172848], [-0.11133766919374466], [-0.12860523164272308], [-0.0030773624312132597], [0.7031180262565613], [-0.4795216917991638], [0.009338390082120895], [0.29937002062797546], [-0.000871839642059058], [1.4916468858718872], [-0.025753675028681755], [-0.38456201553344727], [-0.0003317523514851928], [1.0322134494781494], [0.009118296205997467], [0.4108848571777344], [-0.01023820973932743], [-0.0014284603530541062], [0.05652213469147682], [0.00863279215991497], [0.00010304521856596693], [0.022301368415355682], [-0.004195421002805233], [0.019954698160290718], [0.014502139762043953], [-0.001046802382916212], [0.14583249390125275], [-0.0005018571391701698], [-0.08538833260536194], [-0.08459118008613586], [0.052411362528800964], [-9.3884891612106e-06], [-0.12714847922325134], [-5.040175892645493e-06], [0.29411202669143677], [-0.06535360217094421], [0.013766652904450893], [-7.063623343128711e-05], [0.0004027017275802791], [0.0025628211442381144], [-7.983386603882536e-05], [-0.0021617983002215624], [-0.006334517616778612], [6.471466349466937e-06], [0.078809455037117], [0.07634425908327103], [-3.99526979890652e-05], [-0.041934408247470856], [-5.586954330283334e-07], [-0.5913152694702148], [-0.0028069335967302322], [-0.32944050431251526], [1.2097092394469655e-07], [-0.5626965761184692]], "rec.weight_hh_l0": [[-0.0011146169854328036, -0.005039367359131575, 0.0018183678621426225, 0.0004169662715867162, -0.0039017682429403067, -0.004805169068276882, 7.547679706476629e-05, -0.0006800416740588844, 0.0003635360626503825, 0.0009864717721939087, -0.0010825633071362972, 8.932614582590759e-05, -0.0059575969353318214, -0.0002251897967653349, 0.02124881185591221, 0.0017990897176787257, -0.0226752832531929, -2.666758155100979e-05, -0.001552801812067628, 2.362157465540804e-05, -0.0042312536388635635, 0.001249261200428009, -0.0008217046852223575, 0.00012430381320882589, -0.0007715185056440532, -0.0005583565798588097, 6.573512655450031e-05, 3.118530003121123e-05, 0.00020713769481517375, -3.0075007089180872e-05, 0.00470461742952466, 0.0068986848928034306, 8.046217408264056e-05, 0.009485202841460705, -3.8679177123412956e-06, 0.0012409446062520146, -0.00035447790287435055, 0.012275784276425838, 2.9414150048978627e-06, -0.004225095734000206], [0.09551593661308289, -0.3910225033760071, -0.06075309216976166, -0.00794457271695137, -0.12229267507791519, 0.09396248310804367, 1.6548310668440536e-05, -0.13157719373703003, -0.020790807902812958, 0.07244472950696945, 0.0917452871799469, 0.01335764117538929, -0.2965611517429352, -0.02188657782971859, 0.040743954479694366, 0.0182050671428442, 0.016018914058804512, -0.0007901734788902104, -0.0013541894732043147, 0.0004089883586857468, 0.3090314567089081, -0.06323134154081345, 0.09153001010417938, 0.003774855984374881, -0.01260961964726448, -0.037702497094869614, 0.0021628655958920717, -0.01996869035065174, -0.01787051372230053, -0.00044223410077393055, 0.20763620734214783, -0.07722217589616776, 0.0015821950510144234, -0.06868871301412582, -0.00015505115152336657, -0.4095116853713989, 0.006538005080074072, -0.0700962021946907, -8.346707909367979e-05, -0.4126085937023163], [0.005545471794903278, -0.004195829853415489, -0.0012986084911972284, 0.00054354831809178, -0.005849748384207487, -0.0016823014011606574, 0.00019116004114039242, -0.003907639067620039, 0.00022278512187767774, 0.0033058368135243654, 0.006126533728092909, 0.00019825513300020248, -0.0059164343401789665, -0.00047766431816853583, 0.013637803494930267, 0.004557570442557335, -0.015964489430189133, 1.5240346328937449e-05, 0.00015927260392345488, -1.2589724065037444e-05, 0.0019328229827806354, -0.014169052243232727, 0.002918632235378027, -1.9038752725464292e-05, -0.00037310909829102457, -0.001675891107879579, -2.974793460452929e-05, -0.0004981184029020369, 6.455665425164625e-05, -8.343428817170206e-06, 0.006924203131347895, 0.005683012772351503, -1.4405826732399873e-05, -0.002431025030091405, -7.167794819906703e-07, -0.013041364960372448, -0.0013421309413388371, 0.005884113255888224, -5.968576715531526e-06, -0.01230643130838871], [7.971501327119768e-05, 2.3065415007295087e-05, 0.00015804090071469545, 7.791421376168728e-05, -1.1661688404274173e-05, -1.8145390640711412e-05, 1.0559649126662407e-05, -4.609018560586264e-06, 0.0001079172725440003, -2.196832610934507e-05, 5.353310825739754e-07, -4.66502970084548e-05, -3.3238895412068814e-05, 3.46466877090279e-05, 0.0007951941806823015, -0.0001303587487200275, 0.0017661176389083266, 6.60882392367057e-07, 8.324710506713018e-05, -2.762474423434469e-06, -5.890959801035933e-05, -0.00015068752691149712, -5.491316915140487e-05, -1.8352753613726236e-05, -6.062505235604476e-06, 1.2651751603698358e-05, -1.2166311535111163e-05, 4.4218100811121985e-05, 6.887022755108774e-05, -4.258174158167094e-06, 1.0151094102184288e-05, 0.00011913353228010237, -4.101818376511801e-06, 0.0004614518547896296, 1.1978705742876627e-06, -0.00038792056147940457, -4.855676888837479e-05, 0.0009189556003548205, -3.9721280131743697e-07, -0.00012123565102228895], [0.011367185041308403, -0.026663795113563538, 0.00455251382663846, 0.0009270819718949497, -0.027943653985857964, 0.008723962120711803, 0.00015993307169992477, -0.007086440455168486, 0.0006110374233685434, 0.00378061062656343, 0.011323545128107071, 0.0003912159882020205, -0.017086710780858994, -0.001046373974531889, 0.054785918444395065, -0.0024737303610891104, 0.12324856221675873, 3.4305742246942827e-06, 0.00028838563594035804, -6.737902003806084e-05, 0.010480081662535667, -8.613311365479603e-05, 0.009816273115575314, 5.001455792807974e-05, -0.0016452145064249635, -0.0037029823288321495, -3.466569978627376e-05, -0.001221385202370584, -0.0003354493819642812, -7.150421879487112e-05, 0.019348809495568275, 0.0045737880282104015, 9.961917385226116e-06, 0.05833712965250015, 1.0601148460409604e-05, -0.06039592996239662, -0.002576817525550723, 0.04829475283622742, 4.513301973929629e-06, -0.005875613074749708], [0.019065959379076958, -0.008638695813715458, -0.05137992650270462, 0.005111327860504389, -0.053519975394010544, 0.0020112788770347834, 0.00046583887888118625, 0.004405868239700794, 0.009856411255896091, 0.0047148447483778, -0.00850556418299675, -0.0002512703649699688, 0.005523389205336571, -0.001414911588653922, 0.0007893516449257731, 0.10876800864934921, -0.9327254295349121, -0.000189243903150782, -0.04782014712691307, -8.249848906416446e-05, 0.005212045274674892, 0.22878701984882355, -0.005855074618011713, 0.00035093873157165945, -0.01730487309396267, -0.011026846244931221, -4.5572240196634084e-05, 0.00017046654829755425, 0.0029102074913680553, -0.0004436253511812538, 0.010036112740635872, 0.045751944184303284, 0.0003989239630755037, -0.15852691233158112, 0.00012181871716165915, -0.019927777349948883, -0.0013285193126648664, -0.3435077965259552, -0.00014125314191915095, -0.08953596651554108], [1.1201437928320956e-06, -3.787741297855973e-05, -2.441994183755014e-05, 1.4238379435482784e-06, -5.621646414510906e-05, -5.1142011216143146e-05, 5.568017513724044e-07, -3.796681994572282e-05, -2.832285588283412e-07, 1.6651061741868034e-05, 1.2801668162865099e-05, 4.6738400669710245e-06, -6.337191734928638e-05, -9.433980267203879e-06, -5.7356137403985485e-06, 3.511740260364604e-06, 9.727223368827254e-05, -2.2517622255691094e-07, -2.8534395823953673e-05, 1.0195464028583956e-07, 7.831068069208413e-05, -6.622867658734322e-05, 2.6691865059547126e-05, 1.1553647709661163e-06, -1.0961523003061302e-05, -1.8362874470767565e-05, 4.2800652977348363e-07, -6.858951110189082e-06, -4.61727040601545e-06, -3.7275358977240103e-07, 6.232984742382541e-05, 4.839972098125145e-05, 8.321852078552183e-07, 3.478848884697072e-05, -2.328663128992048e-08, 3.344122160342522e-05, 3.2376303806813667e-06, 4.272646492609056e-06, 3.5180228508124856e-08, 3.612421278376132e-05], [0.002262005815282464, -0.01565648801624775, -8.42721201479435e-05, 0.00023429718567058444, -0.009066907688975334, -0.00437031639739871, -0.00010122440289705992, -0.004982226528227329, 8.467125735478476e-05, 0.0017459184164181352, 0.00308044976554811, 0.0003337328671477735, -0.01118449866771698, -0.0007703742012381554, 0.009565748274326324, -0.0017485738499090075, 0.050657812505960464, 7.006377563811839e-05, -0.00036489026388153434, -1.2320183486735914e-05, 0.01150472741574049, -0.010267490521073341, 0.004162949975579977, 7.041614298941568e-05, -0.0007467542891390622, -0.0019275519298389554, -3.532520349835977e-05, -0.0006894288817420602, -0.0003405593743082136, 5.222166146268137e-05, 0.009961006231606007, 0.005590556655079126, -2.926839079009369e-05, 0.023869942873716354, -6.525045137095731e-06, -0.0029495167545974255, -0.0007132664322853088, 0.016182947903871536, 4.216417801217176e-05, 0.004409078508615494], [0.0004917142796330154, -0.0012167671229690313, 0.0006252246093936265, 0.00015353065100498497, -0.0004983816179446876, 9.155382940662093e-06, 3.0219609470805153e-05, -0.0004015509330201894, 0.00023732424597255886, 0.0002216919674538076, 0.00022775445540901273, -7.447233656421304e-05, -0.0009111642139032483, 1.8974656995851547e-05, 0.004590755328536034, -0.0005990808131173253, 0.009510272182524204, 6.990236670390004e-06, 0.0004699534911196679, -1.2322601833147928e-05, 0.0006687401910312474, -0.001273257308639586, -6.554323044838384e-05, -5.568613778450526e-05, -5.4064981668489054e-05, -9.748830780154094e-05, -4.5250242692418396e-05, 6.186942482599989e-05, 0.00013689127808902413, -9.324882739747409e-06, 0.0006500128656625748, 0.00041620832053013146, -2.4712182494113222e-05, 0.002222064882516861, 2.982170144605334e-06, -0.0038836777675896883, -5.2232786401873454e-05, 0.004591007251292467, 6.658279971816228e-08, -0.002032643184065819], [0.002762737451121211, -0.008405763655900955, 0.0009311939938925207, -3.636982728494331e-05, -0.005510191433131695, 0.0013194849016144872, 9.081835742108524e-05, -0.0023101926781237125, -0.000399065698729828, 0.000987565377727151, 0.00392626877874136, 0.0002832266909535974, -0.0067962403409183025, -0.00043870092486031353, 0.015739329159259796, 0.0029617170803248882, 0.020626291632652283, -9.986764780478552e-06, 0.0011798669584095478, -1.8116943465429358e-05, 0.004833980929106474, -0.00537599204108119, 0.0026967423036694527, 3.3754068340385857e-07, -0.00018631752755027264, -0.0009475229308009148, -1.1620900295383763e-05, -0.0005196791025809944, -0.00042870864854194224, -2.9199594791862182e-05, 0.006911039352416992, -0.0013556148624047637, -1.8354960047872737e-05, 0.010442810133099556, 5.1786500989692286e-06, 0.0024462656583637, -0.0007763931062072515, 0.009650152176618576, -1.4751391972822603e-05, 0.002367886481806636], [-0.00044812296982854605, -0.010912280529737473, 0.001716983038932085, 0.0007098783971741796, -0.009540081955492496, -0.012588275596499443, 0.0002449785533826798, -0.0025353527162224054, 0.0006698580109514296, 0.002720968332141638, -0.0006420542486011982, 0.00020387322001624852, -0.011531253345310688, -0.0004985941341146827, 0.027996767312288284, -0.0019239328103139997, 0.041149791330099106, -6.219783244887367e-05, -0.002795678563416004, 8.307346433866769e-06, -0.002576623810455203, -0.007367721293121576, -0.00018394475046079606, 0.00016617523215245456, -0.0012995167635381222, -0.0013213707134127617, 9.040704753715545e-05, -7.768865179968998e-05, 0.0003035342670045793, -0.000104313570773229, 0.00948275625705719, 0.012786745093762875, 0.00012900328147225082, 0.013320250436663628, -5.322339802660281e-06, -0.018538588657975197, -0.0006271983729675412, 0.022005682811141014, -3.0883977615303593e-06, -0.014943104237318039], [0.00026218954008072615, -0.0005116850370541215, 7.909366831881925e-05, 0.00010678092075977474, -0.00026753637939691544, 0.00019102715305052698, 2.640055981828482e-06, -0.00021142403420526534, 9.673738532001153e-05, 0.00010074724559672177, 0.00018761838146019727, -1.7913998817675747e-05, -0.00033062283182516694, -1.7198566638398916e-05, 0.0012901434674859047, -7.476508471881971e-05, 0.0033378901425749063, 4.874972091784002e-06, 0.0001843642385210842, -4.094581981917145e-06, 0.00044994844938628376, -0.0004683233564719558, 0.00011044728307751939, -1.8544924387242645e-05, -3.667100099846721e-05, -8.940692350734025e-05, -1.6741416402510367e-05, -1.1240069397899788e-05, 4.062297739437781e-05, 7.117356659591678e-08, 0.00028335372917354107, 4.4897689804201946e-05, -1.0659520739864092e-05, 0.0008329526172019541, 7.373251378339774e-07, -0.0009652340668253601, -0.00010270971688441932, 0.001500094193033874, 1.1095592071797e-06, -0.0003759130195248872], [0.01942051202058792, -0.05871468782424927, -0.0064190346747636795, 0.0005385755794122815, -0.03952743485569954, 0.024826273322105408, -0.00014847271086182445, -0.018950222060084343, 0.0003560124314390123, 0.0041537717916071415, 0.02001585066318512, 0.0011162987211719155, -0.033054254949092865, -0.002645154483616352, 0.007572708185762167, 0.0061166430823504925, 0.21886888146400452, 8.77827187650837e-05, -0.002957712858915329, -0.00010596205538604409, 0.04969637468457222, -0.014466864056885242, 0.02135397307574749, 0.00019272914505563676, -0.0032872336450964212, -0.00782362837344408, -7.628397725056857e-05, -0.0030138378497213125, -0.002021280350163579, -1.2389739367790753e-06, 0.03416455164551735, 0.0024344222620129585, -4.104731124243699e-05, 0.08397269994020462, 2.1188372556935064e-05, -0.03681758791208267, -0.0015587167581543326, 0.06753367930650711, 4.073180025443435e-05, 0.02888166345655918], [0.00045545364264398813, -0.0012161510530859232, 5.1747447287198156e-05, 0.00011447512224549428, -0.0007094861939549446, 0.0001783489278750494, -1.1018897566827945e-05, -0.00047691172221675515, 7.138090586522594e-05, 0.00025757349794730544, 0.00041428886470384896, 1.5601242921547964e-05, -0.000787431257776916, -7.753956015221775e-05, 0.0021083662286400795, -0.00012248709390405566, 0.005932492204010487, 8.779208656051196e-06, 0.00019702869758475572, -6.223583568498725e-06, 0.0010018886532634497, -0.0009898791322484612, 0.0003235230396967381, -9.497021892457269e-06, -8.76802223501727e-05, -0.0002055177465081215, -2.1519374058698304e-05, -6.69457804178819e-05, 6.889727501402376e-06, 1.5987920960469637e-06, 0.000722135417163372, 0.00018081669986713678, -1.4703752640343737e-05, 0.0017650745576247573, 8.559799766771903e-07, -0.0014804587699472904, -0.0001227148895850405, 0.00246129697188735, 2.607150690892013e-06, -0.0004387081426102668], [-0.07350730895996094, 0.06635801494121552, 0.1493777483701706, 0.00291611859574914, 0.013730973936617374, -0.1546952873468399, 0.002362116938456893, 0.08376432210206985, 0.001096254214644432, -0.07528447359800339, -0.030788980424404144, -0.0005479356623254716, 0.1290733367204666, 0.0034555161837488413, 0.14849863946437836, 0.06345469504594803, -0.7567055225372314, -4.037700637127273e-05, -0.055854957550764084, -0.00041426828829571605, -0.19847139716148376, 0.1594099998474121, -0.013838631100952625, -0.0009398056427016854, -0.0021188203245401382, 0.00556299090385437, -0.0005829635774716735, -0.0023878980427980423, -0.00951091106981039, -0.0009312307229265571, -0.07230585813522339, 0.10754372179508209, 0.00016739046259317547, 0.3846229612827301, 0.00026139116380363703, 0.07316091656684875, -0.02064168080687523, -0.32161903381347656, -0.00014378782361745834, 0.053449083119630814], [-0.0018198104808107018, 0.012309376150369644, 0.013207375071942806, 0.0015838686376810074, 0.021172160282731056, 0.009938027709722519, 0.00010786709026433527, 0.007310426328331232, 0.003675749758258462, -0.0006706560379825532, -0.008930109441280365, -0.0015078316209837794, 0.013606092892587185, 0.0020970762707293034, 0.059820011258125305, -0.012712638825178146, 0.053409162908792496, -3.325249736008118e-06, 0.011456157080829144, -1.7957798263523728e-05, -0.008797669783234596, 0.008987977169454098, -0.013472933322191238, -0.00022913774591870606, 0.0013854204444214702, 0.004224435426294804, -0.00010792734974529594, 0.0029150310438126326, 0.00367901474237442, -2.0290413885959424e-05, -0.018658744171261787, -0.004389543551951647, -6.199647759785876e-05, -0.006382626947015524, 3.932476374757243e-06, -0.041148748248815536, 0.00038838927866891026, 0.042533546686172485, -4.929957867716439e-06, -0.04986836388707161], [0.002657490549609065, -0.007121596485376358, 0.004030062351375818, 0.001041298033669591, -0.0064765578135848045, 0.005985873751342297, -0.00039474674849770963, -0.010930169373750687, 0.00154061836656183, 0.006846980657428503, 0.003183482214808464, 0.000107845917227678, -0.02532835304737091, -0.0010543273529037833, 0.05571283400058746, -0.01060516107827425, 0.16142797470092773, 3.5737127745960606e-06, 0.009318511001765728, 2.2619384253630415e-05, 0.035958632826805115, -0.02661258727312088, 0.002778292866423726, 0.00023920400417409837, -0.0005510762566700578, -0.0021366446744650602, 1.0542359632381704e-05, 7.351562817348167e-05, 0.0016435282304883003, 4.753145549329929e-05, 0.016825972124934196, -0.015842407941818237, 3.141006163787097e-05, 0.03157748281955719, -1.741399319143966e-05, -0.0063506364822387695, 0.0007871199632063508, 0.07811573892831802, 3.432969970162958e-05, -0.01884290762245655], [7.12187784301932e-07, 4.779617029271321e-06, 3.5702068998944014e-06, 4.460714535525767e-07, -2.6407528821437154e-06, -1.3630083230964374e-06, 4.85365951874428e-08, 1.6021610349525872e-07, 7.965413146848732e-07, -7.518271445405844e-07, 1.036300886880781e-06, -1.429181395451451e-07, 9.892236221276107e-07, 9.016048352350481e-08, 1.6026426237658598e-05, 2.163685167033691e-06, 2.161154043278657e-05, 4.166613276623821e-09, 1.0018457174965079e-07, -9.175230353264396e-09, -4.725730377685977e-06, -2.7525320547283627e-06, 3.7149311538087204e-07, -4.082860627363516e-08, -2.1849567133358505e-07, -2.765448527952685e-07, -3.006130810945251e-08, 9.875784456880865e-08, 2.568315267126309e-07, -1.52690109445075e-08, 1.7953386759472778e-06, 3.219971404178068e-06, -6.9514189959818395e-09, 1.3783825124846771e-05, 2.6455393431490393e-09, 6.0745801420125645e-06, -8.169030252247467e-07, 1.5741175957373343e-05, 9.784990595562704e-10, 8.720048754184972e-06], [-0.006063599139451981, 0.03805571794509888, -0.02867400459945202, 0.0006943211774341762, -0.05848747119307518, -0.10436821728944778, 0.0015607918612658978, -0.0159895122051239, 0.004279328044503927, 0.002000834560021758, -0.011931843124330044, 0.0021502114832401276, -0.0038907849229872227, -0.002313342411071062, -0.18786749243736267, -0.04279737174510956, -0.41118040680885315, -0.0003585387021303177, -0.050164539366960526, -0.00035940343514084816, -0.0506812147796154, 0.013895764015614986, 0.006909932941198349, 0.0003829376364592463, -0.00406731478869915, -0.0049142986536026, 0.0003674280014820397, -0.0017124497098848224, -0.004049135372042656, -0.00047735607950016856, 0.017749730497598648, 0.06521273404359818, 0.00037956685991957784, -0.13718442618846893, 0.00022876613365951926, -0.08598565310239792, -0.00035165922599844635, -0.3497712016105652, -0.0004528477438725531, 0.03777774050831795], [3.283792011643527e-07, 9.802204203879228e-07, 1.03037405096984e-06, 1.0393601712621603e-07, -9.397582516612601e-07, -4.79939615161129e-07, -2.7776012601066213e-09, 1.212047635590352e-07, 2.2685885880946444e-07, -2.4307030344061786e-07, 4.5020684069640993e-07, -6.099094207456801e-08, 4.1595873767619196e-07, 5.27618269074992e-08, 5.614945166598773e-06, 1.1305073712719604e-06, 8.237373549491167e-06, 4.442993528641637e-09, 2.340380120813279e-07, -3.203246556893191e-09, -7.878437600083998e-07, -8.469438057545631e-07, 2.4376120677516155e-07, -1.6125294877156193e-08, -4.7436468975092794e-08, -7.366299570321644e-08, -1.353924083957736e-08, 3.230514167285037e-08, 9.331557748737396e-08, 6.067646385332637e-10, 5.181104256735125e-07, 7.330745006584038e-07, -7.909595645116951e-09, 4.974260718881851e-06, 9.839024039948185e-10, 1.772213181538973e-06, -2.637207785483042e-07, 3.955817192036193e-06, 1.1461268600854169e-09, 2.5886797629937064e-06], [0.031509753316640854, -0.08180900663137436, 0.0007147477008402348, -0.0008457584772258997, -0.07139947265386581, 0.02193862944841385, -0.00018513755640015006, -0.032912056893110275, -0.005635040812194347, 0.014130529947578907, 0.040180668234825134, 0.0032623657025396824, -0.095571368932724, -0.005583537742495537, 0.11083196848630905, 0.010755318216979504, -0.03435945883393288, -0.00011249539238633588, 0.003806364955380559, 4.2366878915345296e-05, 0.09806991368532181, -0.04702167585492134, 0.036704521626234055, 0.0007586285937577486, -0.0023018536157906055, -0.01168010476976633, 0.0003098066081292927, -0.006325387395918369, -0.004929177928715944, -5.423928450909443e-05, 0.08474381268024445, -0.017394162714481354, 0.00020526457228697836, 0.11366898566484451, -9.820809282246046e-06, 0.014835336245596409, -0.00478603458032012, -0.01105921994894743, -4.157453076913953e-05, 0.030780654400587082], [0.032172419130802155, -0.019050491973757744, 0.010151583701372147, -0.0005551159265451133, 0.016790902242064476, 0.15274982154369354, -0.000786989345215261, -0.0013924201484769583, -0.0005661798641085625, 0.0003155744634568691, 0.015385575592517853, -0.00015732887550257146, 0.010855177417397499, 0.00011275393626419827, 0.09020602703094482, 0.008477366529405117, 0.10115313529968262, 0.00010606053547235206, 0.034076400101184845, -1.4151752338875667e-06, 0.015065609477460384, 0.10507489740848541, 0.003224623156711459, -1.8918766727438197e-05, 0.0014085654402151704, 0.0003278319491073489, -4.810655809706077e-05, -0.0003565103397704661, 0.0003702125686686486, 0.0002707104431465268, -0.016336439177393913, -0.10069071501493454, -0.00018607507809065282, 0.023034242913126945, 1.3834463970852084e-05, 0.010823539458215237, -0.0009189762058667839, 0.09214859455823898, -6.264047897275304e-06, 0.03739847242832184], [0.003739631734788418, -0.01640075258910656, 0.0021642930805683136, 0.00040273007471114397, -0.009075445123016834, -0.0028882508631795645, 2.6077852453454398e-05, -0.003784239524975419, 0.0003604032099246979, 0.003416985971853137, 0.003349447622895241, 0.00020429844153113663, -0.012027920223772526, -0.0004998589865863323, 0.030565587803721428, -0.005598345305770636, 0.03271433338522911, -2.6901396267930977e-05, 0.002427582861855626, -9.129207683145069e-06, 0.007664707489311695, -0.007669687271118164, 0.001742734806612134, 9.13343537831679e-05, -0.00046422527520917356, -0.0013065250823274255, 4.03184603783302e-05, -0.00026336085284128785, 0.00033706845715641975, -3.840479621430859e-05, 0.008909001015126705, 0.002647247165441513, 3.491256575216539e-05, 0.015332887880504131, -7.948232450871728e-06, -0.040467213839292526, -0.0008812759770080447, 0.017986053600907326, 2.4227078938565683e-06, -0.02242964506149292], [5.472877455758862e-05, 2.890316181947128e-07, 7.212522905319929e-05, 1.132067700382322e-05, -7.065631507430226e-05, 3.1936368031892926e-05, 2.3211451605220645e-07, -2.4606646547908895e-05, 2.129374843207188e-05, -6.048793238733197e-06, 6.061324893380515e-05, -5.6099629546224605e-06, -3.314843343105167e-05, 3.0246792448451743e-06, 0.00016340722504537553, 6.13629599683918e-05, 0.00030597992008551955, 3.6047967455488106e-07, 4.839771645492874e-05, -2.78588203173058e-07, 2.6980324037140235e-05, -8.378237544093281e-05, 3.597563409130089e-05, -1.481555500504328e-06, -1.2224018064443953e-06, -1.2263763892406132e-05, -1.1601309779507574e-06, 2.207032821388566e-06, 9.383484211866744e-06, 5.647230949534787e-08, 6.467967614298686e-05, 2.2245409127208404e-05, -7.301760547306912e-07, 0.0001610388426342979, 5.194670649188993e-08, 9.124451025854796e-05, -2.981206853291951e-05, 0.0001883588411146775, 1.04030775105457e-07, 0.00013450597180053592], [-0.00011713000276358798, -0.0003687979478854686, -0.0003427175397519022, 9.304149716626853e-05, -0.0005931394989602268, -0.0011313059367239475, 3.11235744447913e-05, -0.0003721143293660134, 0.00010667348396964371, 0.00023292454716283828, -0.00010480066703166813, 3.0504457754432224e-05, -0.0006538399611599743, -7.81984708737582e-05, 0.00026121066184714437, 6.076459976611659e-05, 0.0028989070560783148, -5.067993242846569e-06, -0.0006087063811719418, -1.5999343077055528e-06, 0.00011720184556907043, -0.000995487323962152, 6.360137194860727e-05, 1.2499794138420839e-05, -0.00018091055972035974, -0.00018694598111324012, 1.3616885325973271e-06, -4.0412644011667e-05, -4.706656454800395e-06, -1.3924987797508948e-05, 0.0006209382554516196, 0.0015100089367479086, 1.175530269392766e-05, 0.00027859440888278186, 3.651910276403214e-07, -0.0003817275573965162, -1.3100438081892207e-05, 0.0013165130512788892, 2.3867690401857544e-07, -0.00026148284086957574], [0.001459272694773972, -0.00447039632126689, -7.407168595818803e-05, 9.677452908363193e-05, -0.0026881813537329435, 0.00017974233196582645, -3.777616802835837e-05, -0.0015347826993092895, -5.692866125173168e-07, 0.0010750909568741918, 0.0014258382143452764, 0.0001398703461745754, -0.003079107031226158, -0.0002953972143586725, 0.006108174566179514, -0.0005802096566185355, 0.014568030834197998, 1.7198119167005643e-05, 0.00037374108796939254, -8.919171705201734e-06, 0.0035023142118006945, -0.002964313607662916, 0.0011122033465653658, 2.7804842829937115e-05, -0.00029462602105922997, -0.0006651331204921007, -1.564775811857544e-05, -0.0002475932997185737, -7.374893903033808e-05, 4.556276508083101e-06, 0.0026618053670972586, 0.0006816021050326526, -1.0089103852806147e-05, 0.004127605352550745, -1.9193994376109913e-06, -0.00618231063708663, -0.00015018845442682505, 0.005558835342526436, 1.0695979653974064e-05, -0.0028293286450207233], [1.4897429537086282e-05, 2.9637540137628093e-05, 4.237139000906609e-05, 3.415434548514895e-06, -2.4854040020727552e-05, 1.3882972780265845e-05, 2.3110322899810853e-07, 3.6715819078381173e-06, 8.581651854910888e-06, -8.713335773791187e-06, 1.6343221432180144e-05, -2.4433429643977433e-06, 9.159048204310238e-07, 2.534357008698862e-06, 0.00011858248763019219, 2.20025576709304e-05, 0.00015652885485906154, 1.1240906161447128e-07, 1.862388671725057e-05, -1.0775342218494188e-07, -3.393825318198651e-05, -1.901154791994486e-05, 4.011083547084127e-06, -6.117167572483595e-07, 2.0204613804253313e-07, -2.4010228116821963e-07, -3.972958211306832e-07, 2.0120071440032916e-06, 3.9103019844333176e-06, -1.9792471661617128e-08, 2.1410409317468293e-05, 8.903459274733905e-06, -2.4873463644325966e-07, 0.00010667211608961225, 2.557571221473154e-08, 5.588671047007665e-05, -1.0108938113262411e-05, 0.00011709365207934752, 1.8272878321567987e-08, 8.321829227497801e-05], [0.0005656887660734355, -0.0013610349269583821, 0.0001509374415036291, 0.0001126771021517925, -0.0006039130967110395, 0.0003325493016745895, -7.793856639182195e-06, -0.0004953622119501233, 0.00010850914259208366, 0.0003714223566930741, 0.00036497425753623247, 9.507170943834353e-06, -0.0008026877767406404, -7.475198799511418e-05, 0.0030757675413042307, -0.0005634610424749553, 0.007197951432317495, 9.5774230430834e-06, 0.0003778388781938702, -7.39592769605224e-06, 0.0011885225540027022, -0.0010615868959575891, 0.0001726309274090454, -1.0531700354476925e-05, -9.36596843530424e-05, -0.0001920107752084732, -2.4510482035111636e-05, -4.5280954509507865e-05, 4.77035682706628e-05, 4.4751041627932864e-07, 0.0005888790474273264, 9.424369636690244e-05, -1.6132189557538368e-05, 0.0013574975309893489, 7.203049108284176e-07, -0.0035784952342510223, -6.667786510661244e-05, 0.003210345981642604, 3.2880889193620533e-06, -0.001908478676341474], [0.00016925661475397646, -0.00011773470032494515, 0.0005944585427641869, 0.00016889709513634443, 0.00046778228715993464, -2.0387542463140562e-05, 3.547722826624522e-07, -9.893136302707717e-05, 0.00028830207884311676, 0.00018458926933817565, -0.0002310317213414237, -7.084586104610935e-05, 7.246632594615221e-05, 4.437295501702465e-05, 0.0033957718405872583, -0.0012017959961667657, 0.008696846663951874, 1.1770571290981025e-05, 0.0005994957755319774, -1.0749509783636313e-05, 0.0003133720310870558, -0.0011304585495963693, -0.0004449229163583368, -3.164890586049296e-05, -1.5601739505655132e-05, 3.258709330111742e-05, -3.832468428299762e-05, 0.00010488017869647592, 0.00020285278151277453, -2.6623496296451776e-07, -0.00038560465327464044, 0.0004075280448887497, -2.5621100576245226e-05, 0.0006641402142122388, 2.6330753826186992e-06, -0.004551610443741083, -3.872279921779409e-05, 0.004636240191757679, 1.966783202078659e-06, -0.0028261083643883467], [-1.0030536259364453e-06, 2.8264953471079934e-06, -3.0629809089077753e-07, 3.766310214814439e-07, -3.8483640310005285e-06, -7.766069757053629e-06, 1.6946746939083823e-07, -3.0542989861714887e-06, 6.933773875061888e-07, 4.472176726721955e-07, -1.8685116742744867e-07, 3.1295306257561606e-07, -3.049480028494145e-06, -7.486011668333958e-07, 1.3771951898888801e-06, 9.299199064116692e-07, 1.0763440513983369e-05, -3.299742701301511e-08, -4.340551186032826e-06, 5.884441822701092e-10, -2.3051834432408214e-06, -6.817688245064346e-06, 7.337472993640404e-07, 6.435327293274895e-08, -1.0738298215073883e-06, -1.2936786788486643e-06, 2.8314655509120712e-08, -2.8159129783489334e-07, -1.434720076076701e-07, -5.8808442560120966e-08, 6.696328000543872e-06, 8.847300705383532e-06, 8.064339596103309e-08, 3.386243861314142e-06, 1.2844023622449185e-09, 8.717404853086919e-06, -1.4945673854072083e-07, 8.564782547182404e-06, -2.7085464981979612e-09, 1.0452949936734512e-05], [0.013780544511973858, -0.0434378944337368, 0.003029483137652278, 0.0014126612804830074, -0.02490636147558689, 0.01950059086084366, -8.477047958876938e-05, -0.011296804063022137, 0.0020620704162865877, 0.005503601860255003, 0.010319238528609276, 3.628688500612043e-05, -0.022053061053156853, -0.0009746990399435163, 0.04737108200788498, -0.008458045311272144, 0.1838880330324173, 8.268578676506877e-05, 0.003092394443228841, -7.362048199865967e-05, 0.02935732528567314, -0.0008041199180297554, 0.010341113433241844, 1.877310023701284e-05, -0.0019404360791668296, -0.003969970159232616, -0.000123095465824008, -0.0007210983894765377, 0.0006355876103043556, 2.1928632122580893e-05, 0.0188499316573143, 0.003596382914111018, -6.94711270625703e-05, 0.06665141135454178, 4.986947260476882e-06, -0.07440545409917831, -0.0014017227804288268, 0.06802085041999817, 5.1502858696039766e-05, -0.013667752034962177], [-0.05782768130302429, 0.013768150471150875, -0.07562775909900665, 0.00758083863183856, -0.03350061923265457, 0.016305986791849136, 0.007669886574149132, 0.12737663090229034, 0.00710388133302331, -0.06438563764095306, -0.10558412969112396, -0.0008008830482140183, 0.10240045189857483, 0.005611912813037634, -0.22178961336612701, -0.0733763575553894, -1.207074522972107, -0.0004874899750575423, -0.2408655732870102, -0.0006375026423484087, -0.31400254368782043, 0.30344992876052856, -0.060221537947654724, -0.001239802804775536, -0.027445243671536446, 0.011782428249716759, -0.00010039869084721431, 0.0016843226039782166, -0.011129181832075119, -0.0019890049006789923, -0.1145181730389595, 0.09784211963415146, 0.0010516464244574308, -0.06241451948881149, 0.0004253461374901235, -0.05738222226500511, -0.02789965644478798, -0.5808711647987366, -0.0004908819682896137, 0.18696275353431702], [5.509009497473016e-06, 2.2720207198290154e-05, 2.416661664028652e-05, 2.680278157640714e-06, -1.7869429939310066e-05, -2.4627602215332445e-06, 3.023734791440802e-07, 3.6719265494866704e-07, 5.3611565817845985e-06, -4.547659955278505e-06, 7.4739423325809184e-06, -1.0399924121884396e-06, -7.142816116356698e-07, 7.323857857954863e-07, 8.72348464326933e-05, 1.2394571058393922e-05, 0.00013340644363779575, 2.5888141408358933e-08, 4.8311330829164945e-06, -5.7000541175966646e-08, -2.5936187739716843e-05, -1.977043939405121e-05, 2.104024360960466e-06, -2.6932895025311154e-07, -1.1863048712257296e-06, -1.480935566178232e-06, -1.8966930781516567e-07, 8.720676873963384e-07, 1.9612486994446954e-06, -8.055010169982779e-08, 1.568720836075954e-05, 1.3800937267660629e-05, -5.0305800414207624e-08, 8.041335240704939e-05, 1.456586939951876e-08, 3.913441832992248e-05, -5.615509508061223e-06, 9.538885205984116e-05, 7.513347277665616e-09, 5.6443666835548356e-05], [-0.0004982121172361076, 0.01011008583009243, 0.008953101933002472, 0.003281451528891921, 0.025539392605423927, 0.03366461396217346, 0.0006884595495648682, 0.003493801224976778, 0.004159623757004738, 0.009576915763318539, -0.014201276004314423, -0.0019467193633317947, -0.003994139842689037, 0.0023534721694886684, 0.17057256400585175, -0.023692216724157333, -0.23032128810882568, 3.924092015950009e-05, 0.01754031889140606, -1.1361503311491106e-05, -0.043017830699682236, 0.02960064820945263, -0.019683241844177246, -0.0004049545677844435, 0.0008974213269539177, 0.00500903045758605, -0.00014878374349791557, 0.004353065975010395, 0.00515004200860858, -3.820612619165331e-05, -0.013181675225496292, -0.00400220463052392, -7.245328015414998e-05, -0.06928033381700516, -4.8375095502706245e-05, -0.08674614131450653, 0.0010149568552151322, 0.09007804095745087, 4.0460421587340534e-05, -0.09398630261421204], [4.376509110670668e-08, 4.1281427165529294e-09, 2.117068191864746e-07, 1.83428010558373e-08, -1.4968560435590916e-07, -4.1347291812598996e-08, -8.822975683386858e-10, 2.6246842921295865e-08, 3.386785252246227e-08, -5.317796336612446e-08, 5.7875109149563286e-08, -9.320444860350108e-09, -4.1546952544990745e-09, 8.27348856091703e-09, 1.07819880668103e-06, 1.8289880188149255e-07, 1.4376113313119276e-06, 6.270966523835853e-10, 5.48886447404584e-08, -4.69596694863128e-10, -1.1075332650989367e-07, -3.805123682809608e-08, 2.8635557924872046e-08, -2.392697595610116e-09, -8.15406941967467e-09, -6.2741225548279544e-09, -1.9856494226644372e-09, 6.593462664739036e-09, 1.3837961887475103e-08, 1.6917708553498834e-11, 1.29430361539562e-07, 9.104219600430952e-08, -1.023641171826739e-09, 9.29534053284442e-07, 1.596891369137765e-10, 3.6889744592372153e-07, -4.2295553726034996e-08, 6.328145332190616e-07, 1.5876275294424147e-10, 4.41192611333463e-07], [-0.036692336201667786, 0.1936872899532318, 0.04046507552266121, 0.008479490876197815, 0.13039371371269226, -0.0845041275024414, -0.0008282693452201784, 0.03444504365324974, 0.02519122138619423, 0.0012035865802317858, -0.05403981730341911, -0.009557034820318222, 0.1526031792163849, 0.012269657105207443, -0.0737772062420845, -0.03342021256685257, 0.16454224288463593, 0.0003124155045952648, 0.03279604762792587, -0.00015870193601585925, -0.07357386499643326, -0.03038088046014309, -0.07014065235853195, -0.0018985451897606254, 0.007064373232424259, 0.02157967910170555, -0.0012643750524148345, 0.017319228500127792, 0.022499091923236847, 0.0003908006474375725, -0.13400854170322418, 0.0774560421705246, -0.0010090715950354934, -0.32972046732902527, 1.919186433951836e-05, -0.30451810359954834, 0.007796944584697485, -0.10398542881011963, 2.211725768574979e-05, -0.3806586265563965], [0.00024176253646146506, 0.00042356736958026886, -0.0008159104036167264, 0.00011451148748164997, -0.0012071675155311823, -0.0016394875710830092, 1.924117714224849e-05, -0.0005266352090984583, 0.00014915334759280086, 0.0002729583065956831, 0.0003243262181058526, 2.8017953809467144e-05, -0.0005541908903978765, -9.680043149273843e-05, -0.0009391079656779766, 0.0003449615905992687, 0.0009695417247712612, 3.1035269785206765e-06, -0.0004456080205272883, -4.291743607609533e-06, 0.0012250459985807538, -0.00274577084928751, 0.0002094779338221997, -1.111983601731481e-05, -0.00018329013255424798, -0.00027621648041531444, -1.1291640475974418e-05, -7.415688742185012e-05, 1.629747021070216e-05, -4.73280579171842e-06, 0.0010654331417754292, 0.0014991264324635267, -3.334816028655041e-06, -0.001683071255683899, 1.5408800209115725e-06, -0.0011317073367536068, -3.3407288810849423e-06, -7.578652730444446e-05, -5.034772811995936e-07, -0.0015860793646425009], [0.00925678201019764, -0.024994224309921265, 0.009184544906020164, 0.0012476039119064808, -0.02255510911345482, 0.02015804871916771, 0.0004991859314031899, -0.005542371887713671, -0.0005918400129303336, 0.002784054260700941, 0.011575550772249699, 0.000193389889318496, -0.03166957572102547, -0.0006886299815960228, 0.09294378757476807, 0.0037716692313551903, 0.09232740849256516, 5.0324350013397634e-05, 0.00576461385935545, 6.661260704277083e-05, 0.009512214921414852, -0.004682946018874645, 0.010567228309810162, 6.027827475918457e-05, -0.0005966246826574206, -0.002091243164613843, 6.431468500522897e-05, -0.0006450596265494823, -0.00023612036602571607, -5.1240822358522564e-05, 0.024985376745462418, -0.014016934670507908, 0.00012669790885411203, 0.06777650117874146, -4.72342835564632e-05, -0.007311626337468624, -0.0024552217219024897, 0.058588847517967224, 0.00010048838157672435, 0.0036020230036228895], [-1.3859319913933632e-08, -1.9692953401317936e-07, -1.6089985876988067e-07, -6.171175570557352e-09, 4.8296669774572365e-08, -1.3701269097055047e-07, -4.923087271180293e-09, -4.180805479592209e-09, 6.7435994566267254e-09, 1.2298840168512015e-08, -8.604487788943516e-08, -3.3206284388853646e-09, 1.4362980138571402e-08, 2.282250832763566e-09, -2.2776853825234866e-07, 1.0874922296011391e-08, -6.618914483169647e-08, 3.093123535080622e-10, -5.122382518152335e-08, 2.3709958996143143e-10, 3.8155673109940835e-07, 3.5528124442407716e-08, -3.461352093836467e-08, 2.3018891237569505e-09, -2.5151141613832806e-08, -1.023536255750912e-09, -4.861562818980758e-10, 2.5611408549508496e-09, 8.390093064747361e-09, 6.153674236841766e-10, -1.34705729237794e-07, 6.078109748841598e-08, -6.683845144017653e-11, -1.2600573029430961e-07, 4.4731839760059344e-11, -1.6098063326808187e-07, 3.845631724175291e-08, -3.958045340368699e-07, 3.1106955900028765e-10, -3.027888340056961e-07], [-0.01599888689815998, 0.1162618026137352, 0.05120571330189705, 0.004750647582113743, 0.07870081812143326, -0.019439788535237312, -0.0005480500403791666, 0.0376473143696785, 0.013765028677880764, -0.014615400694310665, -0.028905469924211502, -0.005833498667925596, 0.12541617453098297, 0.008166697807610035, 0.11857575923204422, -0.014155255630612373, 0.08000373840332031, 0.0002152326051145792, 0.017968159168958664, -0.0001866236561909318, -0.0577736422419548, 0.025230158120393753, -0.03766016289591789, -0.0013498453190550208, 0.004925652872771025, 0.013790871016681194, -0.0008771815337240696, 0.009118778631091118, 0.011479859240353107, 0.0001872966531664133, -0.10325320065021515, 0.020568231120705605, -0.0006361279520206153, 0.042000144720077515, 9.419221896678209e-05, -0.15260551869869232, -0.0005656173452734947, 0.11391623318195343, -4.346523928688839e-05, -0.12588229775428772], [-0.0016251640627160668, -0.0003248133580200374, 0.002538960659876466, 0.0005546995671465993, -0.0033855505753308535, -0.0055265058763325214, 7.171397737693042e-05, 0.0003726771683432162, 0.0007532683666795492, 0.00024972393293865025, -0.001465605921112001, -5.277678792481311e-05, -0.0022281603887677193, -2.2559759599971585e-05, 0.022870738059282303, 0.002706364495679736, 0.1252904087305069, -2.0559728000080213e-05, -0.0020361985079944134, 2.3557633539894596e-05, -0.008617387153208256, 0.0015997686423361301, -0.0014067379524931312, 8.77464990480803e-05, -0.0007367995567619801, -0.0003703921101987362, 4.493214510148391e-05, 0.00019755943503696471, 0.000399003125494346, -2.2772297597839497e-05, 0.002909136936068535, 0.008944726549088955, 6.718592339893803e-05, 0.010485723614692688, -2.1704092887375737e-06, 0.0008792633889243007, -0.0005909025785513222, 0.026504047214984894, 2.190106670241221e-06, -0.003284898353740573], [0.08815790712833405, -0.29399046301841736, 0.010598075576126575, -0.007202828768640757, -0.07523827254772186, 0.07913010567426682, 0.0009934277040883899, -0.10593878477811813, -0.019761499017477036, 0.0631280243396759, 0.07844704389572144, 0.01096143014729023, -0.2229008674621582, -0.015753909945487976, -0.0351235456764698, -0.058193180710077286, 0.039465341717004776, -0.0008783907978795469, 0.03686022013425827, 0.00048763855011202395, 0.29660066962242126, -0.051592085510492325, 0.04256651550531387, 0.0028697201050817966, 0.0045069134794175625, -0.01991158351302147, 0.0022452769335359335, -0.014215437695384026, -0.01339335460215807, -0.000317993137286976, 0.1785767823457718, -0.12114179134368896, 0.00137759477365762, -0.16870111227035522, -0.00022031909611541778, -0.48587802052497864, -0.005958142690360546, -0.18685001134872437, -0.00012890141806565225, -0.5788547992706299], [0.004209743347018957, -0.0017806695541366935, -0.0007032048306427896, 0.0005009217420592904, -0.005632841028273106, -0.0048889112658798695, 0.0001937153865583241, -0.0032645727042108774, 0.00013986648991703987, 0.002295376732945442, 0.005278751254081726, 0.0001913799496833235, -0.005654329899698496, -0.00043640186777338386, 0.007636875379830599, 0.0028907328378409147, 0.007191518787294626, 1.4471330359810963e-05, -0.0009259100770577788, -7.644364814041182e-06, -0.00024221242347266525, -0.014852769672870636, 0.0027607649099081755, -2.4370054234168492e-05, -0.00024657745962031186, -0.001542628393508494, -2.85139412881108e-05, -0.0005125918542034924, -7.040083437459543e-05, -6.555089385074098e-06, 0.006907109636813402, 0.00715476693585515, -1.2560760296764784e-05, -0.0022978864144533873, -2.198897391281207e-06, -0.006444558966904879, -0.0014288185629993677, 0.005084319040179253, -5.131829766469309e-06, -0.0058474065735936165], [4.3252970499452204e-05, -0.00010014600411523134, 3.7173478631302714e-05, 3.682456735987216e-05, 1.0918162843154278e-05, -3.984083014074713e-05, 6.359123744914541e-06, -2.4299220967805013e-05, 6.911371019668877e-05, 2.3930459065013565e-05, -3.805061351158656e-05, -3.8274934922810644e-05, -0.00011236040882067755, 2.8602875318028964e-05, 0.0003055895213037729, -0.0002446994185447693, 0.00036464064032770693, -1.2692161988070438e-07, 4.586776049109176e-05, -1.5610388572895317e-06, 9.647977276472375e-05, -7.105369149940088e-05, -5.289240289130248e-05, -1.3354326256376226e-05, -1.4479716128334985e-06, 1.9510402125888504e-05, -8.7909584181034e-06, 4.078277925145812e-05, 5.657748624798842e-05, -2.6855061605601804e-06, 2.596824742795434e-06, 6.207927799550816e-05, -2.6154261831834447e-06, 2.8796708647860214e-05, 9.220843253388011e-07, -0.0004597314109560102, 2.1918795027886517e-05, 0.00015475838154088706, -4.565769131659181e-07, -0.00034166304976679385], [0.01154711190611124, -0.029757468029856682, 0.0009547571535222232, 7.872014066379052e-06, -0.04200855642557144, -0.005968681536614895, 0.00028696178924292326, -0.009496613405644894, -0.002180274575948715, 0.006023596040904522, 0.015901345759630203, 0.0014536450617015362, -0.02842073328793049, -0.002267062896862626, 0.03268468752503395, -0.007772959768772125, 0.07692435383796692, -7.288171764230356e-05, -0.003701436799019575, -2.8772505174856633e-05, 0.0018661697395145893, -0.011830825358629227, 0.014345698989927769, 0.00022846073261462152, -0.0016864563804119825, -0.005438408814370632, 0.0001293595414608717, -0.0028089506085962057, -0.002204703167080879, -9.945821511792019e-05, 0.03244601562619209, 0.009546278044581413, 0.00011430168524384499, 0.04246091470122337, 6.377889008035709e-07, -0.04828100651502609, -0.0035739971790462732, 0.03463476151227951, -3.0053801310714334e-05, 0.006346993613988161], [-0.025443708524107933, 0.029536370187997818, -0.0020912927575409412, 0.009664464741945267, -0.006220776587724686, -0.06905960291624069, 0.0014020752860233188, 0.03143760561943054, 0.015531525015830994, -0.0018358288798481226, -0.05553518608212471, -0.002807228360325098, 0.02278171293437481, 0.0022273364011198282, 0.13962788879871368, 0.08668459206819534, 0.8035615682601929, -0.00024671919527463615, -0.04703032225370407, 3.450845179031603e-05, -0.07501993328332901, 0.13827362656593323, -0.042902931571006775, 0.00012034840619890019, -0.017444705590605736, -0.0021326690912246704, -9.503088949713856e-05, 0.006488346494734287, 0.009855755604803562, -0.0006945694331079721, -0.022285493090748787, 0.116998590528965, 0.0006233312888070941, 0.020282017067074776, 5.8935926062986255e-05, 0.05056687816977501, -0.0036653489805758, 0.3311655521392822, -4.1459803469479084e-05, -0.10799367725849152], [2.584520643722499e-06, -3.744401692529209e-05, -2.0377203327370808e-05, 1.9977053398179123e-06, -6.195682362886146e-05, -5.2805673476541415e-05, 6.196399908731109e-07, -3.892097811331041e-05, -2.2071112937283033e-07, 1.6603631593170576e-05, 1.6469521142425947e-05, 4.7221960812748875e-06, -6.706849671900272e-05, -9.641753422329202e-06, 7.467654995707562e-06, 1.0775466762424912e-05, 0.00010753333481261507, -2.2373833985511737e-07, -2.837078136508353e-05, 9.114727106407372e-08, 7.005400402704254e-05, -6.85549748595804e-05, 2.9021019145147875e-05, 1.1066497336287284e-06, -1.1464599992905278e-05, -1.8995646314579062e-05, 4.336181120834226e-07, -6.913904144312255e-06, -4.667262601287803e-06, -4.0533853962188005e-07, 6.881929584778845e-05, 5.000709279556759e-05, 8.663987500767689e-07, 4.5950124331284314e-05, -2.6055444024564167e-08, 4.415468720253557e-05, 9.455778808842297e-07, 1.4080826076678932e-05, 2.988769054468321e-08, 5.301029159454629e-05], [0.0015532460529357195, -0.018183588981628418, -0.002708213636651635, -0.0001330177765339613, -0.0069150556810200214, -0.005013392306864262, -0.0001239516568602994, -0.005248991306871176, -0.0006359668332152069, 0.0030950894579291344, 0.0019181958632543683, 0.0004852027341257781, -0.013110402040183544, -0.0009186710231006145, -0.000856492668390274, -0.0066712344996631145, 0.00784242432564497, 4.264984090696089e-05, -0.0007065331446938217, 1.89581151062157e-05, 0.014967878349125385, -0.008721391670405865, 0.003445001784712076, 0.00012951879762113094, -0.0005775752943009138, -0.0017380090430378914, 2.401803976681549e-05, -0.0007641890551894903, -0.00047451991122215986, 5.887888983124867e-05, 0.008856036700308323, 0.003407045267522335, 1.220428202941548e-05, 0.009271823801100254, -1.8123389963875525e-05, -0.007096779067069292, 9.324010898126289e-05, -0.006286356132477522, 4.486284888116643e-05, -0.006882925983518362], [0.0001336877467110753, -0.00117091229185462, 0.0002345958782825619, 5.990483987261541e-05, -0.0004320040752645582, -0.0008245129720307887, 9.112367479247041e-06, -0.00029916540370322764, 6.812735955463722e-05, 0.00030218204483389854, 2.300022515555611e-06, -2.64300215349067e-05, -0.0011210181983187795, -8.258615707745776e-06, 0.00249428185634315, -0.0008362249354831874, 0.001683112233877182, -1.1360089047229849e-06, 0.00021754355111625046, -2.811186050166725e-06, 0.00037030052044428885, -0.0011333642760291696, -0.00011065149010391906, -2.5901112167048268e-05, -2.542048241593875e-05, -4.971597081748769e-05, -2.154783214791678e-05, 3.099548848695122e-05, 6.309799937298521e-05, -5.399454494181555e-06, 0.0006424820167012513, 0.0003885053447447717, -1.1936704140680376e-05, 0.0002396729978499934, 8.539167879462184e-07, -0.0029224841855466366, 4.0204024116974324e-05, 0.0009025412146002054, -1.16837350105925e-06, -0.0021182845812290907], [0.001238267868757248, -0.003974857274442911, 0.0011856863275170326, -8.580686881032307e-06, -0.002458967501297593, -0.001139302970841527, 9.809968469198793e-05, -0.0010048513067886233, -0.00016854102432262152, 0.00044467500993050635, 0.002151630586013198, 0.0001369000383419916, -0.003647963283583522, -0.00017419643700122833, 0.012274123728275299, 0.001473120995797217, 0.011590694077312946, -2.54496462730458e-05, 0.0010421053739264607, -7.57843417886761e-06, 0.0015352937625721097, -0.005484139546751976, 0.0010356189450249076, -1.2014148524031043e-05, 4.252342114341445e-05, -0.0003570250701159239, 3.1762176604388515e-06, -0.00021262002701405436, -0.0001783941697794944, -3.3735439501469955e-05, 0.003891069209203124, -0.0003925030177924782, -4.7662229007983115e-06, 0.004309406038373709, 3.7141053326195106e-06, 0.002298538340255618, -0.0005714739672839642, 0.0080028111115098, -1.9681576304719783e-05, 0.0001878260081866756], [-0.0012067436473444104, -0.006761656608432531, -0.00029059677035547793, 0.0005040466785430908, -0.015047525055706501, -0.020382637158036232, 0.00028592348098754883, -0.0029722738545387983, 0.00020430012955330312, 0.0020200677681714296, 0.000592641590628773, 0.000432422588346526, -0.011229893192648888, -0.0007920298958197236, 0.010938726365566254, 0.0001436394377378747, 0.05704018101096153, -7.013592403382063e-05, -0.006448828615248203, 1.9872686607413925e-05, -0.00831570290029049, -0.013798156753182411, 0.0019921804778277874, 0.0001907388650579378, -0.0015802286798134446, -0.0021003372967243195, 0.00010867646778933704, -0.0005935130757279694, -0.00039882404962554574, -0.0001104343609767966, 0.012875376269221306, 0.01790822297334671, 0.00014379911590367556, 0.013689398765563965, -6.236673470993992e-06, -0.010318167507648468, -0.0010504627134650946, 0.021298956125974655, -8.417415301664732e-06, -0.0006206149118952453], [0.00015465242904610932, -0.0006154242437332869, -0.00011049632303183898, 3.8779999158577994e-05, -0.00021664374799001962, 1.926693948917091e-05, -8.868169061315712e-06, -0.00020020388183183968, 1.1620687473623548e-05, 0.0001637911336729303, 0.00011280750186415389, 5.348289960238617e-06, -0.0004342117754276842, -3.4899152524303645e-05, 0.00036752427695319057, -0.00025795260444283485, 0.0002333279262529686, 2.185199036830454e-06, 8.297072781715542e-05, -7.294087254194892e-07, 0.0005240687169134617, -0.0003217466583009809, 9.850301285041496e-05, -5.676641649188241e-06, -2.2119502318673767e-05, -7.655959780095145e-05, -7.3808423621812835e-06, -2.4042130462476052e-05, 8.399015314353164e-06, 2.331712494196836e-06, 0.0002595103869680315, -4.362740583019331e-05, -5.8065402299689595e-06, -6.542257324326783e-05, -5.023170857043624e-08, -0.0008917179075069726, -1.4061793990549631e-05, -0.00010650694457581267, 7.115725679796014e-07, -0.0006792122148908675], [0.016067679971456528, -0.10658518970012665, -0.01980569399893284, -0.0017300423933193088, -0.042443953454494476, 0.008645074442029, 2.7764081096393056e-05, -0.02558247745037079, -0.006219157949090004, 0.018106091767549515, 0.019672391936182976, 0.0029074151534587145, -0.06778409332036972, -0.004713785834610462, -0.01865488477051258, 0.0007079669157974422, -0.03732994571328163, -9.989045793190598e-05, -0.003289003623649478, 4.210885163047351e-05, 0.06991671025753021, -0.003306974656879902, 0.022840293124318123, 0.0007329544750973582, -0.0030772152822464705, -0.009062324650585651, 0.0003987050149589777, -0.004693987779319286, -0.0041062915697693825, -6.035746628185734e-05, 0.04947274178266525, -0.007571372669190168, 0.00026453350437805057, 0.012695981189608574, -4.6528490202035755e-05, -0.03166572377085686, -9.339936514152214e-05, -0.06515911966562271, 2.533990664232988e-05, -0.023049451410770416], [0.0002604288747534156, -0.0012891325168311596, -0.00023989636974874884, 2.7111962481285445e-05, -0.0005664861528202891, -0.00010887341341003776, -2.6999279725714587e-05, -0.0004139500961173326, -3.990986806456931e-05, 0.00032861382351256907, 0.00024670420680195093, 4.702501973952167e-05, -0.0009288859437219799, -9.59222306846641e-05, 0.0006523520569317043, -0.0004701322177425027, 0.0007686512544751167, 3.94549442717107e-06, 5.512616553460248e-05, -3.770094565425097e-07, 0.0010406509973108768, -0.000738578790333122, 0.00024865256273187697, 9.45191550272284e-06, -6.967873923713341e-05, -0.00016825088823679835, -6.989056146267103e-06, -8.115547825582325e-05, -3.378828478162177e-05, 5.087626959721092e-06, 0.0006433262024074793, 5.1904124120483175e-05, -6.673245025012875e-06, 0.00022370136866811663, -4.967686777490599e-07, -0.001378157758153975, -1.786265602277126e-05, -0.00012899631110485643, 1.8768828340398613e-06, -0.0010349313961341977], [-0.03878543898463249, 0.038497280329465866, 0.09578508138656616, 0.005007632542401552, -0.040565259754657745, -0.06891924887895584, 0.00352862779982388, 0.0382213369011879, 0.002190407132729888, -0.027890879660844803, -0.025336449965834618, -0.0011541356798261404, 0.014090428128838539, 0.003103590337559581, 0.40956804156303406, 0.06532859057188034, 1.0205084085464478, -0.00017871464660856873, -0.028848672285676003, -0.00034691966720856726, -0.16793018579483032, 0.0320390909910202, -0.0062091294676065445, -0.0009383181459270418, -0.003353278851136565, 0.005167846102267504, -0.000325625209370628, 0.00199534697458148, -0.004745317157357931, -0.0010084438836202025, 0.01532253623008728, 0.12263456732034683, 0.0003149351105093956, 0.34896203875541687, 0.000156097870785743, 0.08820856362581253, -0.012071989476680756, 0.5412632822990417, -0.00016214021889027208, 0.1066959798336029], [-0.0011804604437202215, 0.005695219151675701, 0.008799241855740547, 0.0010532282758504152, 0.013096551410853863, 0.00873476266860962, 8.745472587179393e-05, 0.004481357987970114, 0.0022790897637605667, -0.00012712569150608033, -0.006680385209619999, -0.0009479934233240783, 0.005561160389333963, 0.0012925199698656797, 0.03513336554169655, -0.011861328035593033, 0.02491253986954689, -1.0607434887788258e-05, 0.007851220667362213, -5.450441221910296e-06, -0.004369063302874565, 0.008241805247962475, -0.009394419379532337, -0.000129720734548755, 0.0008929689065553248, 0.002799772657454014, -6.352469063131139e-05, 0.0019055487355217338, 0.0024067831691354513, -1.5227879885060247e-05, -0.010974537581205368, -0.004382751416414976, -3.398239641683176e-05, -0.007435506675392389, 1.1315012216073228e-06, -0.028462031856179237, 0.0005718035390600562, 0.022634493187069893, -6.066463811293943e-06, -0.03278936818242073], [0.008407296612858772, -0.01937389187514782, 0.009838291443884373, 0.0014183117309585214, -0.012256319634616375, 0.026645727455615997, -0.0010700024431571364, -0.024298502132296562, 0.0019892284180969, 0.014081495814025402, 0.010844476521015167, 0.0004041761567350477, -0.05268517881631851, -0.002411053515970707, 0.12091311812400818, -0.016637317836284637, 0.356273889541626, 4.37769886048045e-05, 0.0234723798930645, 6.189005944179371e-05, 0.0696207731962204, -0.04316001012921333, 0.010380749590694904, 0.0005282497149892151, -0.0007979386718943715, -0.004921816289424896, 1.7601421859581023e-05, -0.0003089523233938962, 0.002499273046851158, 0.00018585030920803547, 0.03406472131609917, -0.0390380397439003, 1.6831256289151497e-05, 0.06896505504846573, -3.020359145011753e-05, -0.005587737075984478, 0.0010172505863010883, 0.1717953085899353, 6.636506441282108e-05, -0.030270613729953766], [2.6877296832594766e-08, 1.6724401348255924e-06, 2.088074097628123e-06, 2.431958705528814e-07, -1.658676637816825e-06, -1.6506322708664811e-06, 4.345927351323553e-08, -2.396399736426247e-07, 3.3314054803668114e-07, -2.1593972121536353e-07, 4.1188775412592804e-07, -1.5043688961213775e-08, -1.2758199545714888e-06, -4.101987727267442e-08, 9.782269444258418e-06, 8.517276910424698e-07, 5.478527782543097e-06, -3.6395226832297567e-09, 1.8546633384630695e-07, -2.1547599260429706e-09, -3.4105526083294535e-06, -2.4623343506391393e-06, 9.948410450988376e-08, -2.656812325696478e-09, -1.3350370409170864e-07, -2.3202306920211413e-07, -1.7291712506306567e-09, 6.9214367570680224e-09, 7.120546285932505e-08, -1.3252720698631038e-08, 2.0765269255207386e-06, 2.4494775061612017e-06, 8.561316988675571e-09, 6.365037279465469e-06, -9.612760587529579e-11, 4.448077106644632e-06, -4.86120882214891e-07, 7.881122655817308e-06, 1.7984547184823896e-10, 4.332532625994645e-06], [-0.009858186356723309, 0.03017551451921463, -0.050006236881017685, -0.00018055795226246119, -0.04710431024432182, -0.0998411551117897, 0.0015948968939483166, -0.011688240803778172, 0.0027016557287424803, -0.0007671465282328427, -0.018988195806741714, 0.0022803200408816338, 0.007655303459614515, -0.002338942838832736, -0.24906057119369507, -0.04109891876578331, 0.25820013880729675, -0.0003476501733530313, -0.062214288860559464, -0.0003570692497305572, -0.04578547179698944, -0.03278208151459694, 0.0017288292292505503, 0.0004603430861607194, -0.005744407884776592, -0.004412137437611818, 0.000386020983569324, -0.0018697526538744569, -0.004895727150142193, -0.000496976834256202, 0.007192441262304783, 0.06169332563877106, 0.0004313256067689508, -0.1510314643383026, 0.0002393022587057203, -0.03603910654783249, 0.0028273994103074074, -0.0384339764714241, -0.00045336352195590734, 0.0419054739177227], [5.913947020985688e-08, 2.1022924556746148e-07, 5.009178494219668e-07, 4.351833382543191e-08, -4.104775825908291e-07, -5.815636541228741e-07, -5.53027268423989e-09, 2.700979351288879e-08, 1.0385723214767495e-07, -8.641431747946626e-08, 1.5170850531376345e-07, -2.6189558965938886e-08, -6.00284550955621e-08, 1.9927474781411547e-08, 2.9976426958455704e-06, 5.629405563922774e-07, 3.1078536721906858e-06, 2.0733923467020077e-09, 1.8643534360762715e-07, -9.708502890504178e-10, -2.758921482381993e-07, -7.863818609621376e-07, 7.415422231815683e-08, -4.781857576574566e-09, -2.0757330077003644e-08, -4.096180106216707e-08, -5.302696948206176e-09, 1.6026509896960306e-08, 4.9843869476262626e-08, 1.281070249881111e-09, 3.6445874229684705e-07, 5.164135359336797e-07, -3.458002995060383e-09, 2.1369646674429532e-06, 1.9138138296348473e-10, 1.0846887334992061e-06, -1.2294445639327023e-07, 1.4848795899524703e-06, 9.177029691720406e-10, 9.65003209785209e-07], [0.03598814830183983, -0.0883047878742218, 0.0046381279826164246, -0.0006505933706648648, -0.08499233424663544, 0.011102165095508099, -0.0006018474814482033, -0.0402078703045845, -0.005012988578528166, 0.016769861802458763, 0.04665203019976616, 0.003317031776532531, -0.11597442626953125, -0.006128991954028606, 0.15339741110801697, 0.0100017124786973, 0.15318767726421356, -0.00011534746590768918, 0.004574366379529238, 9.825060260482132e-05, 0.1348516345024109, -0.06949327141046524, 0.04320378974080086, 0.0008710199617780745, -0.0022561869118362665, -0.013052782975137234, 0.000296287500532344, -0.0066367508843541145, -0.0044478764757514, -7.17628563506878e-06, 0.10197935253381729, -0.0156493429094553, 0.00020578494877554476, 0.14771148562431335, -3.240858131903224e-05, 0.015618829056620598, -0.005067522171884775, -0.01756143756210804, -1.0598065273370594e-05, 0.03179214522242546], [0.05477471277117729, -0.01867104321718216, 0.009607979096472263, -0.0006255909684114158, 0.042510103434324265, 0.24600225687026978, -0.0009368543396703899, 0.0005670770769938827, 0.0002774930908344686, -0.0019993032328784466, 0.01564767211675644, -0.0002549591299612075, 0.03436797484755516, 0.00028806214686483145, 0.08386535942554474, 0.008844960480928421, 0.24143891036510468, 0.00012155262811575085, 0.05044282600283623, -3.1915569707052782e-06, 0.014526847749948502, 0.16651344299316406, -0.0014544877922162414, 2.1216372260823846e-05, 0.0007245218730531633, 0.0016120020300149918, -5.9850535762961954e-05, 5.528555630007759e-05, 0.0007154106278903782, 0.0002949566696770489, -0.04295044392347336, -0.15799981355667114, -0.00019283998699393123, 0.0003852689696941525, 2.5106863176915795e-05, 0.02114081010222435, 0.0016313131200149655, 0.1480068862438202, -9.835966011451092e-06, 0.07028894126415253], [0.0028789127245545387, -0.011285213753581047, 0.0010238968534395099, 6.482932076323777e-05, -0.012639048509299755, -0.009490882977843285, 1.251091634912882e-05, -0.0036877670791000128, -0.00031541052157990634, 0.002628860529512167, 0.004385306965559721, 0.00041623719152994454, -0.011940214782953262, -0.0006925030029378831, 0.014932692050933838, -0.007202865090221167, 0.043261077255010605, -4.6275621571112424e-05, 0.0002490062906872481, 1.2117698133806698e-05, 0.002435849979519844, -0.014137248508632183, 0.0031726788729429245, 0.00012254936154931784, -0.00029340782202780247, -0.001623749383725226, 7.701155118411407e-05, -0.000675356830470264, -0.0003020451695192605, -3.0687770049553365e-05, 0.011376315727829933, 0.005013229325413704, 5.614394467556849e-05, 0.011528681963682175, -1.2188884284114465e-05, -0.031834520399570465, -0.0011604586616158485, 0.015152515843510628, -6.684156232950045e-06, -0.011042985133826733], [2.6669189537642524e-05, -3.162833672831766e-05, 2.4472195946145803e-05, 3.058141373912804e-06, -4.059225466335192e-05, 1.666066782490816e-05, -4.851355015489389e-07, -2.3240030714077875e-05, 1.02778603832121e-05, 3.4796773888956523e-06, 2.9486767743946984e-05, -2.8071808628737926e-06, -4.736316986964084e-05, 1.2572168088809121e-06, 7.465520320693031e-05, 6.617822691623587e-06, 3.3968870411626995e-05, 1.8275353852459375e-07, 3.233575262129307e-05, -6.084810166839816e-08, 5.5295815400313586e-05, -5.717468957300298e-05, 1.877273643913213e-05, -2.729756829467078e-07, 5.947445060883183e-07, -6.21390609012451e-06, -4.645150681881205e-07, 1.7675749859336065e-06, 5.437389518192504e-06, 1.7784164185741247e-07, 4.812512997887097e-05, 4.365380391391227e-06, -3.759016919957503e-07, 5.0360238674329594e-05, -4.6572026235480735e-09, 3.4833203244488686e-05, -9.489039257459808e-06, 2.525882337067742e-05, 8.788021688133085e-08, 3.717050640261732e-05], [-0.00017460905655752867, -0.00041079334914684296, -0.000442127522546798, 6.593917350983247e-05, -0.0006668637506663799, -0.0012985728681087494, 2.8840742743341252e-05, -0.00037033457192592323, 6.029317228239961e-05, 0.0002324053639313206, -0.0001327523641521111, 4.507666017161682e-05, -0.0007738248095847666, -8.866273128660396e-05, -0.00040648088906891644, -0.00012604377116076648, 0.0013136445777490735, -6.804805252613733e-06, -0.0006965569918975234, 7.893077054177411e-07, 0.00015716538473498076, -0.0010234980145469308, 8.285233343485743e-05, 2.0160638086963445e-05, -0.00017560001288075, -0.0001862648787209764, 7.424072919093305e-06, -5.207136564422399e-05, -3.00797928503016e-05, -1.3250752999738324e-05, 0.0006994495633989573, 0.0015230332501232624, 1.4518468560709152e-05, -0.00010425922664580867, -5.2566708319545796e-08, -0.0001820215693442151, 3.289884261903353e-05, 0.00043749119504354894, -1.1190182647169422e-07, -0.000232888080063276], [0.0010334494290873408, -0.0039413096383214, -0.0006547193042933941, -2.9928594813100062e-05, -0.0029071145690977573, -0.0009983903728425503, -6.248651334317401e-05, -0.0014345520175993443, -0.00021042634034529328, 0.00103124906308949, 0.0012650287244468927, 0.00019469323160592467, -0.0033438229002058506, -0.00032269509392790496, 0.002134338254109025, -0.0014129813062027097, 0.0045585427433252335, 5.48027855984401e-06, -0.00013030772970523685, 6.3623942878621165e-06, 0.0029082982800900936, -0.0033607203513383865, 0.001158972387202084, 6.210183346411213e-05, -0.0002450172614771873, -0.0006171339191496372, 1.1667022590700071e-05, -0.00029783372883684933, -0.00019116181647405028, 1.2367841009108815e-05, 0.002872370183467865, 0.0007472464931197464, 6.797341029596282e-06, 0.0014004057738929987, -4.982444352208404e-06, -0.004653476178646088, -3.586910679587163e-05, 0.000926662003621459, 9.021140613185707e-06, -0.0023300438188016415], [4.526854809228098e-06, 7.071146683301777e-06, 1.8325568817090243e-05, 8.302650940095191e-07, -3.687228399940068e-06, 9.732393664307892e-06, 3.118405800250912e-08, 1.874798613243911e-06, 3.8554976526938844e-06, -3.605394113037619e-06, 3.347817255416885e-06, -1.2102816526748938e-06, -5.609741037915228e-06, 1.4170981330607901e-06, 5.502227213582955e-05, 1.8603105900183436e-06, 1.652668470342178e-05, 4.051615221101201e-08, 1.3097118426230736e-05, -2.927109221673163e-08, -1.2887227967439685e-05, -8.035502105485648e-06, -2.4198886876547476e-06, -2.110111267938919e-07, 8.174004619831976e-07, 1.1262147836532677e-06, -1.3264680376323668e-07, 1.4179119034452015e-06, 2.2122333120933035e-06, 1.49576635521953e-08, 8.253176929429173e-06, 3.192704127741308e-07, -1.0922304483074186e-07, 2.9146040105842985e-05, 2.195919446279504e-09, 2.0100616893614642e-05, -3.2871830626390874e-06, 2.4891412977012806e-05, 1.0069399536405399e-08, 2.1754407498519868e-05], [0.000367542466847226, -0.0013967190170660615, -0.00020540563855320215, 1.998775769607164e-05, -0.0007570566958747804, -0.00015234931197483093, -3.220210419385694e-05, -0.00046028252108953893, -3.590317282942124e-05, 0.00039488516631536186, 0.0002975916722789407, 5.195202902541496e-05, -0.0010696743847802281, -0.00010667371680028737, 0.0011367175029590726, -0.0008726721280254424, 0.0012980739120393991, 3.705132257891819e-06, 0.00011351396824466065, 2.7518120759850717e-07, 0.0011184134054929018, -0.0010251341154798865, 0.0002390604349784553, 1.241845984623069e-05, -7.792039832565933e-05, -0.00018506958440411836, -7.3625424192869104e-06, -8.629917283542454e-05, -2.9097536753397435e-05, 5.541930931940442e-06, 0.0007539950893260539, 2.3819064153940417e-05, -6.785233836126281e-06, 7.176338112913072e-05, -8.601258514318033e-07, -0.0028654602356255054, 9.14530573936645e-06, 0.00024321205273736268, 2.471495690770098e-06, -0.00177763809915632], [5.322894503478892e-05, -0.0008116394164972007, -2.0469694845814956e-06, 5.746526221628301e-05, 0.00018806189473252743, -0.0003783327410928905, -2.4199918698286638e-05, -0.00019322232401464134, 7.848795939935371e-05, 0.00036719575291499496, -0.0002206677891081199, -1.3024679901718628e-05, -0.000552657525986433, -1.1548801012395415e-05, 0.0011003396939486265, -0.00160446937661618, 0.000260139029705897, 6.5700419327185955e-06, 0.00032143964199349284, -3.0041078389331233e-06, 0.0009017348056659102, -0.0007648724131286144, -0.00026185635942965746, -8.804092431091703e-06, -2.4705782379896846e-06, 5.462597073346842e-06, -2.0266195861040615e-05, 3.958269371651113e-05, 0.00010316979023627937, 6.53808001516154e-06, -7.849973917473108e-05, 9.853440133156255e-05, -1.7171012586914003e-05, -0.0010424858191981912, 8.550353527425614e-07, -0.0041859205812215805, 6.851140642538667e-05, 3.445419861236587e-05, 1.3020035112276673e-06, -0.003288870444521308], [-1.3204218021201086e-06, 8.414349395025056e-07, -1.0491262401046697e-06, 2.59807137581447e-07, -3.0410524232138414e-06, -8.062837878242135e-06, 1.5584033974391787e-07, -3.1370925626106327e-06, 4.0156763247978233e-07, 7.332302516260825e-07, -4.7454676632696646e-07, 3.8979129612926045e-07, -3.806054337474052e-06, -7.822324050721363e-07, -1.182196797344659e-06, 3.937984445201437e-07, 1.9073704038419237e-07, -3.4819507277461526e-08, -4.082978193764575e-06, 4.200782832697314e-09, -1.6252369050562265e-06, -5.462620265461737e-06, 4.5386698843685735e-07, 7.241458632734066e-08, -8.99706321888516e-07, -1.0090589057654142e-06, 4.064968095462973e-08, -2.774116012460581e-07, -2.0283464152726083e-07, -5.648745826647428e-08, 7.012919922999572e-06, 8.227193575294223e-06, 7.993083528390343e-08, 2.6072859782289015e-07, -4.4414624755795273e-10, 6.970331469347002e-06, 4.829769650882554e-08, 2.053703610727098e-06, -3.49752249384494e-09, 7.969208127178717e-06], [0.01233114767819643, -0.06187114492058754, -0.00429464690387249, -0.00016705521557014436, -0.03363053873181343, 0.0013318059500306845, 8.214129593397956e-06, -0.014600662514567375, -0.002276059240102768, 0.01274285838007927, 0.012384271249175072, 0.0013468307442963123, -0.04025222733616829, -0.0024186272639781237, 0.029713835567235947, -0.021734638139605522, 0.019849088042974472, -2.312042488483712e-05, 0.0005558351404033601, -4.67982454210869e-06, 0.027213748544454575, -0.002295474521815777, 0.01264477800577879, 0.00031794997630640864, -0.001530422130599618, -0.005160808097571135, 0.00014216845738701522, -0.0021884627640247345, -0.0011036976939067245, 1.7459822629461996e-05, 0.030429933220148087, 0.0023445277474820614, 8.101238199742511e-05, 0.030750822275877, -2.3209820938063785e-05, -0.07360463589429855, -0.001128937117755413, -0.005433095619082451, 2.1321395252016373e-05, -0.03425908088684082], [0.07150313258171082, -0.14771433174610138, 0.033677224069833755, 0.023432139307260513, -0.018841611221432686, 0.00398681266233325, 0.005910142324864864, -0.04945534095168114, 0.020257078111171722, 0.04386047646403313, -0.09217420965433121, 0.0041553243063390255, -0.12529338896274567, -0.012427802197635174, 0.1346711367368698, -0.03592105954885483, 0.9788462519645691, -0.0009571046684868634, -0.14019757509231567, 0.000196433873497881, 0.06786105036735535, 0.052128374576568604, -0.015250164084136486, 0.003162900684401393, -0.04908719286322594, -0.03291195258498192, 0.0012012117076665163, 0.00047072581946849823, 0.002567715710029006, -0.0020780174527317286, 0.08868373185396194, 0.11347673833370209, 0.0026181619614362717, 0.12820115685462952, -0.0002695592993404716, 0.05237875506281853, 0.015208314172923565, 0.36307865381240845, 0.00012107771181035787, 0.029277099296450615], [6.051860879097148e-08, 7.932688276923727e-06, 1.0868326171475928e-05, 1.2245715197423124e-06, -6.288642453000648e-06, -5.278986918710871e-06, 1.993508789155385e-07, -9.82754727374413e-07, 2.531641712266719e-06, -1.4947479485272197e-06, 8.964622111307108e-07, -2.9908426313340897e-07, -5.914625944569707e-06, 5.317215467925962e-08, 4.3446169001981616e-05, 1.4148089348964277e-06, 3.7845009501324967e-05, -1.5266394370883063e-08, 2.4693424620636506e-06, -1.23641630267457e-08, -1.357317523797974e-05, -1.4639838809671346e-05, -1.0000303518609144e-06, -4.09688851732426e-08, -7.639834507244814e-07, -7.436035502905725e-07, -3.1520801968554224e-08, 4.226726275646797e-07, 9.109360235015629e-07, -5.4621072109739544e-08, 9.17890702112345e-06, 9.691174454928841e-06, 2.9388543154595936e-08, 2.9802400604239665e-05, 5.242805078964352e-10, 1.958364555321168e-05, -2.170541847590357e-06, 3.824414670816623e-05, 2.685131450519407e-09, 2.032573138421867e-05], [0.014073517173528671, 0.04040493816137314, 0.019327625632286072, 0.003123118542134762, 0.05645511671900749, 0.07505626976490021, 0.0006921748863533139, 0.009152807295322418, 0.003939696121960878, 0.0098080700263381, -0.004339638166129589, -0.0018925931071862578, 0.03694244101643562, 0.002560859313234687, 0.11214293539524078, -0.003180638886988163, 0.5159931778907776, 8.001159585546702e-05, 0.030107375234365463, -2.9750013709417544e-05, -0.05824531242251396, 0.04694507271051407, -0.02497585117816925, -0.00048722350038588047, 0.0017146734753623605, 0.0053368364460766315, -0.00018127380462829024, 0.003960355184972286, 0.005421430338174105, 2.0864716134383343e-05, -0.042969170957803726, -0.0229739248752594, -0.0001609031460247934, 0.013163159601390362, -5.0266655307495967e-05, -0.07899416238069534, -0.000546625757124275, 0.19877874851226807, 4.728971907752566e-05, -0.11076105386018753], [-1.1870542770964221e-08, -1.2456899867174798e-07, 6.181366529744992e-08, 4.231022199263634e-09, -2.8081823089110003e-08, -6.438757793603145e-08, -1.7317435263564107e-09, 8.964327946614503e-09, 9.710617199232274e-09, -2.1213310219536652e-08, -1.2322024289801448e-08, -2.870894411088898e-09, -5.339867925613362e-08, 2.1414652273676893e-09, 3.7903203065070556e-07, 6.555208642566868e-08, 4.2772066422003263e-07, 2.018622491384292e-10, 2.450021163724614e-08, -4.2313548498373876e-11, 2.751082028851215e-08, -1.1008569167358928e-08, -6.402185004361627e-09, -1.6023249393981587e-10, -5.2473918543682885e-09, 9.797548883305751e-11, -5.011861481385438e-10, 3.4637801515913225e-09, 5.252294599245033e-09, 1.7302807797658915e-10, 5.8753769849317905e-08, 5.089054511131508e-08, -2.1568087593681895e-10, 2.64623196244429e-07, 3.058278977285944e-11, 1.6486460197029373e-07, -6.473132252438063e-09, 7.532872103865884e-08, 1.071139565933521e-10, 6.500653171315207e-08], [-0.026437148451805115, 0.1352987140417099, -0.023158039897680283, 0.003270060056820512, 0.09654434770345688, -0.09071194380521774, -0.0005947225727140903, 0.001753024524077773, 0.012580335140228271, 0.022442957386374474, -0.04338439926505089, -0.004318866413086653, 0.056591421365737915, 0.0051951282657682896, -0.05394839867949486, -0.06326092034578323, -0.005541385617107153, 6.983356433920562e-05, 0.012921422719955444, 3.176655081915669e-05, -0.009407623670995235, -0.06737139075994492, -0.054981086403131485, -0.0005787266418337822, 0.0022224620915949345, 0.011030568741261959, -0.0004334989353083074, 0.010033708065748215, 0.013915293850004673, 0.00025316548999398947, -0.06844726949930191, 0.06636269390583038, -0.0004289505013730377, -0.33221808075904846, -6.66369596729055e-05, -0.3254060745239258, 0.011893505230545998, -0.1024535521864891, 2.753384251263924e-05, -0.41728320717811584], [0.00023437966592609882, 0.00040314061334356666, -0.0006697995704598725, 0.00012023395538562909, -0.0016174261691048741, -0.001933165593072772, 1.9039282051380724e-05, -0.0005568736232817173, 0.00013577778008766472, 0.00019593951583374292, 0.00044926287955604494, 3.9048853068379685e-05, -0.000825258088298142, -0.00011248198279645294, -0.0006273473845794797, 0.0005087064928375185, 0.0019809261430054903, 1.8355859765506466e-06, -0.0005426678690128028, -3.802500486926874e-06, 0.0009152649436146021, -0.003075644839555025, 0.0003501931205391884, -5.948651050857734e-06, -0.00019407070067245513, -0.0003188139235135168, -8.95500761544099e-06, -9.985217184294015e-05, -1.57384856720455e-05, -6.624538855248829e-06, 0.001476443838328123, 0.001697623752988875, -1.1214624464628287e-06, -0.000707096594851464, 1.264664547306893e-06, -0.0003647916601039469, -6.791986379539594e-05, 0.0004524757678154856, -5.233873707766179e-07, -0.0006289237644523382], [0.0012406526366248727, 0.000388557615224272, 0.023862045258283615, 0.002771968487650156, -0.002609920222312212, 0.027805861085653305, 0.0003119453904218972, 0.006386177148669958, 0.0032244145404547453, -0.004817896522581577, 0.002988003194332123, -0.001954862382262945, -0.013069228269159794, 0.002311438089236617, 0.1326933056116104, 0.0012583710486069322, 0.3215065598487854, 0.00012435017561074346, 0.011997991241514683, 5.815990152768791e-05, 0.0006958934827707708, 0.009659167379140854, 0.0017646242631599307, -0.0004436406306922436, 0.0017460359958931804, 0.0027700369246304035, -0.00020538532407954335, 0.002599755534902215, 0.0032489390578120947, 1.5255964171956293e-05, 0.00432175025343895, -0.023497099056839943, -5.435165803646669e-05, 0.08947305381298065, -4.485807221499272e-05, -0.016613170504570007, -0.002744769211858511, 0.10325358808040619, 0.00012468987551983446, -0.004859951324760914], [5.0260657857847946e-09, -2.2154705447974266e-07, -1.236890909694921e-07, -3.4962557293738428e-09, -3.248453950277508e-08, -1.3178994606732886e-07, -4.540838371980271e-09, -2.9905830700727165e-08, 5.125967206254245e-09, 1.5807989584004645e-08, -4.623712257512125e-08, -1.8546657543083711e-09, -7.580761973713379e-08, -3.2436470176477883e-10, -2.5524510505192666e-08, 4.1929531846562895e-08, -2.58734729641219e-07, 2.456890801916245e-10, -3.379214774668071e-08, 2.548453392758887e-10, 3.690808227929665e-07, -5.2351918355952876e-08, -1.356800183316409e-08, 2.8991689049462366e-09, -2.7006436198462325e-08, -1.1922627329852276e-08, -2.2650224751341597e-10, -2.0837123138051084e-09, 5.5005071608604794e-09, 5.438345884734019e-10, -6.13412964867166e-08, 6.85782453047068e-08, 1.0298541186504195e-10, 3.729658359929999e-08, 7.83603390508425e-12, -5.951890713618013e-08, 2.4296324951933457e-08, -2.9811448598593415e-07, 3.2124619631090923e-10, -2.1912873648943787e-07], [-0.0185184795409441, 0.08921431005001068, 0.05414791405200958, 0.0034578994382172823, 0.06973940134048462, -0.01613432914018631, -0.0004498011840041727, 0.03347758203744888, 0.00929939467459917, -0.011770372278988361, -0.029151706025004387, -0.004424399230629206, 0.08033542335033417, 0.00667121447622776, 0.12453626841306686, -0.02374972589313984, 0.02047307975590229, 0.0001080405418178998, 0.019000817090272903, -0.00014171138172969222, -0.0493447370827198, 0.03694205731153488, -0.03778386488556862, -0.000990409287624061, 0.0054367599077522755, 0.01296094711869955, -0.0006095643620938063, 0.00752433855086565, 0.009326101280748844, 0.00013317719276528805, -0.07662928849458694, 0.00922019500285387, -0.00045279605546966195, 0.008602901361882687, 8.644366607768461e-05, -0.13797879219055176, -0.0008628061041235924, 0.08341699838638306, -8.264752977993339e-05, -0.1445518285036087], [0.11187949776649475, -0.06716533750295639, -0.07020668685436249, -0.0011096844682469964, -0.07844965904951096, 0.08829934149980545, 2.6548123059910722e-05, -0.02190551720559597, -0.0031629332806915045, 0.0213446207344532, 0.046229973435401917, 0.0015729139558970928, -0.03468969091773033, -0.0032869786955416203, 0.124728724360466, 0.03466172143816948, -0.00441387016326189, 0.00024254314485006034, 0.031080201268196106, 0.00013867286907043308, 0.06587833911180496, 0.03745733201503754, 0.03189557418227196, 0.00023378338664770126, -0.00474652461707592, -0.0099394666031003, 5.922702621319331e-05, -0.003899495815858245, -0.0021665547974407673, 0.0002807982382364571, 0.046218227595090866, -0.1839848756790161, -5.6001161283347756e-05, -0.18229754269123077, -9.583190694684163e-05, -0.038740627467632294, -0.0006830011843703687, 0.10759656131267548, 0.00022939580958336592, 0.10419619083404541], [0.10053353756666183, -0.05336372181773186, -0.018748808652162552, -0.05174631252884865, -0.26185548305511475, -0.19970619678497314, -0.002159661613404751, -0.3387247920036316, -0.045393217355012894, -0.023339131847023964, 0.08116156607866287, 0.06365892291069031, -0.47326505184173584, -0.0830010250210762, -0.03133438155055046, 0.025720803067088127, -0.006126669701188803, -0.0033520206343382597, 0.42285194993019104, 0.002118609845638275, -0.011148979887366295, -0.10373519361019135, 0.14956757426261902, 0.01882077567279339, -0.05306089669466019, -0.12021111696958542, 0.010406444780528545, -0.08486126363277435, -0.12102947384119034, -0.00248124566860497, 0.5029029846191406, 0.04206904396414757, 0.008468929678201675, 0.1152861937880516, -0.0007651102496311069, 0.23957906663417816, 0.08596648275852203, -0.09384852647781372, 8.23595910333097e-05, 0.2435052990913391], [0.0072196307592093945, 0.013833235017955303, 0.023841949179768562, 0.0013716602697968483, 0.05075047165155411, 0.001820112345740199, -0.00014235293201636523, 0.030451880767941475, 0.0004565570270642638, -0.02011539787054062, -0.00021563174959737808, -0.0017841176595538855, 0.09830979257822037, 0.0028200214728713036, 0.08267402648925781, 0.015917373821139336, 0.13093851506710052, 9.36035648919642e-05, 0.008386117406189442, 6.11935174674727e-05, -0.02554168738424778, -0.08287500590085983, 0.006060736253857613, -0.0005481314146891236, 0.0023210286162793636, 0.004981029313057661, -0.0001658140536164865, 0.0009643165394663811, 0.0022488520480692387, 7.50234248698689e-05, -0.04168213903903961, -0.043397679924964905, -0.00010899800690822303, 0.5617721080780029, -2.7497737391968258e-05, -0.07888705283403397, 0.00019731638894882053, 0.017262279987335205, 7.009373075561598e-05, 0.013636723160743713], [0.0036373643670231104, -0.0005041671684011817, 0.0006419584969989955, 0.0005191517411731184, -0.011404993012547493, 0.0030342997051775455, 0.0002607680216897279, -0.0020255616400390863, 0.00010656248923623934, 0.0007921830401755869, 0.004387078806757927, -4.104896288481541e-05, -0.013063707388937473, -1.97332938114414e-05, 0.014648068696260452, -0.0019559459760785103, -0.0665913075208664, -6.64206309011206e-05, -0.00036979076685383916, -1.3019606740272138e-05, -0.0037149740383028984, 0.0026517256628721952, 0.00358737469650805, 1.1661873941193335e-05, -0.00029900745721533895, -0.0006416095420718193, 5.601356315310113e-05, -0.00010839947935892269, -7.125744014047086e-05, -8.849748701322824e-05, 0.011010345071554184, -0.002483937656506896, 8.434272604063153e-05, 0.02080129273235798, 2.6209232601104304e-05, -0.013411890715360641, -0.0010576234199106693, -0.010781810618937016, -5.387265628087334e-05, -0.0005711782141588628], [-0.02159912884235382, -0.1268375664949417, 0.010948535054922104, -0.0034352028742432594, -0.015795337036252022, 0.06781536340713501, 0.00041721874731592834, -0.003823370672762394, -0.0059506213292479515, -0.007170532364398241, -0.03820083290338516, 0.006450056564062834, -0.15778091549873352, -0.007865456864237785, -0.04014714062213898, -0.16470767557621002, -0.012307864613831043, -0.0008115812670439482, 0.039925653487443924, 0.0004920819774270058, 0.1241585984826088, 0.00284361164085567, -0.00572224473580718, 0.002272118581458926, 0.002457720460370183, -0.0020344816148281097, 0.0018524382030591369, -0.007937459275126457, -0.00824841856956482, -0.0005480204126797616, 0.06323079019784927, -0.0874948725104332, 0.0014106143498793244, -0.011046400293707848, -0.0001386215735692531, 0.08236584812402725, 0.006773966830223799, 0.07276389747858047, -0.00015760950918775052, -0.00413332087919116], [0.08964401483535767, 0.2946906089782715, 0.0332050696015358, -0.00396406976506114, 0.08081682026386261, 0.49285420775413513, 0.0054034274071455, -0.024371018633246422, -0.016183936968445778, -0.007722064387053251, 0.07458745688199997, -0.002675271825864911, 0.14652632176876068, 0.005468742921948433, -0.03549623861908913, 0.01072780042886734, 0.06775562465190887, -0.0003933219995815307, 0.0795903205871582, -7.75092703406699e-05, -0.01490484457463026, 0.07791733741760254, 0.028799258172512054, -0.0009001029538922012, 0.00620967335999012, 0.01475150603801012, -5.2933854021830484e-05, 0.005162324756383896, -0.002092130249366164, -0.001185441156849265, -0.1000717505812645, -0.0675702691078186, 0.0007648961036466062, -0.00040169383282773197, 9.331828186986968e-05, -0.11736088991165161, 0.12586484849452972, 0.028017466887831688, -2.111614594468847e-05, 0.05964561551809311], [-0.000237111424212344, -0.000715585018042475, 0.0002506527816876769, -0.0064541311003267765, -0.0007941278163343668, 0.0020039603114128113, 0.00021488750644493848, 0.0005638983566313982, 0.00019923096988350153, -0.0004885376547463238, -0.0006635733298026025, -7.215335062937811e-05, -0.000574214500375092, 0.00010786041821120307, 0.0031997989863157272, -0.0003184179659001529, -0.054934971034526825, -2.0149276679148898e-05, -0.001175062032416463, 8.224866178352386e-06, -0.004269211553037167, -0.0007541391532868147, -0.00019322849402669817, -2.997432602569461e-06, -0.0003840756544377655, 9.194503218168393e-05, 1.9388762666494586e-05, 0.0001521372323622927, -4.2333507735747844e-05, -4.549996447167359e-05, 0.000410639273468405, -0.002604478970170021, 4.342604734119959e-05, 0.0020874980837106705, -6.321124601527117e-06, -0.0034119654446840286, 0.00012180185149190947, 0.026681115850806236, 9.29161069507245e-06, 0.0004260900313965976], [0.007645867299288511, 0.07122185826301575, 0.01798241026699543, 0.015191195532679558, -0.02622240222990513, -0.027956491336226463, 0.0005109269404783845, -0.003442710731178522, -0.003838649718090892, -0.001217248965986073, 0.008623170666396618, 0.0017153818625956774, 0.02517101541161537, -0.001060751499608159, 0.03041195310652256, 0.056030578911304474, 0.047471966594457626, -0.00033266612445004284, -0.0037591378204524517, 2.0486313587753102e-05, -0.08754301071166992, 0.04404871165752411, -0.04554635286331177, 0.00023562794376630336, 0.0024031968787312508, -0.0026307066436856985, 0.0006128157838247716, -0.0032050758600234985, -0.004012833349406719, -0.00022617063950747252, 0.06113221496343613, -0.02215353399515152, 0.0003376971581019461, 0.10451406985521317, 4.782017640536651e-05, 0.04063123092055321, -0.022289112210273743, -0.07628075778484344, -0.0002282277710037306, 0.10187217593193054], [-0.00485866516828537, -0.030736802145838737, 0.018329016864299774, 0.0013031883863732219, -0.05522743612527847, -0.011606312356889248, 0.00013921446225140244, 0.00031616180785931647, 0.0016012334963306785, -0.0026371183339506388, 0.0011721157934516668, -0.0005680632893927395, -0.041406240314245224, 0.0005510749178938568, 0.024463031440973282, -0.021557901054620743, -0.03301774337887764, -0.00014416681369766593, -0.010856044478714466, 2.8687432859442197e-05, 0.018259458243846893, 0.015328967943787575, 0.012813017703592777, 4.008296309621073e-05, -0.00012507640349213034, 0.0003468737122602761, 8.952288771979511e-05, 0.0009079116862267256, 0.0011846720008179545, -0.00015063282626215369, 0.019742529839277267, 0.012615774758160114, 0.00016500020865350962, -0.008848023600876331, 4.5227079681353644e-05, -0.021014301106333733, 0.00133380270563066, -0.06586719304323196, -0.00010291251965099946, 0.06479299813508987], [-0.0034462728071957827, 0.051930349320173264, -0.007756093516945839, -0.0024855516385287046, 0.0040309615433216095, 0.06870275735855103, 0.00022790241928305477, 0.010611274279654026, -2.0873780158581212e-05, 0.011520437896251678, -0.022339172661304474, 0.002628143411129713, -0.22879748046398163, -0.0035502901300787926, 0.014710324816405773, 0.0033044011797755957, -0.12463928014039993, -7.140876550693065e-05, 0.042658042162656784, -6.839725756435655e-06, 0.01115443930029869, -0.022097010165452957, -0.16223573684692383, 0.00067827885504812, 0.0015856765676289797, 0.0037128988187760115, 0.0003657652123365551, -0.0008594999671913683, -0.0047249882481992245, -1.359687030344503e-05, 0.16105495393276215, -0.022078435868024826, 0.00016715280071366578, -0.10703534632921219, -2.481547198840417e-05, -0.014379129745066166, -0.0014743066858500242, 0.12127668410539627, -7.0002088250475936e-06, -0.2112898975610733], [0.04486880823969841, 0.00354234897531569, -0.033536579459905624, -0.0033654728904366493, -0.014500715769827366, 0.03968116641044617, -0.0017065881984308362, -0.030320435762405396, -0.010986912064254284, 0.030680852010846138, 0.09645398706197739, 0.002082877093926072, 0.03627613186836243, -0.003250043373554945, 0.17380750179290771, 0.05966510996222496, -0.012574066407978535, 0.0005095929373055696, 0.04512714222073555, 1.720506770652719e-05, 0.016170350834727287, -0.15564386546611786, 0.017218250781297684, -0.00019111113215330988, 0.003303295001387596, -0.007180564571171999, -0.00020234544354025275, -0.005760474130511284, -0.004883063957095146, 0.0008344543166458607, 0.026249609887599945, -0.20262625813484192, -0.0007322134333662689, -0.16280321776866913, -5.910101026529446e-05, 0.09266914427280426, -0.0035835474263876677, 0.08676830679178238, 0.00023113902716431767, 0.09801843017339706], [0.002417980460450053, 0.004065399523824453, -0.0034815389662981033, -0.00011122919386252761, 0.010928566567599773, -0.0015144324861466885, -0.00024570897221565247, 0.0012538139708340168, 0.00013967399718239903, 0.0016566955018788576, -0.0003224681131541729, 0.000122943427413702, 0.023464862257242203, -0.00036499398993328214, -0.006541938986629248, 0.004829419311136007, -0.002548396121710539, 0.00011207886564079672, -0.0020509054884314537, 1.3826468148181448e-06, 0.0015605681110173464, 0.0003857149858959019, -0.001883303397335112, -7.640890089533059e-07, -0.001056723645888269, -0.0008918805397115648, -0.00010351839591749012, -0.0003320253163110465, 0.00013193060294725, 0.00010375062265666202, -0.015181533060967922, 0.00418807053938508, -8.908763993531466e-05, -0.014943892136216164, -2.711821798584424e-05, 0.005642078351229429, 0.0004706562322098762, 0.015243558213114738, 7.7012438850943e-05, -0.01915656216442585], [2.0033579858136363e-05, -0.053091369569301605, -0.09307528287172318, -0.014056178741157055, -0.1552618145942688, -0.03198188170790672, 0.0034995495807379484, -0.09946732968091965, -0.03679545223712921, 0.10454365611076355, 0.04539600387215614, 0.022006452083587646, -0.23605045676231384, -0.032193783670663834, 0.02625746838748455, 0.08128896355628967, 0.07158210128545761, -0.0017792347352951765, -0.03047839179635048, 0.0007144705159589648, 0.0015241480432450771, 0.034945834428071976, 0.10021454840898514, 0.005776101723313332, -0.020851127803325653, -0.05763426050543785, 0.004466009791940451, -0.0325188972055912, -0.028968440368771553, -0.001585129415616393, 0.08989053219556808, -0.09195848554372787, 0.003369172802194953, -0.00020539162505883723, -0.0002523288130760193, 0.23602430522441864, -0.0001806500367820263, -0.1010250523686409, -0.0003864518948830664, 0.25283554196357727], [-0.002305323490872979, 0.0006371015915647149, 0.004605036228895187, 9.573510760674253e-05, -0.014064568094909191, 0.0015816509258002043, 0.00030230084666982293, -0.0005282583879306912, -2.8731839847750962e-05, -0.0022752059157937765, 0.0009615705348551273, -0.0002528820186853409, -0.023351849988102913, 0.0006725096027366817, 0.008407268673181534, -0.004150789696723223, 0.003016762202605605, -0.0001185278597404249, 0.0036356609780341387, -2.9472687401721487e-06, -0.005070897750556469, -0.0027702541556209326, 0.0022511743009090424, -4.3052910768892616e-05, 0.0015333896735683084, 0.0014315403532236814, 0.00011082189303124323, 0.0005526582826860249, -3.894391920766793e-05, -0.00010879936598939821, 0.01686139404773712, -0.006504225544631481, 8.474204514641315e-05, 0.02300398424267769, 3.0293707823147997e-05, -0.004838866181671619, -0.0008843617979437113, 5.669803431374021e-05, -8.992067887447774e-05, 0.03072168678045273], [0.08585277944803238, -0.13160383701324463, 0.13509464263916016, 0.005192632786929607, -0.007943935692310333, 0.1124829575419426, 0.0024711533915251493, -0.016291078180074692, -0.007093827705830336, 0.027879348024725914, 0.09000925719738007, -0.0018265529070049524, -0.09772995859384537, 0.0034048273228108883, 0.4505018889904022, -0.06573658436536789, -0.05457557737827301, 9.004049934446812e-05, 0.07365959137678146, -0.00014020968228578568, 0.03484908118844032, -0.09568662941455841, 0.021486593410372734, -0.001290858257561922, 0.015366476029157639, 0.005902975331991911, -0.00013296723773237318, 0.002334852470085025, 0.005207688547670841, 5.347803744371049e-05, 0.05110419914126396, -0.17161069810390472, -0.0003681338275782764, -0.04237571731209755, -1.1995562090305611e-05, -0.3264369070529938, -0.008885234594345093, 0.15933726727962494, -7.36233705538325e-05, -0.38650012016296387], [-0.045660581439733505, 0.043539080768823624, -0.20862966775894165, 0.007283471524715424, 0.24556304514408112, -0.11023405939340591, -0.00021077350538689643, -0.02454720437526703, -0.0016626397846266627, 0.0182929839938879, -0.04393372684717178, 0.004075929056853056, 0.04205024614930153, -0.0065833874978125095, 0.5709312558174133, 0.024976113811135292, -0.07415618747472763, -0.00014786678366363049, 0.019734101369976997, 9.591493289917707e-05, 0.03815198317170143, -0.02842172048985958, -0.025130681693553925, 0.0011712696868926287, -0.0013878619065508246, -0.0066403294913470745, 0.0005553491646423936, -0.0045457505621016026, -0.0075679803267121315, -5.5054883887351025e-06, 0.02361490949988365, 0.09873387217521667, 0.000321637955494225, -0.5185338258743286, -7.494378951378167e-05, 1.2234500646591187, 0.003375801956281066, -0.03811117261648178, 3.383494185982272e-05, -0.0015257217455655336], [0.08206538110971451, -0.010954251512885094, 0.09215260297060013, -0.008927459828555584, 0.038573041558265686, 0.19227463006973267, -0.006481940392404795, -0.006652087438851595, -0.007183227222412825, 0.0019447030499577522, 0.07028121501207352, -0.0020399256609380245, -0.006834745407104492, 0.002421513432636857, 0.2615615129470825, -0.035707566887140274, 0.263949990272522, 0.0009402871946804225, 0.14695730805397034, 0.0001774482079781592, 0.11094143986701965, 0.0226849764585495, 0.015441796742379665, -0.0006574018625542521, 0.03632219135761261, 0.014326895587146282, -0.0006631393334828317, 0.000385816500056535, 0.004414752125740051, 0.0022682168055325747, -0.010567521676421165, -0.21229441463947296, -0.0018358587985858321, 0.10155516117811203, -0.0002031824697041884, -0.05553694814443588, -0.007077413145452738, 0.18739952147006989, 0.0003747472946997732, -0.041606999933719635], [0.00015817959501873702, -0.00028353335801512003, -0.0001615733199287206, -4.873281795880757e-05, -0.000981203163973987, 7.097918569343165e-05, 1.2185224704808206e-06, -0.0004226413439027965, -0.00018280734366271645, 0.00020500484970398247, 0.00047188514145091176, 2.181060153816361e-05, -0.0012236316688358784, -6.39845384284854e-05, -7.44374847272411e-05, -3.930819730157964e-05, 0.0052641769871115685, 2.785917558867368e-06, 1.5753508705529384e-05, -7.683134754188359e-06, 0.0002867036673706025, -0.0006823282456025481, 0.0005546765751205385, -4.9797068641055375e-05, 4.19898315158207e-05, -0.00016867481463123113, -2.6208412236883305e-05, -0.00010921555804088712, -0.00012302567483857274, 8.527848876838107e-06, 0.0010390655370429158, -0.00023938714002724737, -2.9515136702684686e-05, 0.0010784876067191362, 5.62862533115549e-06, -0.0001730838412186131, -0.00012934526603203267, -0.002064957283437252, -2.315169695066288e-06, 0.001587664126418531], [0.029252205044031143, -0.5956559777259827, 0.06441868841648102, 0.041494887322187424, -0.15951114892959595, 0.37447497248649597, -0.004336145706474781, 0.3158288598060608, -0.02582642436027527, 0.005939237307757139, 0.2031465321779251, 0.013881313614547253, -0.04806642234325409, -0.009372608736157417, 0.12018497288227081, -0.07513222843408585, 0.14364320039749146, 0.0002636294229887426, 0.03798413276672363, 0.0008362037478946149, -0.005482909735292196, -0.17901219427585602, 0.1315372884273529, 0.0013644619612023234, 0.0034281176049262285, -0.061734847724437714, 0.0009701612289063632, -0.058169398456811905, 0.015244943089783192, 0.0010575531050562859, 0.015915807336568832, -0.08208513259887695, -0.00014862994430586696, 0.07890212535858154, -0.0002936765376944095, -0.009362163953483105, -0.3846382796764374, -0.019789526239037514, 0.0002028008020715788, -0.061568304896354675], [-7.963344978634268e-05, 0.00016011869593057781, 0.00010363753244746476, 1.4087799172557425e-05, 0.0007179547683335841, -0.0003864998579956591, -3.485262641333975e-05, 0.00013652020425070077, 6.766415026504546e-05, -2.7201031116419472e-05, -0.00020301002950873226, 1.9084625364484964e-06, 0.0007649905164726079, 7.937909174415836e-08, -4.223495125188492e-05, -0.0001590045721968636, 0.0018584484932944179, 9.435415222469601e-07, 0.00016343695460818708, 2.476124336681096e-06, 0.0005523369763977826, -0.0001306634076172486, -0.0002803043171297759, 1.392496869812021e-05, 1.8015774912782945e-05, 5.233636329649016e-05, 1.380765297653852e-06, 2.4589015083620325e-05, 6.444754399126396e-05, 4.06551862397464e-06, -0.0006457956042140722, -8.255386637756601e-05, 3.972310878452845e-06, -0.0008889440796338022, -1.7708218820189359e-06, -5.6184242566814646e-05, 5.6460721680196e-05, -0.0009574111900292337, 1.584391611686442e-06, -0.0014244115445762873], [0.10636036098003387, -0.12226090580224991, -0.047288067638874054, -0.013741116039454937, 0.06090976297855377, 0.13461348414421082, -0.004808733239769936, -0.1011863648891449, 0.0041078017093241215, 0.018484648317098618, 0.044406380504369736, 0.008469722233712673, -0.10150530189275742, -0.013951864093542099, -0.13648506999015808, -0.001963916467502713, 0.09069956094026566, -0.00035657978150993586, 0.0776524618268013, 0.0007185323629528284, 0.30310332775115967, -0.06907061487436295, -0.0008763227961026132, 0.0034392764791846275, 0.012189500965178013, -0.005323414690792561, 0.0016311792423948646, -0.007844820618629456, -0.010756630450487137, 0.0008194661932066083, 0.06388383358716965, -0.19121669232845306, 0.0005414984771050513, -0.054522555321455, -0.00034770366619341075, -0.05073321610689163, 0.014746429398655891, -0.13756604492664337, 0.0002635496202856302, -0.2502802610397339], [0.13785947859287262, 0.0014446962159126997, 0.0693000853061676, 0.00591964740306139, 0.06851869821548462, 0.3622625768184662, 0.0010121461236849427, 0.05261198803782463, 0.014536186121404171, -0.0740727111697197, 0.046524763107299805, 0.00020039599621668458, 0.13297463953495026, 0.0029889391735196114, 0.039002519100904465, -0.04208638146519661, -0.07333218306303024, 7.535621261922643e-05, -0.0012393994256854057, 7.453573925886303e-05, -0.02396109700202942, 0.42279061675071716, 0.0104607492685318, -0.00010098158236360177, 0.0030867254827171564, 0.011320759542286396, 9.010187204694375e-05, -0.0042237830348312855, -0.0033869792241603136, 4.445733065949753e-05, -0.11558260768651962, 0.0421924889087677, 7.114130858099088e-05, 0.10872215032577515, 6.654856406385079e-05, 0.04295701906085014, 0.004902469459921122, 0.15278394520282745, -6.350562034640461e-05, 0.23871150612831116], [0.024322185665369034, -0.0572582446038723, -0.038407836109399796, -0.007491642609238625, 0.02566475234925747, 0.02771775610744953, -0.0005980278365314007, -0.017988359555602074, -0.0029232806991785765, 0.025497857481241226, 0.018745847046375275, -0.001100023277103901, 0.01682734116911888, 0.000569906085729599, 0.003646399127319455, 0.06955230981111526, 0.008320478722453117, 0.0005460106185637414, 0.03483927622437477, -0.00013865075015928596, -0.0014324415242299438, -0.0795818343758583, 0.034269366413354874, -0.0006939463200978935, -0.0012275903718546033, -0.0028473990969359875, -0.0007266784086823463, 0.0008861215319484472, 0.0012291187886148691, 0.0005231815739534795, -0.02906588464975357, -0.03289898484945297, -0.0007295211544260383, 0.003831353271380067, -4.594770143739879e-05, 0.04087049886584282, 0.007801420986652374, 0.06550786644220352, 0.0003009771753568202, 0.02875123918056488], [-2.398092510702554e-05, 0.0012390047777444124, -0.0004822933697141707, 8.397152851102874e-05, 0.004766371101140976, -0.0002634454285725951, -0.00010224233119515702, 0.000827615789603442, 0.00037633709143847227, 0.00029636555700562894, -0.0012312174076214433, -7.658008689759299e-05, 0.00673755444586277, 5.872803012607619e-05, -0.001380185247398913, 0.0008661287720315158, -0.0002832125755958259, 7.320907570829149e-06, -0.00034400017466396093, 1.1469774108263664e-05, 0.0015543153276666999, 0.002119715791195631, -0.0014576212270185351, 1.7191203369293362e-05, -0.0002008037845371291, 9.33841074584052e-05, -1.1257721780566499e-05, 0.0001579367817612365, 0.000345187378115952, 