{"model_data": {"model": "SimpleRNN", "input_size": 1, "skip": 1, "output_size": 1, "unit_type": "LSTM", "num_layers": 1, "hidden_size": 40, "bias_fl": true}, "state_dict": {"rec.weight_ih_l0": [[-0.07102788984775543], [-0.19989915192127228], [0.003418984590098262], [0.011349000968039036], [0.12626035511493683], [0.002360706916078925], [0.05880973860621452], [0.08198348432779312], [0.05885157734155655], [0.6677073836326599], [-0.11657652258872986], [0.003799712983891368], [0.4148085415363312], [-0.139754980802536], [0.06078924238681793], [-0.12211846560239792], [-0.1559460461139679], [0.026309514418244362], [-0.031609054654836655], [0.056803248822689056], [-0.022761104628443718], [-0.046775661408901215], [-0.025433896109461784], [0.06277435272932053], [0.12040051072835922], [0.07458679378032684], [0.06257935613393784], [-0.001997697167098522], [-0.03851320967078209], [-0.030806949362158775], [-0.17317728698253632], [-0.09640935063362122], [0.11359453946352005], [0.13068607449531555], [-0.08535557240247726], [0.2529506981372833], [-0.0529044084250927], [-7.854821888031438e-05], [-0.014683162793517113], [0.10794777423143387], [-0.1851838380098343], [-0.8802468180656433], [0.014825275167822838], [0.17827323079109192], [0.11095355451107025], [-0.14537331461906433], [-0.013543208129703999], [0.000702950288541615], [0.0497245229780674], [0.6941246390342712], [0.025780247524380684], [0.00247784866951406], [0.4673934876918793], [-0.19553174078464508], [0.02190232463181019], [-0.1284031718969345], [-0.10283970832824707], [0.020857099443674088], [-0.2692265510559082], [-0.006095670163631439], [-0.19311188161373138], [-0.06700222939252853], [-0.017819659784436226], [0.04865293949842453], [0.1005232110619545], [0.0822666734457016], [0.13001246750354767], [0.0029474839102476835], [-0.06705539673566818], [-0.036914706230163574], [-0.23988077044487], [-0.2674182951450348], [0.1029859110713005], [0.15623000264167786], [-0.04647647589445114], [0.31120404601097107], [-0.057111453264951706], [-0.0024271439760923386], [-0.1393243819475174], [0.15710601210594177], [0.3720525801181793], [-1.1392991542816162], [-0.5201153755187988], [-0.11501826345920563], [-0.515911877155304], [-0.3504617214202881], [0.1655644178390503], [0.33398693799972534], [-0.32708290219306946], [0.7987056374549866], [0.42435958981513977], [0.0045484318397939205], [-0.515871524810791], [-0.24489228427410126], [0.313314288854599], [0.5101306438446045], [0.14755022525787354], [-0.24162060022354126], [-0.21723246574401855], [-0.09788674861192703], [0.13648056983947754], [0.022023480385541916], [0.09460693597793579], [-0.23251663148403168], [-0.3778117299079895], [-0.5327834486961365], [0.2665117681026459], [0.05053078755736351], [-0.40817129611968994], [-0.23908556997776031], [-0.543695330619812], [-0.17935213446617126], [-0.18885396420955658], [0.10427950322628021], [-0.16500699520111084], [1.5744153261184692], [0.3999876379966736], [-0.08496111631393433], [-0.435628741979599], [-0.15742124617099762], [-0.1925765424966812], [-0.46536847949028015], [0.031611282378435135], [0.06396268308162689], [0.14999374747276306], [-0.18170633912086487], [0.0970083549618721], [0.06492147594690323], [0.07734522968530655], [0.8610355257987976], [-0.02901875413954258], [0.0024421692360192537], [0.48576387763023376], [-0.18050888180732727], [0.03271842375397682], [-0.15126529335975647], [-0.14292524755001068], [0.03168608620762825], [-0.2660631537437439], [0.03265715762972832], [-0.029718533158302307], [-0.061984214931726456], [-0.026903266087174416], [0.07117605954408646], [0.15510337054729462], [0.13234904408454895], [0.15546958148479462], [-0.01682371273636818], [-0.07488612085580826], [-0.04272201284766197], [-0.22612224519252777], [-0.23756705224514008], [0.09354474395513535], [0.2888602912425995], [-0.07816781848669052], [0.26457637548446655], [-0.04953611269593239], [-0.004097633063793182], [-0.04546629264950752], [0.13831616938114166]], "rec.weight_hh_l0": [[-0.03323829919099808, 0.09096357226371765, -0.00034142573713324964, 0.005398388486355543, 0.03344525024294853, 0.06334235519170761, -0.03518719971179962, -0.0626945048570633, 0.01629483886063099, -0.020372852683067322, 0.027893584221601486, -0.010274019092321396, -0.0025478119496256113, 0.049547549337148666, -0.008434676565229893, -0.06091717630624771, -0.08030570298433304, -0.01128739956766367, -0.008470448665320873, 0.01192577462643385, -0.015781480818986893, 0.00418885750696063, 0.004682969767600298, 0.039942070841789246, 0.035809919238090515, 0.015472968108952045, 0.007253276649862528, 0.0011311050038784742, 0.04248429834842682, 0.018350956961512566, 0.012616679072380066, 0.025068849325180054, -0.006383256986737251, 0.00919865258038044, -0.04796774312853813, -0.003284921869635582, 0.020425723865628242, 0.013703127391636372, 0.05577133595943451, -0.006223703734576702], [-0.12589989602565765, 0.3947044909000397, 0.026985034346580505, 0.27758175134658813, 0.002154476009309292, 0.20314420759677887, -0.025436636060476303, 0.1458367258310318, 0.05370449647307396, 0.06468529999256134, -0.11619913578033447, 0.0035337454173713923, -0.027753230184316635, 0.08086327463388443, -0.015813155099749565, -0.109135203063488, 0.17284256219863892, 0.07598377764225006, 0.12679843604564667, -0.06000124663114548, 0.020735129714012146, 0.051431722939014435, -0.08711004257202148, 0.05034313723444939, 0.010693340562283993, 0.06183716282248497, -0.02578018605709076, -0.07136543840169907, 0.0895514264702797, -0.030220406129956245, 0.2755068838596344, 0.25099149346351624, -0.07044212520122528, 0.09506040811538696, -0.06336609274148941, -0.07872165739536285, 0.16984514892101288, 0.031314555555582047, -0.03291461244225502, 0.08658530563116074], [0.03292125090956688, 0.017859607934951782, 0.01406504213809967, -0.01234019547700882, 0.0005322870565578341, -0.039413176476955414, 0.07790952920913696, 0.010899215936660767, -0.02148546278476715, 0.03490227833390236, -0.044979289174079895, -0.0012654407182708383, -0.025146517902612686, -0.010843425989151001, -0.007185409311205149, -0.01104532927274704, 0.01893574558198452, 0.0017165659228339791, 0.06999966502189636, -0.010423448868095875, 0.05016908422112465, 0.0017091073095798492, -0.010769184678792953, -0.00927828624844551, -0.011942380107939243, -0.015822647139430046, -0.05292411521077156, -0.022913623601198196, -0.006568577140569687, -0.0032017864286899567, 0.023469718173146248, 0.06037231534719467, -0.013860506936907768, 0.0842963308095932, 0.017509371042251587, -0.023385578766465187, -0.02158212475478649, -0.0009294121991842985, -0.013241167180240154, 0.000268251373199746], [0.0893840491771698, 0.036207351833581924, 0.00991284754127264, -0.06950927525758743, -0.010521680116653442, -0.11175857484340668, -0.028646059334278107, 0.02797507308423519, -0.025059962645173073, -0.003609089180827141, -0.02338615618646145, 0.0008707718225196004, -0.024266773834824562, -0.02839338406920433, -0.001646087970584631, 0.013476748019456863, -0.07899397611618042, 0.020065398886799812, -0.09899672865867615, -0.05311406031250954, -0.12113530933856964, 0.021166345104575157, -0.03636128082871437, -0.009217099286615849, -0.016799025237560272, -0.006155518349260092, -0.03772539645433426, 0.027263648808002472, -0.03046908974647522, -0.037689194083213806, 0.0540129616856575, -0.13353392481803894, -0.045705460011959076, -0.012362397275865078, 0.02038608118891716, -0.058465536683797836, -0.0080039594322443, 0.025212444365024567, -0.04756162688136101, 0.03297201544046402], [0.0247659832239151, 0.031781986355781555, 0.0003651634033303708, -0.09077509492635727, -0.011836288496851921, -0.055278100073337555, 0.03386843577027321, -0.04694414883852005, -0.019068345427513123, 0.09632063657045364, -0.007951355539262295, -0.0057145291939377785, -0.053209807723760605, -0.004511552397161722, -0.002233409322798252, -0.026377873495221138, -0.004834894556552172, -0.018849633634090424, 0.0008072212222032249, 0.017800353467464447, 0.020450882613658905, -0.018702702596783638, 0.014912226237356663, -0.022537898272275925, -0.02286670170724392, -0.025514934211969376, -0.008823348209261894, -0.0019976741168648005, -0.010552192106842995, 0.014858712442219257, 0.0014994265511631966, -0.03354690596461296, 0.01403219997882843, 0.025088246911764145, 0.021338768303394318, 0.024261822924017906, -0.0310854259878397, -0.015727780759334564, 0.020429519936442375, -0.039692871272563934], [-0.08973399549722672, 0.02176317200064659, -0.032764822244644165, 0.042763739824295044, -0.03262167051434517, 0.09497684240341187, 0.037116389721632004, -0.038266122341156006, -0.050320614129304886, 0.048280470073223114, -0.02349061891436577, -0.0036676095332950354, -0.030641239136457443, 0.051565319299697876, 0.008882644586265087, 0.014685294590890408, -0.18335363268852234, -0.07307762652635574, 0.028472034260630608, 0.017296355217695236, 0.012159360572695732, 0.06788694858551025, 0.02301168069243431, 0.016170227900147438, -0.007122502196580172, -0.0371730737388134, -0.060894180089235306, -0.017039434984326363, 0.04466850310564041, 1.3052580470684916e-05, -0.05459112301468849, 0.057802602648735046, -0.019783560186624527, 0.09453737735748291, -0.06804683059453964, 0.11450394243001938, 0.06089073047041893, 0.0024533444084227085, 0.05300476774573326, -0.056495558470487595], [-0.05916329845786095, -0.060173481702804565, 0.0015610568225383759, -0.002167868660762906, 0.022863302379846573, 0.09826167672872543, 0.13927215337753296, -0.022277945652604103, -0.10222811251878738, 0.016274863854050636, -0.10332446545362473, -0.027401981875300407, 0.003774831537157297, 0.012656580656766891, 0.003729328280314803, -0.06844581663608551, 0.13121142983436584, -0.0733366385102272, 0.04766720533370972, 0.011863459832966328, 0.08307071030139923, 0.010560505092144012, 0.02696075849235058, 0.04526252672076225, -0.002411232329905033, -0.11500178277492523, -0.12072823941707611, -0.09756345301866531, 0.06067392975091934, 0.022411257028579712, -0.029695235192775726, 0.12069211900234222, 0.020362429320812225, 0.1984497457742691, -0.07924627512693405, 0.08403124660253525, 0.03176967054605484, -0.04363289847970009, 0.006911567412316799, -0.0416332446038723], [-0.07285530865192413, 0.02879028581082821, -0.02083776518702507, -0.01771792210638523, -0.0077365003526210785, 0.0595625638961792, -0.04300793260335922, -0.13336795568466187, 0.05733446404337883, 0.045246656984090805, 0.06649866700172424, -0.0040996926836669445, -0.007497003767639399, 0.05369453877210617, -0.0032261235173791647, -0.020502261817455292, 0.035866811871528625, -0.019692061468958855, -0.12335141748189926, 0.06981834024190903, -0.06942518055438995, -0.004503916949033737, 0.06801137328147888, 0.03444565087556839, 0.02145520970225334, 0.009916580282151699, 0.05795096606016159, -0.0022592253517359495, 0.025937145575881004, 0.00654933787882328, -0.004749623592942953, -0.06510520726442337, 0.04725438356399536, -0.06545322388410568, -0.03371467441320419, 0.09226598590612411, 0.06236019730567932, -0.011519947089254856, 0.13904830813407898, -0.04589013755321503], [-0.04209020361304283, 0.023244312033057213, 0.017101362347602844, 0.11845295876264572, -0.014335434883832932, 0.03669134899973869, 0.0885891243815422, 0.001249748165719211, -0.0693366602063179, 0.04488212615251541, -0.09507838636636734, 0.0017875372432172298, -0.023519743233919144, -0.004616455640643835, -0.0020312184933573008, -0.006411959882825613, 0.01783343404531479, -0.002151759807020426, 0.03339257463812828, -0.00459267059341073, 0.02629362978041172, -0.0004954494070261717, -0.0035220470745116472, -0.019663313403725624, -0.016415350139141083, -0.0460519902408123, -0.07080690562725067, -0.06088370829820633, -0.000800806563347578, 0.0015026789624243975, 0.004139914643019438, 0.08919744193553925, -0.035761140286922455, 0.1357140988111496, -0.011326559819281101, 0.014867361634969711, 0.024139584973454475, -0.017663316801190376, -0.004633734934031963, 0.004619723651558161], [-0.036243755370378494, 0.008835802786052227, -0.06552597880363464, -0.18573524057865143, -0.10710597038269043, -0.06522026658058167, -0.019561300054192543, -0.24988311529159546, -0.043410878628492355, 0.3544062077999115, 0.11432837694883347, -0.003963299561291933, -0.16834841668605804, 0.038357559591531754, 0.05550549924373627, 0.023314373567700386, -0.061803583055734634, -0.06955721974372864, -0.17644797265529633, 0.06377021223306656, -0.07355280965566635, -0.014097828418016434, 0.0720004141330719, -0.06915685534477234, -0.07589244097471237, -0.08461671322584152, 0.09509735554456711, 0.07327625155448914, -0.015833159908652306, -0.007826819084584713, -0.045592013746500015, -0.23396971821784973, 0.0404515415430069, -0.012468365952372551, -0.04062844440340996, 0.30217596888542175, 0.0634860098361969, -0.015106773935258389, 0.10030185431241989, -0.14650090038776398], [0.00888496357947588, 0.11530915647745132, 0.10901560634374619, 0.055953025817871094, 0.011765770614147186, -0.05938621610403061, 0.07294711470603943, -0.061048176139593124, -0.059678055346012115, 0.14346450567245483, -0.1054961159825325, -0.0008882733527570963, -0.0911596342921257, -0.0018214338924735785, 0.05591168254613876, -0.06973887979984283, -0.09900911152362823, 0.04363705962896347, -0.04621201753616333, -0.014002288691699505, -0.05229831114411354, 0.03164876252412796, -0.05017302185297012, -0.04589441791176796, -0.04476599767804146, -0.023942038416862488, -0.1223151907324791, -0.026593321934342384, -0.0006569192628376186, -0.021551737561821938, 0.0901222825050354, 0.02043089270591736, -0.06006612628698349, 0.13959495723247528, 0.043133694678545, -0.11305269598960876, -0.0024142032489180565, -0.01737978495657444, 0.003663000650703907, 0.023497022688388824], [0.003309350460767746, -0.002094189403578639, -0.0009895239491015673, -0.00947780255228281, -0.0007983007817529142, -0.0041394103318452835, 0.005665001925081015, -0.0011530729243531823, -0.002826798241585493, 0.0004677590331993997, 0.0009749039309099317, -0.0001675383682595566, -0.0005444863345474005, -0.0014546309830620885, -0.0002272988058393821, 0.0005482568521983922, 0.0019258044194430113, -0.0021925761830061674, 0.0025284646544605494, 0.0002546624164097011, 0.003170094918459654, -0.0012203201185911894, 0.0011353414738550782, -0.001661981688812375, -0.0016269780462607741, -0.0037704017013311386, -0.0026735938154160976, -0.0004695981915574521, -0.001773360068909824, 0.00030869533657096326, -0.004142383113503456, 0.00033570858067832887, 0.0002613221004139632, 0.004837232641875744, 0.001110428012907505, -0.0001185199580504559, -0.003491711337119341, -0.0005834827315993607, 5.4888787417439744e-05, -0.00290316971950233], [0.01248779147863388, 0.013802829198539257, -0.04644724354147911, -0.13474375009536743, -0.10636046528816223, -0.08507577329874039, 0.007121827453374863, -0.12427038699388504, -0.06469444930553436, 0.3097289502620697, 0.054010532796382904, -0.004778391215950251, -0.18761099874973297, -0.004200513940304518, 0.028784465044736862, 0.02022615075111389, -0.04559936001896858, -0.03773442283272743, -0.07414405792951584, 0.008032644167542458, -0.05608499422669411, -0.018858525902032852, 0.032760318368673325, -0.06457493454217911, -0.08187192678451538, -0.07239016890525818, -0.010514110326766968, 0.028108276426792145, -0.033995963633060455, -0.007516168057918549, -0.02903726138174534, -0.1483881026506424, -0.023978963494300842, 0.08031568676233292, 0.014659790322184563, 0.20533911883831024, 0.02122485265135765, -0.01734136790037155, 0.024998798966407776, -0.08311314880847931], [-0.044472403824329376, 0.1386401355266571, 0.028486182913184166, 0.051519837230443954, 0.02173365280032158, 0.0530938096344471, -0.0014520823024213314, -0.020437341183423996, 0.022160151973366737, -0.0038895185571163893, -0.03585364669561386, -0.004378668498247862, 0.0008918368257582188, 0.03411212936043739, -0.0014028357109054923, -0.06516053527593613, -0.02085961401462555, 0.021067023277282715, -0.03596410155296326, 0.0026721726171672344, -0.02991870604455471, 0.0006562147755175829, -0.014784753322601318, 0.01614701934158802, 0.012510795146226883, 0.02155470848083496, -0.014760193414986134, -0.0074496641755104065, 0.03423141688108444, 0.009763285517692566, 0.0710306167602539, 0.00890369713306427, -0.011809851042926311, 0.0350569523870945, -0.007261528633534908, -0.04698462411761284, 0.011117248795926571, -0.0035288911312818527, 0.019195979461073875, 0.025998689234256744], [-0.03083709254860878, 0.004561287350952625, -0.021767830476164818, 0.007181924302130938, -0.02592672035098076, 0.017399121075868607, 0.006796090863645077, -0.06665953248739243, -0.018828079104423523, 0.06782229989767075, 0.008687962777912617, -0.0002825511619448662, -0.029686886817216873, 0.008613476529717445, 0.015794238075613976, 0.011882194317877293, -0.07003527134656906, -0.017783882096409798, -0.016445616260170937, 0.016134338453412056, 0.0017284242203459144, -0.0033091697841882706, 0.0202349703758955, -0.021286368370056152, -0.017311453819274902, -0.013384698890149593, 0.0005157401319593191, 0.00205181073397398, -0.004100357182323933, -0.003266392508521676, -0.020796965807676315, -0.012066652067005634, 0.006352902390062809, 0.010330251418054104, -0.01459484826773405, 0.041953835636377335, 0.03955070674419403, -0.0014513882342725992, 0.03915949910879135, -0.030238358303904533], [-0.053439632058143616, 0.09723757952451706, 0.024578968062996864, 0.14985740184783936, 0.02094079926609993, 0.08777666091918945, -0.024981535971164703, 0.030056027695536613, 0.04273354262113571, -0.002683107042685151, -0.05095387622714043, 0.0007382716867141426, 0.013644568622112274, 0.02576100453734398, -0.01231635082513094, -0.037099700421094894, 0.039448853582143784, 0.029246296733617783, 0.021375102922320366, -0.000602385844103992, 0.01491616666316986, 0.016985921189188957, -0.024855196475982666, 0.03068680316209793, 0.02107570879161358, 0.042193587869405746, 0.021431749686598778, -0.024364996701478958, 0.033891573548316956, -0.0037209149450063705, 0.10498340427875519, 0.07372377067804337, -0.002000246662646532, -0.040556956082582474, -0.01605680212378502, -0.032127466052770615, 0.027052441611886024, 0.008788545615971088, -0.0024510754738003016, 0.036062195897102356], [-0.15935346484184265, 0.02655772492289543, 0.01989913545548916, 0.15465879440307617, 0.0172149408608675, 0.15819373726844788, 0.061870839446783066, 0.02056063525378704, -0.07079073041677475, -0.015399827621877193, -0.08073222637176514, 0.0005703147035092115, 0.02244638465344906, 0.021382851526141167, -0.03798440471291542, -0.032920461148023605, 0.08566736429929733, -0.0571199394762516, 0.07160044461488724, 0.01954331062734127, 0.1137133240699768, 0.019512971863150597, 0.00813424400985241, 0.005128071177750826, -0.0003213049203623086, -0.03519215062260628, -0.046376705169677734, -0.058589134365320206, 0.02589934691786766, 0.0026771645061671734, -0.028751172125339508, 0.26260825991630554, 0.008495368994772434, 0.0791267529129982, -0.08686701953411102, -0.004594914149492979, 0.07654988020658493, -0.0019447082886472344, 0.006609897129237652, -0.04365598037838936], [0.011812043376266956, -0.01896432600915432, 0.002264305017888546, 0.007510795723646879, 0.0012531878892332315, -0.009974939748644829, 0.03255337104201317, 0.004147788509726524, -0.007914381101727486, 0.006893337704241276, -0.01694335974752903, -0.0016160692321136594, -0.00865009892731905, -0.010182815603911877, -0.005614462774246931, -0.0006374621880240738, 0.043186333030462265, -0.004030253272503614, 0.016917522996664047, -0.004035280551761389, 0.05070348456501961, -0.00016970491560641676, -0.005201420746743679, -0.0002739537740126252, -0.007183913607150316, -0.009124508127570152, -0.012983094900846481, -0.014691201038658619, -0.008258689194917679, -0.002045935019850731, -0.011574105359613895, 0.006958849262446165, -0.0022628060542047024, 0.014371990226209164, 0.004681259859353304, 0.007993126288056374, -0.022086821496486664, 0.0004660151316784322, -0.012301776558160782, -0.0054239616729319096], [0.10245612263679504, -0.12222031503915787, 0.0313945971429348, -0.057813942432403564, -0.08808639645576477, -0.09095302224159241, -0.04494749382138252, 0.17940253019332886, -0.10960125178098679, 0.024525437504053116, -0.012385213747620583, 0.0575682558119297, -0.033831432461738586, -0.18236231803894043, 0.18528200685977936, 0.32257115840911865, -0.30775123834609985, 0.08202170580625534, -0.10023190826177597, -0.10911589115858078, -0.2420147955417633, 0.08212544769048691, -0.06977684795856476, -0.20600037276744843, 0.03243722766637802, 0.08097841590642929, 0.02785646542906761, 0.07322973757982254, -0.13916262984275818, -0.16662365198135376, 0.020747222006320953, -0.03621413931250572, -0.22481994330883026, -0.03961535170674324, 0.03930262476205826, -0.12022611498832703, 0.09310359507799149, 0.13308733701705933, -0.12197934091091156, 0.20569051802158356], [-0.02872771956026554, 0.008019172586500645, -0.015531433746218681, -0.015079022385179996, -0.02014147862792015, 0.02063392475247383, 0.01826188899576664, -0.08960981667041779, 0.0013772366801276803, 0.03947912156581879, 0.019328949972987175, -0.000911679700948298, -0.02827012538909912, 0.016307011246681213, 0.004463253077119589, -0.002108038868755102, 0.04135490953922272, -0.003969307988882065, -0.05957167223095894, 0.019443269819021225, -0.0018097402062267065, -0.0015885980101302266, 0.012526355683803558, -0.00041985235293395817, -0.01020083762705326, -0.012389563024044037, -0.009726744145154953, 8.991883078124374e-05, 0.0007601401885040104, -0.004376426804810762, -0.00479570496827364, -0.030523156747221947, -0.002675878582522273, 0.024596597999334335, -0.014343854039907455, 0.06373265385627747, 0.018979234620928764, -0.004256902262568474, 0.05557334050536156, -0.012706025503575802], [-0.029552055522799492, -0.02405053935945034, 0.016856906935572624, 0.1651865541934967, 0.01974041387438774, 0.0061875213868916035, 0.0889422744512558, -0.08404650539159775, -0.009377630427479744, 0.04990174248814583, -0.08837506920099258, -0.037379756569862366, 0.05161523446440697, 0.02827405370771885, 0.008466526865959167, -0.10277386009693146, 0.11348706483840942, -0.017601575702428818, 0.07917557656764984, 0.06938837468624115, 0.035301223397254944, -0.013258291408419609, 0.08013147860765457, 0.028766494244337082, 0.016464421525597572, -0.10667795687913895, -0.06895244866609573, -0.06607923656702042, 0.059596944600343704, 0.04764833673834801, -0.020526515319943428, -0.027320746332406998, 0.027884621173143387, 0.0865996852517128, -0.0158674493432045, 0.10216046869754791, 0.004635297227650881, -0.070071741938591, 0.06998004764318466, -0.05547023192048073], [0.020015284419059753, 0.03469786420464516, 0.008586029522120953, -0.01167220063507557, 0.00625755125656724, -0.005366424098610878, 0.04859035089612007, 0.012507544830441475, -0.00926001463085413, -0.0007302461890503764, -0.023740112781524658, -0.0044105215929448605, -0.0006707758293487132, -0.008362716063857079, -0.008528481237590313, -0.019357727840542793, 0.0020243253093212843, -0.002042420208454132, 0.04392905533313751, -0.001889616483822465, 0.05817800760269165, -0.004963958170264959, -0.005714460741728544, -0.0014461216051131487, -0.004034773912280798, -0.010880735702812672, -0.02525857649743557, -0.01501462422311306, -0.005303497891873121, 0.005551027599722147, 0.013451606966555119, 0.0247329268604517, -0.0006511051906272769, 0.030012575909495354, 0.012517384253442287, -0.02949400618672371, -0.033126745373010635, -0.001883315504528582, -0.008822815492749214, -0.002345522167161107], [-0.011291975155472755, -0.0038631081115454435, 0.007391761988401413, -0.0020375936292111874, 0.014497261494398117, 0.024669481441378593, 0.014007361605763435, -0.026413045823574066, 0.005393839441239834, -0.00517542427405715, -0.003928848076611757, -0.004664831794798374, 0.0024707464035600424, 0.0020262752659618855, -0.006215485278517008, -0.01948130503296852, 0.0235308688133955, 0.0021555046550929546, -0.014895802363753319, 0.003386066062375903, 0.02046162076294422, -0.0024771636817604303, -0.0037517985329031944, 0.005898275878280401, -0.00015483818424399942, 0.003625834360718727, -0.001200352213345468, -0.005726266652345657, 0.004650716669857502, 0.004778067581355572, 0.0006219751085154712, 0.006933992262929678, 0.00691646384075284, -0.0020842300727963448, -0.0007674751686863601, -0.008786135353147984, -0.022507421672344208, 0.00023565496667288244, 0.009168151766061783, 0.0013579655205830932], [-0.009145851247012615, 0.014272990636527538, -0.0033280064817517996, 0.003694882383570075, -0.017752988263964653, -0.02423079125583172, -0.0002813046448864043, -0.04480400308966637, -0.015902776271104813, 0.047235071659088135, -0.0021523497998714447, 0.001336954883299768, -0.02083558775484562, 0.0051278467290103436, 0.0077177127823233604, 0.0013504201779142022, -0.013343414291739464, -0.010418137535452843, -0.03923232853412628, 0.013892781920731068, -0.035966694355010986, -0.007216736674308777, 0.015779756009578705, -0.020791620016098022, -0.011428791098296642, -0.013847427442669868, -0.0061142174527049065, 0.0025188601575791836, -0.0034821173176169395, 0.0037320528645068407, -0.009526892565190792, -0.048517320305109024, -0.0032060053199529648, 0.02188761904835701, 0.007647080346941948, 0.03029460832476616, 0.029579980298876762, -0.01246616430580616, 0.025859041139483452, -0.015509124845266342], [0.005316692404448986, 0.010552052408456802, -0.00875325221568346, -0.04672909155488014, -0.022672390565276146, -0.021700061857700348, 0.01950851082801819, -0.012370364740490913, -0.016156475991010666, 0.0657564252614975, 0.000809744349680841, -0.0022025657817721367, -0.04645853117108345, -0.0009020976722240448, 0.0022405905183404684, 0.0014360062777996063, 0.0033028279431164265, -0.01101980172097683, 0.003120837267488241, -0.00039545324398204684, 0.008100569248199463, -0.003081382717937231, 0.0056928349658846855, -0.012548067606985569, -0.019099203869700432, -0.02059374377131462, -0.008794114924967289, -0.0016354602994397283, -0.005327934864908457, -0.0014199890429154038, -0.0019801161251962185, -0.0037074629217386246, -0.004962226375937462, 0.030139870941638947, 0.0032075445633381605, 0.04376816749572754, -0.002691406523808837, -0.003000464756041765, 0.0015614518197253346, -0.01958920806646347], [0.024215109646320343, 9.387257159687579e-05, 0.002891484647989273, 0.04246363043785095, -0.007623986806720495, -0.032283488661050797, 0.050820596516132355, 0.005282310768961906, -0.01293350663036108, 0.04525558277964592, -0.03736652806401253, 0.0020451191812753677, -0.019769124686717987, -0.011305103078484535, -0.009811514057219028, 0.0017598350532352924, 0.014525007456541061, -0.0011900843819603324, 0.05717562511563301, 0.0007673478685319424, 0.04739489033818245, -0.004178306087851524, 0.0006269742734730244, -0.007176217623054981, -0.008610653690993786, -0.01194600947201252, -0.031189793720841408, -0.020036960020661354, -0.00954774022102356, 0.002505095209926367, 0.008619893342256546, 0.03452339395880699, -0.005078624002635479, 0.04140095040202141, 0.012065324001014233, 0.007927563972771168, -0.005421754438430071, -0.007528998889029026, -0.0060918619856238365, -0.0012450480135157704], [0.013944298028945923, -0.06274376064538956, 0.047407954931259155, 0.06870051473379135, -0.030823318287730217, -0.03516605123877525, 0.16956727206707, 0.0006468872306868434, -0.1466134935617447, 0.07922787964344025, -0.18179333209991455, 0.008175842463970184, -0.06551116704940796, -0.05208563059568405, 0.0021301801316440105, -0.003077515633776784, 0.00296418322250247, -0.002022394211962819, -0.031369421631097794, -0.03286994248628616, -0.018999725580215454, 0.04606034234166145, -0.02352958358824253, -0.03969096019864082, -0.06320967525243759, -0.09890223294496536, -0.14776982367038727, -0.07052683085203171, -0.02284371294081211, -0.030288463458418846, -0.022455450147390366, 0.009359057992696762, -0.09118977189064026, 0.18605667352676392, 0.013022924773395061, 0.034163087606430054, 0.031882394105196, -0.07023973017930984, -0.026844270527362823, 0.0218094140291214], [-0.047499772161245346, 0.006724589038640261, -0.0030509999487549067, 0.11641345173120499, -0.027175797149538994, 0.0369202084839344, 0.0753115862607956, -0.03754035755991936, -0.053518783301115036, 0.04513855278491974, -0.08323410898447037, 0.00352341472171247, -0.01841513067483902, 0.005953355226665735, -0.004004870541393757, 0.021825546398758888, -0.03348565101623535, -0.01661035232245922, 0.07282886654138565, -0.00471384497359395, 0.034442950040102005, 0.016083592548966408, 0.0010076445760205388, -0.01659916527569294, -0.015934081748127937, -0.03475871682167053, -0.07252322137355804, -0.05261678248643875, 0.005866933148354292, -0.01806136779487133, -0.02542688511312008, 0.03718746453523636, -0.022626716643571854, 0.10369202494621277, -0.028089428320527077, 0.035712890326976776, 0.0809568464756012, 0.0006185482488945127, 0.011861685663461685, -0.007086890749633312], [-0.036696095019578934, 0.05772288143634796, 0.002309169853106141, 0.03310341015458107, -0.0018167304806411266, 0.03733784332871437, -0.027966482564806938, -0.005436241626739502, 0.014134129509329796, 0.01850721426308155, -0.009391345083713531, 0.0004869727126788348, -0.010471529327332973, 0.016895558685064316, -0.001025676028802991, -0.014845537953078747, -0.005891489330679178, 0.004659345839172602, -0.022993413731455803, 0.0037918747402727604, -0.030777739360928535, 0.004638723563402891, -0.0007856988231651485, 0.008119373582303524, 0.004248407669365406, 0.01342178788036108, 0.01473945751786232, -0.0023301115725189447, 0.01522830966860056, -0.0007256684475578368, 0.03123791702091694, -0.005429431330412626, 0.0013271392090246081, -0.016225004568696022, -0.009599348530173302, 0.003718562191352248, 0.022497128695249557, 0.0025529549457132816, 0.013668276369571686, 0.003298792289569974], [0.02476073056459427, 0.01640939526259899, 0.008184154517948627, -0.01809643767774105, 0.007243667263537645, -0.03128502145409584, 0.03037555143237114, -0.007265954744070768, -0.005752685945481062, 0.005539543926715851, -0.01740247569978237, -0.0034466488286852837, -0.0009692861349321902, -0.007970654405653477, -0.006993461400270462, -0.016566021367907524, -0.0019855338614434004, -0.003623801749199629, 0.022489478811621666, 0.005382608622312546, 0.026893358677625656, -0.01005194429308176, 0.00025028633535839617, -0.003479319391772151, -0.004060045816004276, -0.009900433011353016, -0.016997991129755974, -0.008858919143676758, -0.006395772565156221, 0.008913193829357624, 0.004125781822949648, 0.001950131612829864, 0.004742748104035854, 0.015742488205432892, 0.014901270158588886, -0.02801276557147503, -0.03326892852783203, -0.00675188098102808, -0.0011447230353951454, -0.006977936718612909], [-0.05795669183135033, 0.1239946186542511, 0.025710174813866615, 0.08168309926986694, 0.020436666905879974, 0.11603560298681259, 0.025724736973643303, 0.058957912027835846, 0.012749780900776386, -0.007011251989752054, -0.06257649511098862, -0.009806567803025246, -0.0006973069976083934, 0.022029738873243332, -0.016704345121979713, -0.04968450590968132, 0.10086874663829803, 0.011242094449698925, 0.07354368269443512, -0.018202433362603188, 0.03443260118365288, 0.019295528531074524, -0.0366290807723999, 0.022427452728152275, 0.0008707672823220491, 0.01381776388734579, -0.023074064403772354, -0.04476577043533325, 0.03442775085568428, -0.008748260326683521, 0.10043161362409592, 0.17977367341518402, -0.010317830368876457, 0.03706832230091095, -0.0175478495657444, -0.06614260375499725, -0.016205638647079468, 0.01689908094704151, -0.021812226623296738, 0.014054878614842892], [-0.009038797579705715, 0.08044133335351944, 0.004654975142329931, 0.054934512823820114, -0.03190285339951515, 0.02915588766336441, 0.06651104986667633, -0.07410096377134323, -0.018535025417804718, 0.1452871859073639, -0.045378077775239944, 0.0050916834734380245, 0.03394593298435211, 0.021460749208927155, 0.0152844013646245, 0.017036914825439453, -0.2816265821456909, 0.00035087959258817136, -0.0008567364420741796, 0.02836381271481514, -0.028130143880844116, 0.12487932294607162, 0.004783401265740395, -0.03080880269408226, -0.015314868651330471, -0.0012137622106820345, -0.030377985909581184, 0.04237590730190277, 0.030193805694580078, 0.008993212133646011, 0.02436883933842182, 0.005609455052763224, -0.038024649024009705, 0.0730084776878357, -0.007180922199040651, -0.009477629326283932, 0.07902795821428299, -0.017799895256757736, 0.07402167469263077, 0.008988294750452042], [0.028881587088108063, -0.00890375580638647, 0.00971825048327446, 0.02451416477560997, -0.010112445801496506, -0.043316714465618134, 0.07000592350959778, 0.013652989640831947, -0.017432669177651405, 0.017530743032693863, -0.04305696487426758, 0.0007691432838328183, -0.019017022103071213, -0.015749499201774597, -0.002163799712434411, -0.003340739756822586, 0.0032954635098576546, 0.013017978519201279, 0.01707668974995613, -0.016095740720629692, 0.041499096900224686, -0.002250253688544035, -0.01701001264154911, -0.0021702279336750507, -0.014276012778282166, -0.02136906236410141, -0.058792345225811005, -0.020507564768195152, -0.014194793999195099, -0.003347191959619522, 0.01227267924696207, 0.022678541019558907, -0.040800999850034714, 0.09070104360580444, 0.02214989624917507, 0.048216890543699265, -0.018127676099538803, -0.008510598912835121, -0.03447764739394188, 0.021789606660604477], [-0.08401365578174591, -0.09911252558231354, -0.028519023209810257, 0.036830708384513855, -0.03701522573828697, 0.10426001250743866, 0.11865359544754028, 0.03365059942007065, -0.12740369141101837, 0.023120881989598274, -0.10475030541419983, -0.007773018907755613, -0.03983961418271065, -0.0070068794302642345, 0.004812686704099178, 0.03580080345273018, 0.04462746903300285, -0.02852535992860794, 0.044920675456523895, -0.020039251074194908, 0.04533245787024498, 0.025502221658825874, 0.014786484651267529, 0.007456362247467041, -0.004564832895994186, -0.08298977464437485, -0.10066033899784088, -0.09044800698757172, 0.029140658676624298, -0.012048081494867802, -0.0862572118639946, 0.13281972706317902, -0.04423464462161064, 0.23790492117404938, -0.08954355865716934, 0.15464802086353302, 0.13027197122573853, -0.04670088365674019, -0.03303728625178337, 0.004509706515818834], [-0.026100726798176765, 0.037266675382852554, 0.028092091903090477, 0.03813226521015167, 0.010104821063578129, 0.03367815911769867, 0.10382648557424545, 0.00491571519523859, -0.04892982915043831, -0.007519659586250782, -0.08407144248485565, -0.005187052767723799, -0.003584375837817788, -0.00395271647721529, -0.012004449032247066, -0.030543625354766846, -0.013711594045162201, -0.005445247050374746, 0.09746363013982773, -0.006789937149733305, 0.08901787549257278, -0.006907589267939329, -0.01056493166834116, -0.010641481727361679, -0.010678406804800034, -0.025909755378961563, -0.11373043060302734, -0.05202559754252434, 0.008367160335183144, 0.00536629231646657, 0.001740607782267034, 0.07299312949180603, -0.020183295011520386, 0.12293542176485062, -0.008214992471039295, -0.0499403290450573, -0.03082120791077614, -0.013656125403940678, -0.0034286361187696457, 0.0053697796538472176], [-0.06496594101190567, 0.4487714171409607, -0.03318032622337341, 0.05428553745150566, -0.08607862144708633, 0.049225881695747375, -0.01738693192601204, -0.10458997637033463, -0.028354298323392868, 0.48140060901641846, -0.0034713298082351685, -0.0023482677061110735, -0.22995774447917938, 0.058298513293266296, 0.024642683565616608, -0.14109653234481812, 0.0618334598839283, -0.009043925441801548, 0.0012683524983003736, -0.014035891741514206, -0.06579439342021942, 0.020360661670565605, -0.01692364737391472, -0.032332587987184525, -0.07740982621908188, -0.038109809160232544, -0.0028624541591852903, -0.0007471272838301957, 0.03389982134103775, -0.026183035224676132, 0.22228433191776276, 0.010316832922399044, -0.03723468631505966, 0.1224357932806015, -0.03487813472747803, 0.018536090850830078, 0.09104136377573013, 0.01726595126092434, 0.06263628602027893, -0.0965774655342102], [-0.05539490655064583, 0.021410031244158745, -0.010395396500825882, 0.005976535379886627, 0.0026128231547772884, 0.04918450862169266, 0.007282051257789135, -0.06659103184938431, 0.0005629391525872052, 0.015540709719061852, 0.00940378662198782, 0.00308621977455914, 0.019747624173760414, 0.02769954688847065, 0.01648310199379921, 0.00024562623002566397, -0.03497578948736191, -0.005723662208765745, -0.07080426812171936, 0.023979615420103073, -0.031812842935323715, 0.004387743305414915, 0.020459255203604698, -0.007511630654335022, 0.013606521300971508, 0.013186289928853512, 0.013338484801352024, 0.009363302029669285, 0.022205859422683716, 0.002029416151344776, -0.01031444501131773, -0.050647590309381485, 0.016472218558192253, -0.0042615728452801704, -0.024052096530795097, 0.020650314167141914, 0.06397587060928345, 0.0010606142459437251, 0.05711500346660614, -0.001012066495604813], [0.011211304925382137, 0.0010051695862784982, 0.001862846314907074, -0.014715596102178097, -0.00144490587990731, -0.009585842490196228, 0.020164597779512405, 0.008393608964979649, -0.006355384364724159, 0.0009847150649875402, -0.007819986902177334, -0.0019141241209581494, -0.002746203448623419, -0.005023656412959099, -0.003013750771060586, -0.0023465778212994337, 0.0017305667279288173, -0.002006130525842309, 0.02107269875705242, -0.0021316218189895153, 0.02058299258351326, -0.0020316883455961943, -0.002373796422034502, -0.0017975016962736845, -0.004905955865979195, -0.009093535132706165, -0.012680452316999435, -0.005977137479931116, -0.004204478580504656, 0.0005966388853266835, 0.002014537574723363, 0.020857611671090126, -0.0031014657579362392, 0.019299784675240517, 0.005097106099128723, -0.002979070646688342, -0.016402244567871094, -0.0011613178066909313, -0.008152274414896965, -0.0017180576687678695], [-0.08787811547517776, 0.08306095749139786, 0.010728004388511181, 0.06824970990419388, 0.0220736525952816, 0.08537892252206802, -0.005982780829071999, -0.14939093589782715, 0.03482767567038536, 0.02086184360086918, 0.017876969650387764, -0.00681812409311533, -0.0016272624488919973, 0.047096408903598785, 0.0007724499446339905, -0.06337187439203262, 0.08859776705503464, 0.0021877316758036613, -0.10381046682596207, 0.043384455144405365, -0.03421008214354515, 0.0007409853860735893, 0.021362466737627983, 0.026359649375081062, 0.025680750608444214, 0.0176874827593565, 0.014527714811265469, -0.007378792855888605, 0.037316497415304184, 0.007327165454626083, 0.000707881641574204, -0.03044435754418373, 0.009135732427239418, -0.0027209478430449963, -0.029575420543551445, 0.03331457078456879, 0.05776572227478027, -0.004388786386698484, 0.10026376694440842, 0.00421874038875103], [0.03556898608803749, -0.0040056705474853516, 0.010581886395812035, -0.0463111437857151, 0.005836969707161188, -0.03825818747282028, 0.08489778637886047, -0.013908157125115395, -0.013045944273471832, 0.04097502678632736, -0.03784139081835747, -0.005358201451599598, -0.022981705144047737, -0.013554342091083527, -0.011424100957810879, -0.022289128974080086, 0.018968377262353897, -0.00918110553175211, 0.032944533973932266, 0.002892968012019992, 0.09313061833381653, -0.0034801356960088015, -0.006379013415426016, -7.46489895391278e-05, -0.012269680388271809, -0.023808227851986885, -0.03383779898285866, -0.023956606164574623, -0.008742362260818481, 0.001965889008715749, -0.007570020854473114, 0.010282788425683975, 0.001642017625272274, 0.05196663737297058, 0.01716654933989048, 0.02433900162577629, -0.06816332042217255, -0.0010879365727305412, -0.017520958557724953, -0.026573415845632553], [-0.031289685517549515, 0.11120852828025818, 0.010528992861509323, 0.008221196942031384, 0.05988170951604843, 0.0752548798918724, 0.019164254888892174, -0.07113941758871078, 0.015042155049741268, -0.04976490139961243, -0.005347896367311478, -0.012444764375686646, 0.013222347013652325, 0.0515609085559845, -0.030941346660256386, -0.08918323367834091, 0.026742413640022278, -0.0250911433249712, 0.04698118194937706, 0.02512553706765175, 0.030939428135752678, -0.001240751356817782, 0.008096139878034592, 0.04751378297805786, 0.0523466132581234, 0.0025029333774000406, -0.020868850871920586, -0.0036742710508406162, 0.06327817589044571, 0.03049527294933796, 0.005511330906301737, 0.04682242497801781, 0.003787818131968379, 0.03704243525862694, -0.028854141011834145, -0.05197078362107277, -0.014877705834805965, -0.0005209838273003697, 0.06310749053955078, -0.026052890345454216], [-0.2512845993041992, 0.5599555373191833, 0.021144745871424675, 0.21318945288658142, -0.004451428540050983, 0.3393150866031647, -0.08670379221439362, 0.10468994081020355, 0.07743772119283676, -0.003464779816567898, -0.05777633190155029, -0.01004407461732626, -0.013370631262660027, 0.18906089663505554, 0.031228497624397278, -0.16038158535957336, 0.11191778630018234, 0.0892472043633461, 0.0014068555319681764, -0.07852323353290558, -0.13439656794071198, 0.10329633951187134, -0.11649998277425766, 0.0545608252286911, 0.009254910983145237, 0.09610375016927719, 0.011589748784899712, -0.02831481583416462, 0.1898968517780304, -0.07754013687372208, 0.38388463854789734, 0.2804718315601349, -0.07953236997127533, 0.07157978415489197, -0.15676379203796387, -0.2317001074552536, 0.2416563481092453, 0.084016814827919, -0.009301165118813515, 0.08325900137424469], [0.027084121480584145, -0.0035505169071257114, 0.01681806892156601, 0.04486016184091568, 0.0004420345649123192, -0.03181060031056404, 0.064652219414711, 0.01525426097214222, -0.01704922318458557, 0.0198140237480402, -0.05094737187027931, 0.0009483351605013013, -0.013812223449349403, -0.012601545080542564, -0.005606672260910273, 0.0014452909817919135, 0.009835541248321533, 0.007879695855081081, 0.06433127075433731, -0.012615031562745571, 0.028766028583049774, 0.005384224466979504, -0.013223297894001007, -0.004046939313411713, -0.006258491892367601, -0.009444684721529484, -0.0572839230298996, -0.023826714605093002, -0.005766773130744696, -0.006522915326058865, 0.0190002229064703, 0.050029411911964417, -0.019788585603237152, 0.07773584127426147, 0.01644321158528328, -0.01850312389433384, -0.013898078352212906, 0.0009246484842151403, -0.020450416952371597, 0.01435855496674776], [0.11727428436279297, 0.013022095896303654, 0.0005698082386516035, -0.09269729256629944, -0.03617090731859207, -0.0949319526553154, 0.08212575316429138, 0.021066423505544662, -0.06438594311475754, 0.05652570724487305, -0.03187212720513344, -0.010905086062848568, -0.06792526692152023, -0.05724884569644928, -0.006664367392659187, 0.019963769242167473, -0.05033191293478012, -0.0020646878983825445, -0.027385294437408447, -0.053939834237098694, 0.012902972288429737, 0.018319658935070038, -0.027633361518383026, -0.04549205303192139, -0.049745820462703705, -0.05620509013533592, -0.0661378875374794, 0.008318954147398472, -0.06806272268295288, -0.028609156608581543, -0.00018006797472480685, 0.011286654509603977, -0.053616318851709366, 0.05821908265352249, 0.037630315870046616, 0.039874546229839325, -0.01679406873881817, 0.015364243648946285, -0.06812553852796555, -0.005294518545269966], [0.016263775527477264, 0.0006629338022321463, 0.0012733432231470942, -0.044245555996894836, -0.014707227237522602, -0.045766983181238174, 0.01530427485704422, -0.03678426519036293, -0.014422859065234661, 0.08173297345638275, -0.006537318229675293, -0.002086750930175185, -0.043292053043842316, -0.0060098678804934025, 0.0023379100020974874, -0.004462258890271187, -0.019194435328245163, -0.009241979569196701, -0.004033596254885197, 0.01144747156649828, -0.0005346459802240133, -0.010446185246109962, 0.009905963204801083, -0.01669963076710701, -0.016785437241196632, -0.017477169632911682, -0.013033071532845497, 0.0002111330395564437, -0.00998734962195158, 0.0069484529085457325, -0.002005963819101453, -0.03519038110971451, 0.005834020208567381, 0.021664362400770187, 0.015123669058084488, 0.025863954797387123, -0.0169842429459095, -0.010109634138643742, 0.0063554272055625916, -0.020403850823640823], [-0.06575271487236023, 0.06419755518436432, 0.011484900489449501, 0.04153566434979439, 0.026802193373441696, 0.07389000058174133, 0.17898344993591309, -0.025073057040572166, -0.04713946580886841, 0.014566201716661453, -0.09411577135324478, -0.00541422376409173, -0.018132075667381287, 0.042610906064510345, -0.02708393521606922, -0.06287166476249695, 0.07263153791427612, -0.09727783501148224, 0.09372057765722275, 0.02790832333266735, 0.13081787526607513, 0.04273122176527977, 0.017984019592404366, 0.0003861920558847487, -0.017324309796094894, -0.06477037817239761, -0.13430219888687134, 0.018470821902155876, 0.11917965114116669, 0.03191405162215233, -0.06096159666776657, 0.07066076248884201, -0.02395803853869438, 0.17329663038253784, 0.02711142599582672, -0.018229426816105843, 0.0033900465350598097, -0.022515103220939636, 0.05739923194050789, -0.0830591470003128], [-0.08489343523979187, -0.07703522592782974, 0.04746881127357483, 0.08757995069026947, 0.04531034454703331, 0.12981806695461273, 0.2134498655796051, -0.008762810379266739, -0.11314266920089722, 0.00042077133548446, -0.15126490592956543, -0.04004174470901489, 0.030456572771072388, 0.018389364704489708, 0.0030236311722546816, -0.10963965952396393, 0.30030813813209534, -0.088315948843956, 0.08580776304006577, 0.021898886188864708, 0.12281515449285507, -0.007825193926692009, 0.025283150374889374, 0.06367465108633041, -0.023823466151952744, -0.1581973284482956, -0.17857088148593903, -0.13710007071495056, 0.11017640680074692, 0.03638233244419098, -0.03205708786845207, 0.18711760640144348, -0.0059678684920072556, 0.2480211853981018, -0.07044537365436554, 0.09399763494729996, -0.015585329383611679, -0.0680001974105835, 0.0015420053387060761, -0.0370430164039135], [-0.15578868985176086, 0.018430422991514206, -0.07635671645402908, -0.02352442778646946, -0.0527324303984642, 0.1490774154663086, 0.032783810049295425, -0.1568373292684555, 0.007447479292750359, 0.07499374449253082, 0.0779293030500412, -0.005847177933901548, -0.0018843444995582104, 0.06653820723295212, 0.007127581629902124, 0.0226876400411129, 0.1689741462469101, -0.1120850220322609, -0.07107768207788467, 0.09997968375682831, 0.009832829236984253, -0.009111008606851101, 0.15006747841835022, -0.003881453536450863, 0.006757641211152077, -0.06229126453399658, 0.05834610015153885, -0.02167617343366146, 0.03104565292596817, -0.0023554321378469467, -0.10940424352884293, 0.010234239511191845, 0.07898275554180145, 0.009029989130795002, -0.07398897409439087, 0.09964777529239655, 0.059807080775499344, -0.025377627462148666, 0.19250242412090302, -0.17182689905166626], [-0.05660490691661835, 0.0053571667522192, 0.017498750239610672, 0.15598079562187195, -0.023932168260216713, 0.043304502964019775, 0.11025501042604446, 0.018132489174604416, -0.08659426867961884, 0.03497764468193054, -0.1256074458360672, 0.00533572630956769, -0.02275640144944191, -0.005251435097306967, 0.0013786207418888807, 0.01183265820145607, 0.04699873551726341, 0.0012379030231386423, 0.03644920513033867, -0.018889129161834717, 0.01900814101099968, 0.011970696039497852, -0.011248636990785599, -0.023280974477529526, -0.020296262577176094, -0.05798421800136566, -0.0913851335644722, -0.06544037163257599, 0.003721731947734952, -0.00939579214900732, 0.0029698903672397137, 0.09672081470489502, -0.05448625609278679, 0.15413454174995422, -0.019914599135518074, 0.030587108805775642, 0.05125977471470833, -0.017813779413700104, -0.015110169537365437, 0.016993878409266472], [-0.04826577380299568, -0.0014854012988507748, -0.07019143551588058, -0.10749910026788712, -0.1442917436361313, -0.07698658853769302, -0.011202532798051834, -0.22635605931282043, -0.03825703635811806, 0.39483842253685, 0.10105184465646744, -0.0014748702524229884, -0.1841280162334442, 0.041411712765693665, 0.056042373180389404, 0.04826650023460388, -0.037217605859041214, -0.06041809171438217, -0.18115894496440887, 0.0555180124938488, -0.08351008594036102, -0.008929499424993992, 0.0676906481385231, -0.06409601867198944, -0.09170584380626678, -0.09054084867238998, 0.09577368944883347, 0.06868371367454529, -0.015116460621356964, -0.01311193685978651, -0.044623613357543945, -0.24334876239299774, 0.017034245654940605, 0.00921472255140543, -0.0425935722887516, 0.3463476598262787, 0.11260467022657394, -0.019589342176914215, 0.09324448555707932, -0.1420738846063614], [0.002220531925559044, 0.03604765608906746, 0.15143947303295135, 0.13483461737632751, -0.007192819379270077, -0.051633138209581375, 0.10864070057868958, -0.04511766880750656, -0.0918181985616684, 0.12198501080274582, -0.16487865149974823, 0.007953922264277935, -0.08246298134326935, -0.013176847249269485, 0.07679039239883423, -0.025231817737221718, 0.012010449543595314, 0.04498792812228203, -0.02334984764456749, -0.012008332647383213, -0.022291341796517372, 0.033651236444711685, -0.05734459310770035, -0.062019843608140945, -0.05624779686331749, -0.0636240541934967, -0.1515471190214157, -0.033505454659461975, -0.0013496235478669405, -0.03902244195342064, 0.06125575676560402, 0.06076041981577873, -0.08970627188682556, 0.18299289047718048, 0.07766719162464142, -0.0031691808253526688, 0.034929417073726654, -0.03591609001159668, -0.02347577176988125, 0.06864316016435623], [0.0035187476314604282, -0.0013915166491642594, 5.328178667696193e-05, -0.00620392058044672, 6.051909440429881e-05, -0.004216806031763554, 0.0067506954073905945, -0.0019332719966769218, -0.002472493564710021, 0.00036167187499813735, -0.0006614907761104405, -0.00031175039475783706, 0.00013148308789823204, -0.00150259246584028, -0.0005055863875895739, -0.0005686103249900043, 0.0025100773200392723, -0.0020062944386154413, 0.003416141727939248, 0.0008657588623464108, 0.004082737024873495, -0.001532085589133203, 0.0010403291089460254, -0.0013186109717935324, -0.0012037133565172553, -0.0034619139041751623, -0.003296661889180541, -0.0011598513228818774, -0.0014712278498336673, 0.0008207243517972529, -0.003365644020959735, 0.0011346408864483237, 0.000611865078099072, 0.004780980292707682, 0.0017773366998881102, -0.000729929655790329, -0.004504036158323288, -0.0008060724940150976, 0.0003134550934191793, -0.002463063457980752], [0.0065559702925384045, -0.013977620750665665, -0.051139649003744125, -0.035801105201244354, -0.12941159307956696, -0.0879652127623558, -0.022372810170054436, -0.09263257682323456, -0.05530343949794769, 0.3446817994117737, 0.03861059993505478, -0.0014436902711167932, -0.21181795001029968, -0.004054070916026831, 0.029383927583694458, 0.043725136667490005, -0.07653845101594925, -0.026519903913140297, -0.05062727630138397, -0.00878988578915596, -0.07226268202066422, -0.00764154177159071, 0.02403428964316845, -0.06280001997947693, -0.09086217731237411, -0.06095144897699356, -0.00473772082477808, 0.02175033651292324, -0.030532117933034897, -0.019473634660243988, -0.013181440532207489, -0.1411372572183609, -0.04622992128133774, 0.06557713449001312, 0.009969720616936684, 0.2583618760108948, 0.07204451411962509, -0.01588314026594162, 0.00364848249591887, -0.07545458525419235], [-0.045668598264455795, 0.14840540289878845, 0.023832853883504868, 0.04189883545041084, 0.017827680334448814, 0.05076964944601059, 0.004141995683312416, -0.031832437962293625, 0.021081391721963882, -0.002286151982843876, -0.03687058389186859, -0.0036771141458302736, 0.0017292456468567252, 0.03712286055088043, 0.0008449515444226563, -0.060205668210983276, -0.008459520526230335, 0.015545541420578957, -0.04339384287595749, 0.009409021586179733, -0.030169138684868813, 0.0009702478419058025, -0.008600878529250622, 0.010419689118862152, 0.010837825946509838, 0.018780915066599846, -0.00802497286349535, -0.00697005121037364, 0.0348234623670578, 0.007595209404826164, 0.06869181245565414, 0.004141323268413544, -0.0035678851418197155, 0.027914980426430702, -0.005789465736597776, -0.04906045272946358, 0.01020321436226368, -0.005115487612783909, 0.026700202375650406, 0.014091617427766323], [-0.05162142217159271, -0.0038150656037032604, -0.018582547083497047, 0.03838403522968292, -0.022001417353749275, 0.04698562249541283, -0.03891651704907417, -0.07072356343269348, -0.011452601291239262, 0.0522233247756958, 0.022970765829086304, 0.00026553409406915307, -0.019405411556363106, 0.011270357295870781, 0.01934644766151905, 0.0141460495069623, 0.00800989754498005, -0.016452159732580185, -0.07055298984050751, 0.01681472733616829, -0.07206671684980392, -0.0024711962323635817, 0.020467977970838547, -0.016947077587246895, -0.011588884517550468, -0.008392317220568657, 0.01543464232236147, 0.01731947250664234, 0.0009218710474669933, -0.0023899823427200317, -0.019925938919186592, 0.02503339760005474, 0.007027787156403065, -0.011523780412971973, -0.016703197732567787, 0.04296724125742912, 0.0563066266477108, -0.001096512540243566, 0.039610326290130615, -0.02492333948612213], [-0.04062379151582718, 0.08237982541322708, 0.006233731750398874, 0.04533129930496216, 0.0028531847056001425, 0.054234717041254044, -0.020418867468833923, 0.023343807086348534, 0.021318968385457993, -0.005390788894146681, -0.015245931223034859, 0.0009892836678773165, 0.0053746048361063, 0.02255706675350666, -0.002989190397784114, -0.013402733951807022, 0.017223723232746124, 0.016339736059308052, 0.001114595215767622, -0.007074265740811825, -0.007745902054011822, 0.016232123598456383, -0.016140468418598175, 0.014191368594765663, 0.008176760748028755, 0.019453896209597588, 0.011890573427081108, -0.008264455012977123, 0.02133258432149887, -0.009746179915964603, 0.06809922307729721, 0.039277005940675735, -0.007335939910262823, -0.010875830426812172, -0.0206513199955225, -0.03667282685637474, 0.030402563512325287, 0.009456555359065533, -0.004024417605251074, 0.016245374456048012], [-0.00582938501611352, 0.03898651897907257, 0.020549042150378227, 0.19030913710594177, 0.014653232879936695, -0.07082550972700119, 0.08366408944129944, 0.002746236976236105, -0.0021301484666764736, -0.0007133440230973065, -0.12164443731307983, 0.0009295250638388097, -0.002594166435301304, 0.005575103219598532, -0.03712951019406319, -0.04126027226448059, 0.07018577307462692, -0.05220136418938637, 0.09657097607851028, 0.03293637931346893, 0.09214942902326584, -0.004775173496454954, 0.007476101629436016, 0.0025878632441163063, -0.007958776317536831, -0.011548320762813091, -0.061618853360414505, 0.1104247123003006, 0.005159186199307442, 0.002719117794185877, 0.0030004701111465693, -0.03817443549633026, 0.010433344170451164, 0.06864631921052933, 0.06425914168357849, 0.021458778530359268, 0.07814901322126389, -0.01064051128923893, 0.020650899037718773, -0.03975541517138481], [0.005755583755671978, -0.012716864235699177, 0.001764500280842185, 0.01963629759848118, -2.205222472184687e-06, -0.004595740232616663, 0.026019955053925514, 0.008152739144861698, -0.004286634270101786, 0.00599708454683423, -0.01277109608054161, -0.0007846158696338534, -0.006525464355945587, -0.007284168154001236, -0.004421149846166372, -1.547743522678502e-05, 0.04513213783502579, -0.0026573538780212402, 0.019020777195692062, -0.003353300504386425, 0.04379697144031525, 0.0002725106605794281, -0.004463263787329197, 0.0016668206080794334, -0.004493770655244589, -0.006227194331586361, -0.009562384337186813, -0.012328347191214561, -0.0052303834818303585, -0.0015296181663870811, -0.008233670145273209, 0.010990682989358902, -0.0024969554506242275, 0.010312048718333244, 0.002608584240078926, 0.006606589537113905, -0.015754593536257744, 0.000766969402320683, -0.01166908722370863, -0.0022794962860643864], [0.11597266048192978, 0.06223495677113533, 0.10081615298986435, 0.05213869363069534, -0.06939049810171127, -0.10478030890226364, 0.008605255745351315, 0.017335517331957817, 0.03539002314209938, 0.07075957208871841, 0.11062794923782349, 0.04873177781701088, 0.03132684901356697, -0.035692229866981506, 0.21040841937065125, 0.07488176226615906, 0.06921844929456711, 0.15528498589992523, -0.022771723568439484, -0.027562735602259636, -0.3313486576080322, -0.03314805403351784, -0.09931578487157822, -0.20925447344779968, 0.06923959404230118, 0.07041792571544647, -0.07746601104736328, 0.18258818984031677, 0.002479264745488763, -0.10244869440793991, 0.08960437029600143, -0.15207979083061218, -0.2561786472797394, -0.03622668981552124, 0.15523123741149902, -0.07487039268016815, -0.08379043638706207, 0.1455702781677246, -0.08755331486463547, 0.14507713913917542], [-0.04232318699359894, 0.01097753457725048, -0.019417673349380493, -0.019976729527115822, -0.016149399802088737, 0.041157983243465424, 0.03356979787349701, -0.07712791860103607, -0.004391346592456102, 0.028761843219399452, 0.0186627097427845, -0.001597438007593155, -0.021899957209825516, 0.017672816291451454, 0.002874035155400634, -0.0006347879534587264, 0.09286525845527649, -0.01369000319391489, -0.03174085542559624, 0.01867605559527874, 0.025630144402384758, -0.000542259484063834, 0.017035268247127533, -0.00400892598554492, -0.009391624480485916, -0.016025360673666, -0.009992786683142185, -0.0012602584902197123, 0.0038181431591510773, -0.004059836268424988, -0.019067849963903427, 0.014236650429666042, 0.002692712936550379, 0.03215043991804123, -0.019408682361245155, 0.03007027506828308, 0.011403066106140614, -0.001444622641429305, 0.057583440095186234, -0.023933684453368187], [-0.1089354082942009, 0.0006220319774001837, -0.015836061909794807, 0.3033249080181122, 0.04334527626633644, 0.02410878799855709, 0.018048811703920364, -0.18408162891864777, -0.003632023697718978, 0.050076231360435486, -0.08281021565198898, -0.047462619841098785, 0.14340940117835999, 0.09309012442827225, 0.033224575221538544, -0.10653229802846909, 0.26232728362083435, -0.03551487252116203, 0.006507019978016615, 0.12407242506742477, -0.039408404380083084, -0.05274470895528793, 0.14595818519592285, 0.0515788234770298, 0.04784457013010979, -0.11990202963352203, -0.005546851083636284, -0.05661657080054283, 0.09985210001468658, 0.0889514833688736, -0.05074227601289749, -0.018695585429668427, 0.07414063066244125, 0.03700903803110123, -0.0201686080545187, 0.06203923374414444, 0.1631457805633545, -0.10429886728525162, 0.17779971659183502, -0.07633578777313232], [0.015638822689652443, 0.04194590449333191, 0.01777961477637291, 0.010499082505702972, 0.014243189245462418, 0.00964277982711792, 0.04693756625056267, 0.007605446968227625, -0.0024410150945186615, -0.0031906042713671923, -0.037171974778175354, -0.004100674297660589, 0.00510669220238924, -0.0069717224687337875, -0.010898764245212078, -0.028332673013210297, 0.01924879662692547, 0.0030700131319463253, 0.04571540653705597, 0.0016934257000684738, 0.05333244055509567, -0.005652541294693947, -0.007889624685049057, 0.0024660329800099134, 0.0014289329992607236, -0.003097033593803644, -0.027287356555461884, -0.019085725769400597, -0.001007242128252983, 0.008812530897557735, 0.0238502100110054, 0.055900197476148605, 0.0008468946907669306, 0.023563852533698082, 0.01750750094652176, -0.03961322456598282, -0.03334641829133034, -0.0034783589653670788, -0.004849794786423445, 0.004794588312506676], [-0.004945402033627033, -0.0022583205718547106, 0.007267732638865709, 0.0005134507082402706, 0.011557510122656822, 0.016950180754065514, 0.015046816319227219, -0.01255276519805193, 0.005897137336432934, 0.0005354968598112464, -0.005531013943254948, -0.003544936189427972, 0.001142301014624536, 0.000961960235144943, -0.005610568914562464, -0.016903690993785858, 0.016486037522554398, 0.0025916513986885548, -0.0058013745583593845, 0.002533979481086135, 0.021490728482604027, -0.0019161193631589413, -0.0042768921703100204, 0.006678531412035227, -0.00012521834287326783, 0.002689795335754752, -0.0025879894383251667, -0.006099378224462271, 0.004067821428179741, 0.0042732167057693005, 0.005073626060038805, 0.009786509908735752, 0.00543605862185359, -0.00012099773448426276, 0.0006483393954113126, -0.005919476505368948, -0.023379584774374962, 0.00037951540434733033, 0.0020157189574092627, 0.001651841215789318], [-0.01657734625041485, 0.0066643813624978065, -0.004610306583344936, 0.027648193761706352, -0.018423989415168762, -0.0150960898026824, -0.005169087089598179, -0.040612511336803436, -0.014060956425964832, 0.04001953825354576, -0.0007929687853902578, 0.003101137699559331, -0.016140902414917946, 0.007496331352740526, 0.009277316741645336, 0.008274780586361885, -0.007994483225047588, -0.008007494732737541, -0.04353586956858635, 0.011344276368618011, -0.04149196669459343, -0.0026625569444149733, 0.01472623459994793, -0.018664909526705742, -0.008263749070465565, -0.009668485261499882, -0.004862708505243063, 0.0029103767592459917, -0.0004936062032356858, 9.336664516013116e-05, -0.011140752583742142, -0.04363201931118965, -0.006290095392614603, 0.019300729036331177, 0.0026202555745840073, 0.03471963852643967, 0.04231924191117287, -0.009683731012046337, 0.025357814505696297, -0.009869285859167576], [-0.0026572751812636852, -0.005662744399160147, -0.009103724732995033, -0.01344684325158596, -0.02211247757077217, -0.010075057856738567, 0.004027461167424917, -0.0025515977758914232, -0.012809029780328274, 0.05155158415436745, 0.004639211110770702, 0.0001442107168259099, -0.03887471929192543, 5.2869720093440264e-05, 0.005000867880880833, 0.01197731588035822, -0.0013262060238048434, -0.005483998917043209, -0.0009476458071731031, -0.005042579490691423, -0.0064158146269619465, 0.0022101274225860834, 0.0029015999753028154, -0.009450847283005714, -0.014397695660591125, -0.013111858628690243, -0.007537827827036381, 0.0013205533614382148, -0.003286086255684495, -0.006067734211683273, -0.0044042435474693775, -0.0011023167753592134, -0.009469899348914623, 0.02420157939195633, -0.0015517047140747309, 0.042226605117321014, 0.011366446502506733, 0.0003638310299720615, -0.0032667145133018494, -0.008808097802102566], [0.001195301185362041, -0.019209405407309532, -0.004593831952661276, 0.05825988948345184, -0.011746653355658054, -0.005061952397227287, 0.02553253434598446, 0.007938558235764503, -0.00800326094031334, 0.03212926536798477, -0.017133302986621857, 0.005012861452996731, -0.014070054516196251, -0.004417709074914455, -0.0025547777768224478, 0.018161948770284653, 0.007537279278039932, 0.002058470854535699, 0.04045818746089935, -0.0035210871137678623, 0.022057954221963882, 0.004647341091185808, 0.0008205941994674504, -0.002660773927345872, -0.003277743700891733, -0.002513257088139653, -0.021751487627625465, -0.010194219648838043, -0.0038004813250154257, -0.005638199858367443, 0.0013890945119783282, 0.03348841145634651, -0.008010480552911758, 0.03414122387766838, -0.0028510140255093575, 0.021327435970306396, 0.018832823261618614, 0.00014690330135636032, -0.006543259136378765, 0.00641221646219492], [0.04281375929713249, -0.10204912722110748, 0.0889134556055069, 0.011194071732461452, -0.030785266309976578, -0.03429687023162842, 0.26228979229927063, 0.024738598614931107, -0.15691593289375305, 0.05700377747416496, -0.2012404501438141, 0.01358388178050518, -0.05599663034081459, -0.07222290337085724, -0.03991382569074631, -0.00507561257109046, 0.17864343523979187, -0.003021379467099905, 0.08311231434345245, -0.047192879021167755, 0.03186007961630821, 0.04968453198671341, -0.037812214344739914, -0.054947346448898315, -0.08912670612335205, -0.1431291103363037, -0.2392786294221878, -0.13142582774162292, -0.023287124931812286, -0.032779328525066376, -0.04765888676047325, 0.06698943674564362, -0.12297894060611725, 0.26161855459213257, 0.02891707979142666, 0.035866353660821915, -0.03208551183342934, -0.10554517060518265, -0.046029333025217056, 0.050340063869953156], [-0.03129486367106438, 0.004965034779161215, 4.201185220154002e-05, 0.14222343266010284, -0.026137670502066612, 0.004101913422346115, 0.09965518116950989, -0.0401952788233757, -0.05914970859885216, 0.03799191862344742, -0.10506972670555115, 0.0030803284607827663, -0.011926540173590183, 0.00405882578343153, -0.0103429751470685, 0.022135494276881218, -0.042063795030117035, -0.021751519292593002, 0.08589395135641098, -0.0049377731047570705, 0.05184318497776985, 0.014444154687225819, 0.001444919966161251, -0.01764669641852379, -0.016923943534493446, -0.03976937383413315, -0.08621884137392044, -0.03917369991540909, 0.0063041807152330875, -0.016603678464889526, -0.02876901999115944, -0.00783831812441349, -0.023826805874705315, 0.123929962515831, -0.016194740310311317, 0.025813808664679527, 0.07676438987255096, -0.0036248858086764812, 0.012390026822686195, -0.00855924654752016], [-0.039650075137615204, 0.04505853354930878, -0.003874344751238823, 0.014711937867105007, -0.0035651568323373795, 0.04376758262515068, -0.034479621797800064, -0.01156576070934534, 0.009485702030360699, 0.007147022522985935, 0.004258185159415007, 0.0014147274196147919, -0.005385450087487698, 0.01743556186556816, 0.002690108260139823, -0.005369297228753567, -0.0016017730813473463, 0.0016134653706103563, -0.03404613956809044, 0.002581390319392085, -0.043855417519807816, 0.006010521203279495, 0.0024169315584003925, 0.004098283592611551, 0.0040586479008197784, 0.011294594034552574, 0.015374609269201756, 0.003692422527819872, 0.013557955622673035, -0.0035647533368319273, 0.01590067520737648, -0.005529929883778095, 0.001809984794817865, -0.015267977491021156, -0.0132775092497468, 0.0040161507204174995, 0.02923254668712616, 0.0041063870303332806, 0.017282363027334213, 0.00023706005595158786], [0.017013853415846825, 0.012022088281810284, 0.011058719828724861, 0.00989577081054449, 0.010874377563595772, -0.020514000207185745, 0.019322479143738747, -0.007667542435228825, -0.00041181794949807227, 0.0001886554091470316, -0.01895955763757229, -0.002324014902114868, 0.005281583406031132, -0.005796441342681646, -0.007119101006537676, -0.01609782874584198, -0.0009047782514244318, 0.00032602850114926696, 0.0184771791100502, 0.006086075212806463, 0.019705142825841904, -0.007496985141187906, -0.0013189794262871146, 0.000832179794088006, 0.000977464602328837, -0.0026122096460312605, -0.013696761801838875, -0.009580498561263084, -0.00258730654604733, 0.008091500960290432, 0.007425525225698948, 0.0029027012642472982, 0.004859934560954571, 0.0063050417229533195, 0.012604208663105965, -0.026584435254335403, -0.027182552963495255, -0.005286055617034435, -0.00037559930933639407, 7.635679139639251e-06], [-0.06320188194513321, 0.16426929831504822, 0.03924870863556862, 0.07061196863651276, 0.031508758664131165, 0.1158386617898941, 0.034339629113674164, 0.03992759808897972, 0.01053532399237156, -0.008789732120931149, -0.07040925323963165, -0.011735629290342331, 0.0018091435777023435, 0.027048885822296143, -0.016604436561465263, -0.07098805159330368, 0.08066444844007492, 0.010736534371972084, 0.05834747850894928, -0.014197525568306446, 0.007785093504935503, 0.019414078444242477, -0.03892212733626366, 0.023431601002812386, 0.004882238805294037, 0.013620918616652489, -0.03836259990930557, -0.044897399842739105, 0.04184769093990326, -0.005224890541285276, 0.11820864677429199, 0.1717570573091507, -0.007263973820954561, 0.05027501657605171, -0.011699206195771694, -0.10662740468978882, -0.035175640136003494, 0.018573909997940063, -0.015732815489172935, 0.013121438212692738], [-0.14560571312904358, 0.15951746702194214, -0.015818707644939423, 0.10329156368970871, -0.016906991600990295, 0.09276892989873886, 0.1060534194111824, -0.20605629682540894, 0.04128516465425491, 0.2139560431241989, -0.0026529196184128523, 0.006165741011500359, 0.08950363844633102, 0.11553113162517548, -0.0013638510135933757, -0.005555807147175074, 0.16139091551303864, -0.02862231805920601, 0.026133205741643906, 0.11988896876573563, 0.029463758692145348, 0.10730069875717163, 0.06961746513843536, -0.017525339499115944, -0.01645844057202339, -0.032270848751068115, -0.026053931564092636, 0.14489178359508514, 0.1704634726047516, 0.05045272782444954, -0.01452670432627201, 0.03979378566145897, 0.004198121372610331, 0.07969588041305542, 0.08220740407705307, 0.03793828561902046, 0.09689114987850189, -0.0230060163885355, 0.20473802089691162, -0.059457406401634216], [0.04407597333192825, -0.025054899975657463, -0.0034911849070340395, -0.008886050432920456, -0.026258990168571472, -0.06464455276727676, 0.11553676426410675, 0.038200266659259796, -0.041183218359947205, 0.014237511903047562, -0.051178235560655594, 0.002497808076441288, -0.023074345663189888, -0.02478160709142685, -0.00236098887398839, 0.019720809534192085, 0.035016968846321106, 0.0029604712035506964, 0.05508922040462494, -0.02706761844456196, 0.07809562236070633, -1.1180175533809233e-05, -0.013338355347514153, -0.01522001251578331, -0.025290939956903458, -0.04384078085422516, -0.08470947295427322, -0.029660537838935852, -0.02490849606692791, -0.010599659755825996, -0.012526472099125385, 0.06351735442876816, -0.056177642196416855, 0.14118285477161407, 0.022572748363018036, 0.04435846582055092, -0.006682191509753466, -0.00950572919100523, -0.04418552294373512, 0.009944060817360878], [-0.033865030854940414, -0.11350259184837341, 0.044954024255275726, 0.03427853807806969, -0.01697522960603237, 0.04313453659415245, 0.27904248237609863, 0.09591864794492722, -0.18987245857715607, -0.023211149498820305, -0.21215000748634338, -0.008613159880042076, -0.038342200219631195, -0.05042131617665291, -0.05211398005485535, 0.004392991773784161, 0.19344648718833923, -0.05290410295128822, 0.16834746301174164, -0.05908263102173805, 0.1645062416791916, 0.013038360513746738, -0.01375692430883646, -0.011786902323365211, -0.048966940492391586, -0.13657282292842865, -0.22692912817001343, -0.12792059779167175, 0.037021853029727936, -0.01061153132468462, -0.1433016061782837, 0.11362516134977341, -0.11337660998106003, 0.4093274772167206, -0.036159541457891464, 0.10278794914484024, 0.06176675483584404, -0.11512152850627899, -0.07524271309375763, 0.014774775132536888], [-0.03183923289179802, 0.032198965549468994, 0.03668266907334328, 0.10788226127624512, 0.005484145134687424, 0.03335166350007057, 0.1337215155363083, 0.011492895893752575, -0.05359937995672226, -0.0023150828201323748, -0.11820917576551437, -0.004347087815403938, -0.0056323097087442875, -0.0056538511998951435, -0.014570442959666252, -0.028310799971222878, -0.014370281249284744, -0.001419189851731062, 0.10943903774023056, -0.007389457896351814, 0.09242682158946991, -0.0058916532434523106, -0.014811023138463497, -0.010638178326189518, -0.012661435641348362, -0.029426762834191322, -0.13279257714748383, -0.03893332928419113, 0.01366072054952383, 0.00342673365958035, 0.008679676800966263, 0.047180987894535065, -0.030006587505340576, 0.1547696739435196, 0.0023543741554021835, -0.02997448854148388, -0.02454574592411518, -0.0196461733430624, -0.010414267890155315, 0.014979838393628597], [-0.02715928666293621, 0.21654503047466278, -0.08115243166685104, 0.028923364356160164, -0.20130029320716858, -0.035021211951971054, 0.10728565603494644, -0.332802414894104, -0.11756141483783722, 0.7259618043899536, 0.01682710275053978, -0.0033044409938156605, -0.43181657791137695, 0.04770711064338684, 0.06389082968235016, -0.012517759576439857, -0.004751355387270451, -0.08491205424070358, 0.0012635068269446492, 0.036008019000291824, -0.11284123361110687, 0.02384585700929165, 0.044288281351327896, -0.10699792206287384, -0.21670600771903992, -0.10908608883619308, -0.07073239237070084, 0.0012412829091772437, -0.002033054130151868, -0.05016409605741501, 0.16589872539043427, -0.017501873895525932, -0.03028707578778267, 0.27388325333595276, -0.051171038299798965, 0.2540411353111267, 0.14817748963832855, -0.015778349712491035, 0.10699248313903809, -0.29898524284362793], [-0.08325199037790298, 0.05587434396147728, -3.8458114431705326e-05, 0.018067920580506325, -0.0019435479771345854, 0.09096454828977585, 0.02136901021003723, -0.08865949511528015, 0.006651022005826235, 0.047210995107889175, -0.008773881010711193, 0.002238907152786851, 0.011977559886872768, 0.04822000488638878, 0.020788660272955894, -0.01268017664551735, 0.05160098522901535, -0.01864250935614109, -0.03452296927571297, 0.04219092056155205, -0.013713615015149117, 0.008011968806385994, 0.03532887250185013, -0.009571054950356483, 0.01698753982782364, 0.012118320912122726, 0.0018960668239742517, -0.006979494821280241, 0.04991940036416054, 0.007137082051485777, -0.023666005581617355, -0.006914916448295116, 0.024844644591212273, -0.005530607886612415, -0.03893369808793068, 0.040056053549051285, 0.09305337071418762, -0.004350594710558653, 0.09050576388835907, -0.017962783575057983], [0.00845427718013525, 0.0019601040985435247, 0.0026721996255218983, -0.011202654801309109, -0.00025694971554912627, -0.00674851331859827, 0.017799748107790947, 0.006506463047116995, -0.004903941880911589, 0.0004962533130310476, -0.0079643027856946, -0.0015629255212843418, -0.0013965008547529578, -0.00403491361066699, -0.0029861503280699253, -0.002723685000091791, 0.005452579353004694, -0.0013630905887112021, 0.02014974318444729, -0.0014644686598330736, 0.018520699813961983, -0.0016514150192961097, -0.0021554299164563417, -0.00101190316490829, -0.0034522635396569967, -0.006919810548424721, -0.0114740626886487, -0.005720426794141531, -0.002942922292277217, 0.0007939300849102437, 0.0025577880442142487, 0.020700523629784584, -0.002505216281861067, 0.017053455114364624, 0.004575126338750124, -0.005535217467695475, -0.014391020871698856, -0.0009727658471092582, -0.006385475862771273, -0.000774795189499855], [-0.08765872567892075, 0.07920388132333755, -0.0005345583194866776, 0.0707586333155632, 0.006711576133966446, 0.082006074488163, -0.019066885113716125, -0.1797313243150711, 0.034114815294742584, 0.005423358175903559, 0.026552120223641396, -0.0031622513197362423, 0.018880652263760567, 0.05889737978577614, 0.01821441575884819, -0.03884514793753624, 0.0524703674018383, -0.0019750730134546757, -0.15237648785114288, 0.0625130832195282, -0.07694986462593079, 0.009681801311671734, 0.03766131028532982, 0.012251829728484154, 0.039840321987867355, 0.021544212475419044, 0.01511978730559349, 0.0062153637409210205, 0.045831985771656036, -0.00257254671305418, -0.004952918738126755, -0.09641540795564651, 0.01870052143931389, -0.013075446709990501, -0.03821428120136261, -0.005057116504758596, 0.08437059819698334, -0.005552337504923344, 0.12825939059257507, -0.0024695112369954586], [0.030884839594364166, -0.014091198332607746, 0.00012078449071850628, -0.012947083450853825, -0.009242833591997623, -0.03617454320192337, 0.07803955674171448, 0.007562241517007351, -0.012810785323381424, 0.04450228065252304, -0.027568394318223, -0.002811862388625741, -0.02405531518161297, -0.011494617909193039, -0.005990666337311268, -0.005229913629591465, 0.009161676280200481, -0.008984626270830631, 0.029545782133936882, -0.0002450843167025596, 0.07139037549495697, -0.0013173053739592433, -0.003765806555747986, -0.0007702487637288868, -0.013454530388116837, -0.0269793514162302, -0.026796778663992882, -0.01916336640715599, -0.00954992976039648, -0.0014803835656493902, -0.008942535147070885, 0.0004090331494808197, -0.005171811208128929, 0.05138804018497467, 0.00979965552687645, 0.06011810153722763, -0.03918223828077316, -0.0006654620519839227, -0.02421599067747593, -0.021840708330273628], [0.14359676837921143, 0.16536198556423187, 0.08244030177593231, -0.10326752811670303, 0.07548964768648148, -0.3617449104785919, 0.12491197139024734, 0.10043937712907791, 0.03599177300930023, -0.01822669617831707, 0.005173462443053722, -0.036153532564640045, 0.02430681511759758, -0.039297956973314285, -0.09111803770065308, -0.047108449041843414, -0.05245653912425041, 0.06737861782312393, 0.3109835386276245, -0.06278881430625916, 0.09398958832025528, -0.07409077882766724, -0.08257956802845001, 0.0484464131295681, -0.0027423943392932415, 0.07989741861820221, -0.22475630044937134, -0.03067103773355484, -0.04283452033996582, 0.08009728789329529, 0.0988994687795639, -0.1466333270072937, -0.0767650231719017, 0.028718268498778343, 0.009519103914499283, -0.09922541677951813, -0.005103647708892822, 0.033031705766916275, -0.09844822436571121, 0.10197610408067703], [-0.026839755475521088, -0.23621125519275665, -0.21358859539031982, 0.0053871385753154755, -0.28142911195755005, 0.010893197730183601, 0.16976213455200195, -0.22316183149814606, -0.19907823204994202, 0.39185070991516113, 0.09885945171117783, 0.02254777029156685, -0.0510287880897522, 0.05629387125372887, -0.022551171481609344, -0.10092029720544815, 0.14695797860622406, -0.21547091007232666, 0.17499090731143951, 0.02071993239223957, 0.07991015166044235, 0.07504458725452423, 0.10958138108253479, -0.16984985768795013, -0.1606583297252655, -0.20883774757385254, -0.16023609042167664, -0.004365178756415844, -0.11024680733680725, -0.07201237976551056, -0.12394595891237259, -0.021640270948410034, 0.12827996909618378, 0.2107831835746765, -0.14968201518058777, 0.3189452588558197, -0.006231171078979969, -0.08333196491003036, 0.12098807096481323, -0.1542004495859146], [-0.1527826488018036, -0.10493580996990204, -0.014235159382224083, 0.00272563798353076, -0.037695594131946564, 0.049090221524238586, 0.23242247104644775, -0.1687755286693573, -0.10332031548023224, 0.06494981795549393, -0.14714938402175903, -0.0067570325918495655, 0.04515510052442551, 0.08796054124832153, 0.030777188017964363, -0.1490214318037033, 0.09561967104673386, -0.13701210916042328, -0.06263208389282227, 0.06597866117954254, 0.17982268333435059, 0.014826216734945774, 0.15169969201087952, -0.006430365145206451, -0.04789329320192337, -0.20308886468410492, -0.21587279438972473, -0.09212275594472885, 0.10988488793373108, 0.054264914244413376, -0.11471438407897949, 0.13382725417613983, 0.16024473309516907, 0.2923644781112671, -0.013162226416170597, -0.11624794453382492, 0.013586561195552349, -0.07812429219484329, 0.16071350872516632, -0.16457752883434296], [-0.06901336461305618, 0.0763302743434906, 0.017406901344656944, 1.0276219844818115, 0.5006890296936035, -0.15841177105903625, 0.14299698173999786, -0.5946232080459595, -0.03809800744056702, 0.022915707901120186, -0.37448355555534363, -0.028306609019637108, -0.06440010666847229, -0.012187971733510494, -0.015464365482330322, -0.9908862113952637, -0.2124808430671692, -0.24073942005634308, 0.07675430178642273, 0.1765034943819046, -0.04674086719751358, -0.09915397316217422, 0.06585411727428436, 0.12218887358903885, 0.008940647356212139, 0.10878886282444, -0.2572747766971588, -0.2039792835712433, 0.1113782599568367, 0.1591712236404419, 0.2416859120130539, 0.04939610883593559, 0.35762956738471985, 0.09434984624385834, 0.27057355642318726, -0.20952212810516357, 0.0009301447425968945, -0.08954651653766632, 0.20955634117126465, -0.07884007692337036], [-0.10259818285703659, -0.04771357774734497, -0.12469341605901718, -0.04289635643362999, -0.11523891240358353, 0.05899718776345253, 0.11836378276348114, 0.032235365360975266, -0.09246834367513657, 0.06367712467908859, -0.013954284600913525, -0.00037831856752745807, 0.09908347576856613, 0.07042939960956573, -0.04110126569867134, 0.010030502453446388, 0.01864546723663807, -0.23975449800491333, 0.07442787289619446, 0.13654711842536926, 0.149210587143898, 0.020005466416478157, 0.15016977488994598, -0.04785493388772011, -0.017957132309675217, -0.11149431020021439, -0.06904309242963791, -0.005973726976662874, -0.010521307587623596, 0.008926548063755035, -0.16853274405002594, 0.03815913200378418, 0.1433282494544983, 0.05696409195661545, -0.07640587538480759, -0.3904786705970764, 0.050086673349142075, -0.009357529692351818, 0.14340326189994812, -0.3329019546508789], [-0.2264947146177292, -0.13986362516880035, 0.0317569263279438, -0.03695881739258766, 0.05789723992347717, 0.28011947870254517, -0.04285655543208122, -0.04262479394674301, -0.16381755471229553, -0.0688512772321701, 0.06839296966791153, -0.012331175617873669, -0.01777440495789051, 0.0590645931661129, 0.04036669060587883, 0.005249921232461929, 0.1043548658490181, 0.13058800995349884, -0.09240419417619705, -0.0030333304312080145, -0.2435850203037262, 0.20574402809143066, -0.007959911599755287, -0.051823537796735764, 0.013351542875170708, 0.057457320392131805, 0.1548164188861847, -0.023268233984708786, 0.03736316040158272, -0.13601426780223846, -0.06843450665473938, 0.2539151608943939, 0.007575806695967913, -0.09216316789388657, -0.10270673781633377, 0.012340103276073933, -0.017810093238949776, 0.058740101754665375, 0.014411094598472118, 0.05965104326605797], [0.29228702187538147, 0.1943487524986267, 0.09331829100847244, -0.26966696977615356, 0.06532400101423264, -0.20141151547431946, 0.23332902789115906, 0.12632843852043152, 0.011460009962320328, -0.14441996812820435, -0.06741435080766678, -0.00941221322864294, -0.1290138065814972, -0.16265182197093964, -0.009907601401209831, 0.05231989175081253, -0.28286221623420715, 0.21377062797546387, 0.022993823513388634, -0.1502060443162918, 0.15757200121879578, 0.09479949623346329, -0.1360914260149002, -0.09907267242670059, 0.022712333127856255, 0.20376978814601898, -0.09139927476644516, 0.08775696903467178, -0.09474700689315796, -0.08259007334709167, 0.17255288362503052, -0.05257796496152878, -0.1687282919883728, 0.13744962215423584, 0.15222622454166412, -0.12927037477493286, 0.026389487087726593, 0.14981265366077423, -0.12115796655416489, 0.18871060013771057], [-0.018425894901156425, 0.06170722842216492, 0.13214275240898132, 0.1703568696975708, 0.17633725702762604, 0.07775744795799255, 0.07563024759292603, 0.09069877117872238, -0.005912924651056528, -0.24893267452716827, -0.3017716407775879, -0.029926791787147522, 0.039335791021585464, -0.04844166710972786, -0.0468740351498127, -0.046284280717372894, 0.031810369342565536, 0.10519206523895264, 0.3475833833217621, -0.3159435987472534, 0.08362827450037003, 0.08336136490106583, -0.1286449283361435, 0.1101435199379921, 0.0820513665676117, 0.10161098837852478, -0.07844839990139008, -0.10577128827571869, 0.10888110101222992, 0.019858468323946, 0.03343243524432182, 0.20585882663726807, -0.14698901772499084, 0.11271035671234131, -0.055782049894332886, 0.360645592212677, 0.13150054216384888, -0.005122339352965355, -0.20274147391319275, 0.18007521331310272], [-0.13345085084438324, -0.016213074326515198, -0.04598117992281914, 0.08384411782026291, 0.09379775822162628, 0.0877595916390419, -0.023802828043699265, -0.025855274870991707, 0.03368110954761505, 0.07252702862024307, 0.010166309773921967, -0.02652893401682377, 0.09366441518068314, 0.09345237165689468, -0.0332915261387825, -0.11449364572763443, 0.035814303904771805, -0.03865894302725792, 0.05881240591406822, 0.1057499572634697, 0.09708195179700851, 0.008261362090706825, 0.05839303880929947, 0.11641848832368851, 0.010578751564025879, -0.044764578342437744, -0.01761416532099247, -0.025486446917057037, 0.08276832103729248, 0.008166540414094925, -0.06412731856107712, -0.038837216794490814, 0.06511421501636505, -0.046482667326927185, -0.16808699071407318, 0.10448335111141205, -0.19688618183135986, -0.05900545045733452, 0.07393579930067062, -0.04139842465519905], [0.1347726583480835, 0.16935350000858307, 0.19415339827537537, 0.021996088325977325, 0.026510661467909813, -0.10838855057954788, -0.2199932336807251, -0.19244316220283508, 0.15443545579910278, -0.0011369050480425358, 0.010388982482254505, 0.019130859524011612, -0.09742312133312225, -0.01580657996237278, 0.021175462752580643, -0.03729424253106117, -0.13360156118869781, 0.17326092720031738, -0.0845830962061882, 0.08117359131574631, -0.06271161884069443, -0.05494965240359306, -0.10375066846609116, -0.014970727264881134, 0.02420221082866192, 0.19770203530788422, 0.020513921976089478, -0.003873778274282813, -0.011458163149654865, 0.030641701072454453, 0.2536449730396271, -0.15283922851085663, -0.01676911674439907, -0.2404153048992157, 0.10529320687055588, 0.13191387057304382, 0.08037006855010986, 0.00812269002199173, -0.013991789892315865, 0.17450283467769623], [-0.016308119520545006, -0.0917593464255333, 0.028885142877697945, -0.058710791170597076, 0.06154065951704979, 0.14180722832679749, -0.18702881038188934, 0.021777790039777756, -0.04775482416152954, 0.045339785516262054, 0.1496673822402954, 0.018442189320921898, 0.22226279973983765, 0.04401079937815666, 0.12186918407678604, 0.04694940522313118, 0.13434946537017822, 0.04833836853504181, -0.19499443471431732, 0.010256757959723473, -0.10999155044555664, 0.10934136062860489, -0.05701904743909836, 0.11566873639822006, 0.055273305624723434, -0.1378592848777771, 0.23644709587097168, -0.022339196875691414, 0.10009460151195526, -0.09667173773050308, 0.04085268825292587, 0.024343356490135193, -0.0828760415315628, -0.1437065452337265, -0.207033172249794, 0.09975878149271011, 0.02044534683227539, 0.030503759160637856, -0.01837957836687565, 0.0730547159910202], [0.011067625135183334, -0.03491116315126419, -0.007056924514472485, 0.10307806730270386, -0.013966669328510761, -0.021292589604854584, -0.035536784678697586, -0.02668548747897148, -0.014691373333334923, 0.022447619587183, 0.02080722339451313, 0.01661544293165207, 0.02423189952969551, -0.016705429181456566, 0.0008299470646306872, 0.056509386748075485, 0.06238890066742897, 0.0082328449934721, 0.05159343034029007, 0.0030234733130782843, -0.04845285788178444, 0.009599097073078156, 0.017950525507330894, -0.0025521274656057358, 0.0035257190465927124, 0.0032510324381291866, 0.005695388652384281, 0.004542266018688679, -0.01884857937693596, -0.016225550323724747, -0.033849842846393585, -0.012265840545296669, -0.026439610868692398, 0.0022438708692789078, -0.0007757716230116785, -0.020089127123355865, 0.008030290715396404, 0.0005056168884038925, 0.01580151543021202, 0.0180521123111248], [0.026281168684363365, -0.09082512557506561, 0.06837580353021622, 0.024542471393942833, 0.02293345145881176, 0.012758842669427395, 0.10357905924320221, 0.03224368393421173, -0.053428374230861664, -0.11688264459371567, 0.00727483443915844, -0.01846599206328392, 0.0546979159116745, -0.05248477682471275, 0.023067032918334007, -0.07177232950925827, 0.25257599353790283, -0.07869363576173782, -0.06333163380622864, -0.014463747851550579, -0.050359100103378296, -0.06360124796628952, 0.04956234246492386, -0.09408791363239288, -0.023480961099267006, -0.03281019255518913, 0.01268146000802517, 0.036754388362169266, -0.0799761563539505, -0.02120284177362919, -0.02180430106818676, -0.12326990067958832, 0.012109781615436077, -0.018615880981087685, 0.002850766759365797, -0.1396355926990509, -0.11274973303079605, -0.10462276637554169, -0.05997949466109276, -0.14638037979602814], [-0.10994144529104233, -0.01621224544942379, 0.01713315024971962, -0.004793653264641762, -0.05368237569928169, 0.09130536019802094, -0.09704921394586563, 0.0032098195515573025, -0.06951574236154556, 0.07207923382520676, 0.10225366801023483, 0.01590927690267563, -0.11238259077072144, -0.052482619881629944, 0.07613678276538849, 0.01749878190457821, -0.0643569603562355, 0.07506667077541351, -0.1728411465883255, -0.01898643933236599, -0.2466641068458557, 0.059549108147621155, 0.01629866473376751, -0.02326911874115467, -0.03842896223068237, -0.0244588740170002, 0.124729685485363, 0.056158483028411865, -0.09789329022169113, -0.07350948452949524, 0.07945659756660461, 0.10725384205579758, -0.03887631371617317, -0.15858031809329987, -0.026818078011274338, -0.0086445277556777, -0.02124522626399994, -0.006190423388034105, -0.025451308116316795, -0.024882471188902855], [-0.2349320501089096, 0.04412547126412392, 0.13047821819782257, 0.0006921528256498277, 0.04389110580086708, 0.19741539657115936, -0.07154873013496399, 0.013629944995045662, -0.05215854197740555, 0.058220311999320984, -0.1462744027376175, -0.024546686559915543, 0.10095566511154175, 0.06926047056913376, -0.041198115795850754, -0.004809561185538769, -0.08171000331640244, -0.07554183155298233, -0.1518809199333191, 0.01385191734880209, -0.10402245819568634, 0.12479718774557114, 0.046577148139476776, -0.07647870481014252, 0.016353322193026543, -0.06525371223688126, -0.094203419983387, -0.12993992865085602, 0.07687979936599731, 0.05695716291666031, 0.030810847878456116, 0.015494958497583866, -0.030190154910087585, 0.0526936836540699, -0.11742009222507477, -0.009215429425239563, 0.003226418048143387, -0.03152403607964516, 0.02739141322672367, -0.03983369469642639], [0.10149112343788147, -0.18297411501407623, 0.30812034010887146, 0.11000613123178482, 0.14800114929676056, -0.08611571043729782, -0.1346319317817688, -0.025022832676768303, 0.07659103721380234, -0.09920080006122589, 0.053738951683044434, -0.010940498672425747, 0.09957336634397507, -0.05545898154377937, 0.19772103428840637, -0.04366188496351242, -0.12139932066202164, 0.2817169725894928, 0.047952793538570404, -0.214948832988739, -0.2923148572444916, 0.08854733407497406, -0.3382281959056854, -0.00981985405087471, 0.05003202334046364, -0.1051240861415863, 0.2102225422859192, -0.08988422900438309, -0.09548397362232208, -0.05567463859915733, 0.29075533151626587, 0.016085363924503326, -0.22035948932170868, -0.23144297301769257, -0.0774206668138504, 0.6338664889335632, 0.05323345959186554, 0.0027941118460148573, -0.2893865406513214, 0.3864642381668091], [-0.12718486785888672, -0.05469276010990143, 0.018058765679597855, -0.02848278358578682, -0.016771258786320686, 0.2533969283103943, -0.05797946825623512, 0.11529911309480667, -0.006007684860378504, -0.062326058745384216, 0.06922037899494171, -0.005885081831365824, -0.08877376466989517, 0.1137239933013916, 0.06760340183973312, -0.011740180663764477, 0.09221510589122772, 0.05571699142456055, -0.1494806408882141, -0.06164751201868057, -0.049280472099781036, -0.049379847943782806, -0.07787830382585526, -0.005675935186445713, -0.08281213790178299, -0.015211827121675014, 0.1310589611530304, 0.12800784409046173, 0.052360787987709045, -0.013586833141744137, 0.03419923037290573, 0.3584054708480835, 0.017169563099741936, -0.09306827187538147, -0.0770312249660492, 0.09728210419416428, 0.04978858679533005, 0.055432405322790146, -0.12646479904651642, 0.04376298934221268], [-0.11778077483177185, 0.01748778484761715, -0.010969556868076324, 0.25231194496154785, 0.08517720550298691, 0.07897213101387024, 0.13587984442710876, 0.07758328318595886, -0.07324443012475967, 0.07062996178865433, -0.14186689257621765, -0.010631359182298183, 0.1355728656053543, 0.04997758939862251, -0.06058959290385246, -0.14000475406646729, 0.14117702841758728, -0.17413386702537537, 0.13964620232582092, 0.05829983949661255, 0.06956401467323303, 0.0882662907242775, 0.11570610105991364, 0.07217712700366974, 0.03033185377717018, -0.1306023895740509, -0.10712873935699463, -0.10390199720859528, 0.10418104380369186, 0.06552094221115112, -0.09560833871364594, 0.10971397161483765, 0.10432085394859314, 0.13334307074546814, -0.07864508777856827, -0.0796029195189476, 0.052870552986860275, -0.08761559426784515, 0.07871025800704956, -0.16487301886081696], [0.054699115455150604, -0.390076220035553, -0.08898480981588364, 0.24110108613967896, -0.02211225964128971, -0.02751024253666401, 0.19986946880817413, 0.1288105845451355, -0.12392982095479965, 0.21511788666248322, 0.06204567477107048, 0.007224537897855043, -0.07046299427747726, 0.008793472312390804, -0.00592686515301466, -0.031645603477954865, 0.0964975357055664, -0.11486879736185074, 0.15642870962619781, -0.03019469603896141, 0.1762777417898178, 0.019825976341962814, -0.10104135423898697, 0.05730083957314491, -0.09609989821910858, -0.3170573115348816, -0.23929688334465027, -0.1790386438369751, -0.0740058645606041, -0.1361929476261139, 0.00021938220015726984, 0.15153078734874725, -0.036123380064964294, 0.15851132571697235, -0.05302796885371208, 0.054799288511276245, -0.31417983770370483, 0.003376167034730315, -0.12064183503389359, -0.0799124464392662], [0.1567511111497879, 0.09210284799337387, 0.08792413771152496, -0.19461682438850403, 0.024579480290412903, -0.1582929641008377, -0.1354680210351944, -0.2099641114473343, 0.12094180285930634, -0.10646125674247742, 0.15775729715824127, 0.06168017536401749, -0.14147596061229706, -0.08654683083295822, 0.10878463834524155, -0.0041956594213843346, -0.16530567407608032, 0.18396638333797455, -0.2082596868276596, -0.06320955604314804, -0.13497328758239746, -0.10430535674095154, -0.08288997411727905, -0.08169680833816528, -0.018433857709169388, 0.1523524522781372, 0.09962475299835205, 0.13647718727588654, -0.13117621839046478, -0.08028317987918854, 0.1274707317352295, -0.21422800421714783, -0.04815824702382088, -0.18700526654720306, 0.144581139087677, -0.14030568301677704, -0.19037818908691406, 0.08431896567344666, 0.0005539702833630145, 0.13431678712368011], [0.24550029635429382, 0.15809020400047302, 0.12560972571372986, -0.3086200952529907, 0.05112136900424957, -0.18063730001449585, 0.16267460584640503, 0.17690138518810272, 0.08513477444648743, -0.21154624223709106, -0.1421036422252655, 0.015048382803797722, -0.11545029282569885, -0.20040234923362732, 0.002029505092650652, 0.07985629886388779, 0.055754780769348145, 0.2445823848247528, 0.2564222514629364, -0.21294298768043518, 0.2726792097091675, -0.1371770203113556, -0.16864877939224243, -0.06719735264778137, -0.05676773190498352, 0.19456757605075836, 0.028444578871130943, 0.05278699845075607, -0.13384060561656952, -0.10838214308023453, 0.09514011442661285, 0.06272836774587631, -0.20516711473464966, 0.10962900519371033, 0.14116302132606506, 0.027053160592913628, 0.06690733879804611, -0.06976223737001419, -0.17934970557689667, 0.28734102845191956], [-0.09765231609344482, -0.012023992836475372, 0.03945698216557503, 0.1060369536280632, -0.019733620807528496, 0.08619790524244308, -0.01437026634812355, 0.10514355450868607, -0.005050338339060545, -0.06059637293219566, 0.04597276449203491, 0.022195199504494667, 0.015838777646422386, -0.02845422364771366, -0.013189828023314476, 0.017949862405657768, -0.07816293835639954, 0.0898764356970787, -0.065425343811512, -0.11313507705926895, -0.14800572395324707, 0.05864539369940758, -0.0017144365701824427, 0.011405793018639088, 0.042945344001054764, 0.007582475431263447, 0.02949695847928524, 0.03360169380903244, 0.05630043148994446, -0.05812062695622444, 0.031389299780130386, 0.23057228326797485, -0.08693679422140121, 0.01705513894557953, 0.012839839793741703, 0.010866393335163593, 0.02832307294011116, 0.05693770572543144, -0.06839573383331299, 0.08619511127471924], [0.14977452158927917, -0.08019725233316422, -0.01000733207911253, -0.08225937932729721, -0.0029236909467726946, -0.12323956936597824, -0.1448642611503601, -0.06182590126991272, 0.056070875376462936, -0.027439024299383163, 0.16218483448028564, 0.007763580419123173, -0.08654920011758804, 0.0024630764964967966, 0.10487665235996246, 0.033156562596559525, -0.17798152565956116, 0.07779591530561447, -0.1407552808523178, 0.02784707397222519, -0.14583495259284973, -0.06893709301948547, -0.11266165971755981, -0.014897853136062622, -0.008775409311056137, 0.09257512539625168, 0.10429809987545013, 0.13459956645965576, -0.051806703209877014, -0.07236387580633163, 0.05726847052574158, -0.25690749287605286, -0.020028894767165184, -0.14823018014431, 0.0872526690363884, 0.15226028859615326, -0.025860553607344627, 0.04386530816555023, 0.009438146837055683, 0.14584288001060486], [0.02218380756676197, -0.024150773882865906, -0.03174308314919472, 0.06199173256754875, 0.022075369954109192, 0.14374595880508423, -0.008320405147969723, 0.029964545741677284, 0.17147338390350342, -0.011735913343727589, 0.07657664269208908, -0.005822109989821911, 0.07597692310810089, 0.010682961903512478, -0.07347899675369263, -0.08678167313337326, 0.12987059354782104, -0.041897304356098175, 0.11818785965442657, 0.046039994806051254, 0.05538392812013626, 0.030046705156564713, 0.038773588836193085, 0.03595021739602089, -0.022963641211390495, 0.00020068783487658948, 0.016660990193486214, 0.0522078201174736, 0.03709103539586067, 0.014779611490666866, -0.028388572856783867, 0.08958667516708374, 0.023295467719435692, -0.1028173491358757, -0.016459118574857712, 0.032505642622709274, -0.2658737599849701, 0.007124355528503656, 0.00027404382126405835, -0.042539097368717194], [-0.01471198070794344, -0.059949565678834915, -0.0025194480549544096, 0.09165981411933899, -0.011519406922161579, 0.05440058931708336, 0.052454832941293716, -0.025314396247267723, -0.020246101543307304, -0.04392722621560097, 0.024059193208813667, 0.0019822625909000635, 0.09918063133955002, -0.008140032179653645, -0.020952431485056877, 0.03822039067745209, 0.18592791259288788, -0.09607554227113724, -0.1058710366487503, 0.04589133709669113, -0.03308262676000595, 0.005587951745837927, 0.08760657906532288, -0.0049222675152122974, -0.01567782647907734, -0.07472772151231766, 0.045485854148864746, -0.07568439096212387, -0.016574596986174583, -0.0035822740755975246, -0.11857537925243378, 0.07441838085651398, 0.010133865289390087, -0.02337704971432686, -0.04998603090643883, -0.0663624107837677, -0.09574577212333679, -0.043791644275188446, 0.023629087954759598, -0.11909329891204834], [-0.15251852571964264, -0.005624926183372736, -0.05875435099005699, 0.1269112378358841, 0.0012266995618119836, 0.10808805376291275, -0.032516803592443466, -0.12956495583057404, -0.013264063745737076, 0.056402403861284256, -0.0045613134279847145, -0.006528288591653109, 0.046963151544332504, 0.14350001513957977, -0.030432812869548798, 0.011208814568817616, 0.0374051071703434, -0.07873315364122391, 0.18213775753974915, 0.1051899716258049, 0.09430746734142303, 0.03784826025366783, 0.08491746336221695, 0.038514815270900726, 0.01655096933245659, -0.005414064507931471, 0.03047017753124237, 0.04090229421854019, 0.13824713230133057, 0.030507942661643028, -0.12604625523090363, -0.01877695694565773, 0.12044108659029007, 0.07107751071453094, -0.13344353437423706, 0.03881259262561798, 0.10659536719322205, -0.030369654297828674, 0.15974600613117218, -0.09239968657493591], [-0.30684736371040344, 0.14225518703460693, -0.0087722884491086, 0.14962400496006012, 0.17395083606243134, 0.14647354185581207, -0.21248874068260193, -0.12935574352741241, -0.05089437961578369, 0.1546206772327423, -0.04486372321844101, -0.07283179461956024, 0.14827784895896912, 0.18693438172340393, -0.07547347992658615, -0.21919946372509003, 0.15693894028663635, -0.18701957166194916, -0.13204506039619446, 0.18600720167160034, -0.002717073541134596, 0.03633341193199158, 0.0604938380420208, 0.08479036390781403, -0.03963305801153183, -0.08202457427978516, -0.0111587168648839, -0.1115981712937355, 0.13151869177818298, 0.09881552308797836, -0.008225525729358196, 0.04432354494929314, 0.15039904415607452, -0.06305379420518875, -0.2055697739124298, 0.15154455602169037, 0.1868915855884552, -0.13806813955307007, 0.16867361962795258, -0.11222406476736069], [-0.20763078331947327, -0.06928728520870209, -0.02137528546154499, -0.06838946044445038, 0.07098811119794846, 0.07300060987472534, -0.13281802833080292, -0.008752451278269291, -0.06361076980829239, 0.11546305567026138, -0.051925331354141235, -0.041743725538253784, 0.10267609357833862, 0.1342478096485138, -0.013577450066804886, 0.023172713816165924, -0.12836317718029022, -0.06939651817083359, -0.05842725932598114, 0.0952681452035904, -0.012007039971649647, 0.14201946556568146, 0.06087089702486992, 0.05417793616652489, 0.0023042645771056414, -0.03785969689488411, 0.04963520169258118, 0.00817781314253807, 0.1154591515660286, 0.06364978849887848, -0.12289417535066605, 0.018819231539964676, 0.06664959341287613, 0.07169914990663528, -0.11211446672677994, 0.26488783955574036, 0.12213286012411118, -0.03451152890920639, 0.08052696287631989, -0.07740453630685806], [-0.07851015031337738, -0.013535363599658012, -0.0003819122794084251, 0.02819463610649109, -0.05212873965501785, 0.12456824630498886, 0.0440605990588665, -0.041305627673864365, 0.03516237437725067, 0.0650443434715271, 0.11181511729955673, 0.012089034542441368, -0.030975300818681717, 0.02836855687201023, 0.07347094267606735, 0.030467906966805458, 0.06828640401363373, -0.00950732920318842, -0.0713946744799614, 0.03770766407251358, -0.16906088590621948, 0.057692717760801315, 0.029033785685896873, 0.004811987280845642, -0.03839419037103653, -0.030529052019119263, 0.008597701787948608, -0.01948714628815651, 