{"model_data": {"model": "SimpleRNN", "input_size": 1, "skip": 1, "output_size": 1, "unit_type": "LSTM", "num_layers": 1, "hidden_size": 40, "bias_fl": true}, "state_dict": {"rec.weight_ih_l0": [[0.07453293353319168], [0.053428538143634796], [-0.3141482472419739], [0.03902300447225571], [-0.3760615885257721], [0.03846212103962898], [0.04758685454726219], [0.0005689936224371195], [-0.4719361960887909], [0.0828956663608551], [0.04043421894311905], [0.0004575640778057277], [-0.06749748438596725], [0.025908062234520912], [0.3212240934371948], [-0.011875535361468792], [-0.0025168280117213726], [0.03192394599318504], [0.22824929654598236], [-0.03769826516509056], [0.04979469254612923], [-0.1475384682416916], [0.17175765335559845], [0.3937978446483612], [0.5582739114761353], [-0.43716520071029663], [0.15465258061885834], [0.001242297119461], [0.16462180018424988], [0.0025974272284656763], [0.01067984290421009], [-0.01965198665857315], [0.25693240761756897], [-0.009723195806145668], [-0.15060777962207794], [-0.012863158248364925], [-0.21993479132652283], [-0.4910232126712799], [0.1030181422829628], [0.19130055606365204], [0.04083959013223648], [0.03390960022807121], [-0.4934951364994049], [0.026971111074090004], [-0.515740156173706], [0.015485829673707485], [0.11394898593425751], [0.00034998662886209786], [0.08255945146083832], [0.06437379866838455], [0.024593129754066467], [0.00045871647307649255], [-0.051981259137392044], [0.013929503969848156], [0.3949079215526581], [-0.010462932288646698], [-0.0037145642563700676], [0.017280476167798042], [0.23334725201129913], [-0.03789351508021355], [0.029690375551581383], [-0.1699904203414917], [0.09531166404485703], [0.31282222270965576], [0.6253935694694519], [-0.2008921355009079], [0.09542305022478104], [-0.0005649935337714851], [0.12441766262054443], [0.0011810900177806616], [0.002736648777499795], [-0.01662551425397396], [0.4153074622154236], [-0.022994961589574814], [-0.25468873977661133], [-0.011561127379536629], [-0.27793800830841064], [-0.4870840609073639], [-0.0924152210354805], [0.1276157945394516], [0.2754315435886383], [0.4081401228904724], [-0.8900203704833984], [-0.5243290662765503], [0.830390453338623], [-0.3978477418422699], [-0.8214040994644165], [-0.019537348300218582], [-0.5066091418266296], [0.11805711686611176], [-0.8949854373931885], [-0.004143565893173218], [-0.009366634301841259], [-0.1087643951177597], [-0.3440808355808258], [-0.16627496480941772], [-0.20233240723609924], [-0.12923584878444672], [-0.31974175572395325], [-0.6707425117492676], [-0.5211285948753357], [-0.5865784287452698], [0.7937886118888855], [-0.9254929423332214], [0.3914664089679718], [-0.8001919984817505], [0.5615637302398682], [0.028699252754449844], [0.6725926995277405], [0.10253837704658508], [-0.22727307677268982], [-0.2857913672924042], [-1.1521583795547485], [-0.022458113729953766], [-0.9164794683456421], [-0.36188820004463196], [0.6333291530609131], [0.9131245613098145], [-0.5141626000404358], [-0.6383085250854492], [0.09321469813585281], [0.06828848272562027], [-0.559164822101593], [0.051667843014001846], [-0.6373369097709656], [0.04806165769696236], [-0.10592281073331833], [0.0005710165714845061], [0.04638286679983139], [0.14650213718414307], [0.0733388215303421], [0.00045516531099565327], [-0.06418170779943466], [0.030382029712200165], [0.43062713742256165], [-0.013988682068884373], [-0.0010762722231447697], [0.039170198142528534], [0.3306627571582794], [-0.041367098689079285], [0.05801786854863167], [-0.19373536109924316], [0.1576400250196457], [0.4304230809211731], [0.804679274559021], [-0.4504811763763428], [0.19051285088062286], [0.002237014938145876], [0.2041579782962799], [0.0031960236374288797], [0.01573496311903], [-0.016889525577425957], [0.3761036992073059], [-0.0017776308814063668], [-0.21307472884655], [-0.009208118543028831], [-0.3824938237667084], [-0.5774350762367249], [-0.059379469603300095], [0.23589032888412476]], "rec.weight_hh_l0": [[0.009951001964509487, 0.011008623987436295, -0.018551276996731758, -0.0054274373687803745, -0.008591868914663792, -0.008245324715971947, -0.009752009995281696, 6.99439988238737e-05, 0.019620763137936592, 0.0038017998449504375, -0.015702364966273308, -0.0006311142933554947, -0.0035985244903713465, -0.00442404393106699, -0.01617496833205223, -0.0025715737137943506, -0.0026709854137152433, -0.008713274262845516, -0.0071646468713879585, -0.008567542769014835, -0.006540220230817795, -0.006395278032869101, 0.008855043910443783, -0.03586278110742569, 0.023682614788413048, 0.0022261780686676502, 0.00942735280841589, 0.0002505031006876379, 0.015510141849517822, 0.0018784748390316963, -0.0051776389591395855, -0.004960116930305958, -0.02577287331223488, -0.004101156257092953, -0.005289879161864519, -0.0035777504090219736, 0.00887050200253725, -0.006930059287697077, -0.008140623569488525, -0.010845288634300232], [0.009589099325239658, 0.012631972320377827, -0.009458260610699654, -0.0038267280906438828, -0.012732119299471378, -0.006445546634495258, 0.00059060676721856, 0.0003255844349041581, 0.036995213478803635, 5.43575115443673e-05, -0.013464593328535557, -0.0003402393776923418, -0.0024234734009951353, -0.0037266125436872244, -0.007291669957339764, -0.0024024343583732843, -0.003222621977329254, -0.010523243807256222, 0.0012529355008155107, -0.007429481018334627, -0.0076282271184027195, -0.0048736874014139175, 0.003445006674155593, -0.02557392045855522, 0.015448035672307014, 0.007457410451024771, 0.006136753596365452, 6.26122418907471e-05, 0.015408504754304886, 0.0024794726632535458, -0.005813712254166603, -0.004161552060395479, -0.02229762263596058, -0.0052458615973591805, -0.0027505913749337196, -0.00267465366050601, 0.008919905871152878, -0.01097263116389513, -0.0054894862696528435, -0.009616024792194366], [0.06195881962776184, 0.03862914815545082, -0.20222048461437225, 0.04586834833025932, -0.054114677011966705, -0.011698748916387558, 0.02957756631076336, -0.010316995903849602, -0.15904492139816284, 0.17009040713310242, -0.07175816595554352, -0.003801879705861211, 0.13294938206672668, -0.01319143082946539, -0.19067753851413727, 0.009544075466692448, -0.02742992900311947, -0.03214271366596222, -0.23933875560760498, 0.008062114007771015, -0.05858997255563736, -0.037996891885995865, 0.06184399873018265, 0.08269795030355453, 0.2246542125940323, 0.22333747148513794, 0.1138072982430458, 0.002382110571488738, 0.07692212611436844, 0.01509514357894659, -0.02488229237496853, -0.03770148754119873, -0.10535319894552231, -0.0034127177204936743, 0.04308579862117767, -0.04071572422981262, 0.002827615709975362, 0.08185135573148727, -0.04808034002780914, -0.10938932746648788], [0.012734456919133663, 0.013719383627176285, -0.0012980465544387698, -0.010174889117479324, -0.0464148223400116, -0.007037445902824402, -0.011759734712541103, 0.0003917104913853109, 0.0011557687539607286, 0.0012994887074455619, -0.02161111682653427, 0.0008594165556132793, -0.003377915360033512, -0.003334550652652979, -0.014310594648122787, -0.0025439513847231865, -0.0014216650743037462, -0.013844362460076809, 0.005993844475597143, -0.005109619349241257, -0.006162931211292744, 0.0027187811210751534, 0.0005205434281378984, -0.03575155511498451, 0.0243490282446146, -0.014190193265676498, 0.004148898180574179, 0.0025919948238879442, 0.015190369449555874, 0.0013794550905004144, -0.00765235535800457, -0.0014140271814540029, -0.038009341806173325, -0.005471025127917528, 0.00016100035281851888, -0.005712700076401234, -0.007897007279098034, 0.0018001209245994687, 0.004018207546323538, -0.008679685182869434], [-0.005467603914439678, -0.006840202026069164, 0.07859638333320618, 0.030803313478827477, -0.3132738769054413, 0.058787040412425995, 0.03889472410082817, 0.003967373166233301, 0.1507681906223297, -0.044922180473804474, 0.05490687116980553, 0.003930926322937012, -0.06497407704591751, 0.013676119036972523, 0.05143902450799942, 0.02758861891925335, 0.02389548346400261, -0.01668647862970829, 0.07547033578157425, 0.08622940629720688, 0.05311693251132965, 0.14251966774463654, -0.06870047003030777, 0.014807544648647308, -0.0142217380926013, 0.24143730103969574, -0.044842205941677094, 0.00469617173075676, -0.04241557791829109, -0.011926790699362755, 0.011695371009409428, 0.057080961763858795, -0.00043891355744563043, -0.08619214594364166, 0.1670193076133728, 0.03514072671532631, -0.12953157722949982, -0.28660938143730164, 0.018371298909187317, 0.03952544555068016], [0.01084817387163639, 0.009172736667096615, -0.011112239211797714, -0.0033444464206695557, -0.045675937086343765, -0.002333266893401742, -0.0008995173266157508, 0.0005421724054031074, 0.029181884601712227, 0.00873610284179449, -0.006267752032727003, 0.0002919169783126563, 0.0033386379946023226, -0.003724504727870226, -0.024149874225258827, 0.0013240859843790531, 0.0007774774567224085, -0.012444619089365005, -0.016780873760581017, 0.0016690246993675828, 0.0025701161939650774, 0.010954558849334717, 0.011557248421013355, -0.05365341529250145, 0.03837445378303528, 0.02733232080936432, 0.007707925979048014, 0.0010884384391829371, 0.0127656115218997, 0.0008883346454240382, -0.003895561210811138, 0.002818459877744317, -0.029308807104825974, -0.01301839854568243, 0.013284456916153431, -3.8056114135542884e-05, -0.013260823674499989, -0.0431738905608654, -0.003613128326833248, -0.008651744574308395], [-0.1384216845035553, -0.006770663429051638, -1.2083004713058472, -0.2751859128475189, -0.4661541283130646, 0.03387857601046562, 0.16338147222995758, -0.0035373398568481207, -0.19500775635242462, -0.5004796981811523, 0.06433746963739395, 0.002742151031270623, -0.7781942486763, 0.18034911155700684, 0.18117506802082062, -0.3364362120628357, -0.04050976410508156, 0.03659961372613907, 0.8771654963493347, 0.06858018785715103, -0.0770927146077156, 0.09841963648796082, -0.5883111357688904, -0.6596681475639343, -0.10969505459070206, -0.41944876313209534, 0.0535113587975502, -0.04638853296637535, 0.0642106905579567, 0.020036747679114342, 0.00327322562225163, -0.020495513454079628, -0.026779919862747192, 0.11544238030910492, -0.23390072584152222, 0.038320716470479965, 0.09777624160051346, -0.3686634302139282, 0.023315563797950745, -0.063898965716362], [0.00011827092384919524, 1.4217035641195253e-05, -0.003854918759316206, -0.0003278095100540668, -0.0008457227377220988, -0.00010593445767881349, -0.0009900798322632909, 1.3518405467038974e-05, 0.00022515672026202083, -0.00034764810698106885, -0.00021688123524654657, -4.941457063978305e-06, -0.0020907095167785883, -4.401119440444745e-05, -0.00019712906214408576, -0.00018537472351454198, -2.2515852833748795e-05, -3.721066968864761e-05, 0.002620318438857794, -0.00012937239080201834, -7.173627818701789e-05, -6.842476432211697e-05, -0.0006071330863051116, -0.0021061443258076906, 0.0002489121980033815, -0.00013573034084402025, 0.00012951414100825787, 8.498965371472877e-07, 0.00016958531341515481, 1.1607056876528077e-05, -1.7609605492907576e-05, -6.765024591004476e-05, -0.0002822476380970329, -8.503634307999164e-05, -7.145941344788298e-05, -4.8943278670776635e-05, 5.357692134566605e-05, -0.00013315417163539678, -8.205532503779978e-05, -0.00011777691543102264], [-0.06680076569318771, -0.046731796115636826, -0.30598628520965576, -0.22218719124794006, 0.10700294375419617, 0.058403130620718, 0.09349406510591507, 0.003542168764397502, -0.05975237488746643, -0.23293954133987427, 0.1087467148900032, -0.0004414937866386026, -0.2233045995235443, 0.08625662326812744, 0.1478787660598755, -0.12980014085769653, -0.0020150269847363234, 0.04350925609469414, 0.1679724007844925, 0.024527709931135178, 0.049526605755090714, 0.02149772457778454, -0.09984757751226425, -0.06549898535013199, -0.14371244609355927, -2.6023801183328032e-05, -0.06373036652803421, -0.018235009163618088, -0.10260052233934402, -0.005321519449353218, 0.033881839364767075, 0.008583905175328255, 0.2149149477481842, 0.06205916032195091, 0.06367116421461105, 0.010552811436355114, 0.027497483417391777, -0.0240972600877285, 0.01350338477641344, 0.06670748442411423], [0.005249320529401302, 0.0036553016398102045, -0.026502499356865883, -0.018752368167042732, -0.0069173118099570274, -0.005984101444482803, -0.005178751423954964, -0.0003165563684888184, -0.018409261479973793, 0.0031502076890319586, -0.014752154238522053, -0.00030490141944028437, -0.006067849695682526, -0.0029476650524884462, -0.029019447043538094, -0.0014458904042840004, -0.0004336899728514254, -0.001971705351024866, -0.007974895648658276, -0.003660134505480528, -0.0065491595305502415, -0.0017406601691618562, 0.008031588979065418, -0.041213296353816986, 0.03663632273674011, 0.00045631214743480086, 0.009748860262334347, -0.0004167886800132692, 0.00949876569211483, 0.00014239536540117115, -0.0011271694675087929, -0.0031691149342805147, -0.027740146964788437, 0.002380665857344866, -0.0040089646354317665, -0.002561402041465044, -0.006394932046532631, 0.0006535769789479673, -0.0017940574325621128, -0.009292581118643284], [0.030515536665916443, 0.025404393672943115, 0.062084756791591644, -0.0008468804298900068, -0.10977410525083542, -0.011170735582709312, 0.033200811594724655, 0.0032087957952171564, 0.04289865121245384, 0.015995752066373825, -0.011750129982829094, 0.0015561067266389728, 0.042565397918224335, -0.013209337368607521, -0.0625968724489212, 0.005428209900856018, -0.00024163049238268286, -0.03179261088371277, -0.050988711416721344, 0.005731484387069941, -0.0025696216616779566, 0.031060315668582916, 0.007776896934956312, -0.08717337250709534, 0.10552391409873962, 0.07527251541614532, 0.01769636757671833, 0.0031924161594361067, 0.031528033316135406, 0.00640112766996026, -0.014542593620717525, 0.0038088199216872454, -0.0685741975903511, -0.036321766674518585, 0.041574787348508835, 0.0007729957578703761, -0.04154947027564049, -0.09902491420507431, -0.008838081732392311, -0.025478292256593704], [1.537265779916197e-05, 4.763157630804926e-05, -0.0016449171816930175, -0.00018542091129347682, -0.00044342337059788406, -1.6894906366360374e-05, -0.0004787469224538654, 1.156015059677884e-05, -5.596037226496264e-05, -0.00022829357476439327, -3.870067303068936e-05, -4.99810403198353e-06, -0.0010561475064605474, 6.349601790134329e-06, -4.84126248920802e-05, -0.0001154941346612759, -2.283615685882978e-05, -1.6149348084582016e-05, 0.001136926468461752, -8.80420884641353e-06, -8.564900053897873e-05, 3.963415656471625e-05, -0.0003082689072471112, -0.0010127231944352388, 0.00010520564683247358, -0.00018109568918589503, 7.015415758360177e-05, 1.88657249964308e-05, 0.00013528962153941393, 3.630874516602489e-06, -1.9025032088393345e-05, -2.113309619744541e-06, -9.494115511188284e-05, -1.4402472515939735e-05, -3.866728729917668e-05, -4.3019822442147415e-06, -7.255230593727902e-05, -5.414524275693111e-05, -1.479253751313081e-05, -0.0001068936544470489], [-0.004408546257764101, -0.0021299661602824926, 0.019401418045163155, 0.0009232582524418831, -0.020555470138788223, 0.006020129192620516, 0.040393609553575516, -0.0013547416310757399, -0.0035819404292851686, -0.001650733407586813, 0.002876430284231901, -0.001974709564819932, -0.0063820877112448215, 0.004496815148741007, 0.0019620824605226517, -0.0009238562197424471, 0.0012411792995408177, 0.004774927161633968, -0.0005497366655617952, 0.010612010024487972, -0.0011246559442952275, 0.013065509498119354, -0.006921956781297922, 0.010953039862215519, 0.005168068688362837, 0.03401586413383484, -0.00015353719936683774, -0.0013959755888208747, 0.000784264353569597, -0.00038883090019226074, 0.00268791732378304, 0.003675767919048667, -0.008126073516905308, -0.0018417371902614832, 0.015681305900216103, 0.0043535553850233555, -0.018027184531092644, -0.027987580746412277, 0.000636989832855761, -0.002784271724522114], [0.0038883574306964874, 0.0037905285134911537, -0.012507487088441849, -0.0021403958089649677, -0.0022702342830598354, -0.0036558459978550673, -0.005334813147783279, 2.0458581275306642e-05, 0.0025402556639164686, 0.002459054347127676, -0.006321839522570372, -8.198819705285132e-05, -0.0031888813246041536, -0.0012884903699159622, -0.007404719479382038, -0.0007532904855906963, -0.0008084606379270554, -0.0038287381175905466, -0.002459682058542967, -0.0033068880438804626, -0.0029805158264935017, -0.002993230475112796, 0.004432365298271179, -0.014863882213830948, 0.009372291155159473, -0.0013251599157229066, 0.004171139094978571, 0.0002981592551805079, 0.007595967035740614, 0.0006146015948615968, -0.0019841413013637066, -0.0018804300343617797, -0.009255730547010899, -0.0018316939240321517, -0.002063618740066886, -0.0011923597194254398, 0.0028099054470658302, -0.0009961005998775363, -0.001492717768996954, -0.005074673797935247], [0.04068153351545334, 0.0282487440854311, -0.05526558682322502, -0.02571636438369751, 0.002305500442162156, -0.04662435129284859, -0.029670922085642815, -0.0006068869261071086, -0.009697356261312962, 0.06221964955329895, -0.06402637809515, -0.0007533535244874656, 0.002959698671475053, -0.017605263739824295, -0.12355011701583862, -0.007557488977909088, -0.011146921664476395, -0.022566737607121468, -0.09515397995710373, -0.040303926914930344, -0.03285013511776924, -0.03475754335522652, 0.07287925481796265, -0.16942286491394043, 0.1377314329147339, 0.01793544366955757, 0.060274966061115265, 0.005011999513953924, 0.06739074736833572, 0.006613615900278091, -0.015547863207757473, -0.023086803033947945, -0.10500559210777283, -0.011095741763710976, -0.02835872955620289, -0.017300184816122055, 0.022582201287150383, 0.011215695179998875, -0.023320581763982773, -0.053436342626810074], [0.0007363292970694602, 0.0011293463176116347, -0.0060594831593334675, 0.0008207819773815572, -0.015319006517529488, 0.002026292495429516, 0.002212054096162319, 3.90895402233582e-05, 0.010204296559095383, -0.00044235115638002753, 0.0012240628711879253, 0.0001582465774845332, -0.0012322950642555952, 0.00015769689343869686, 0.0025401031598448753, 0.0008983250590972602, 0.0005227676592767239, -0.002177725313231349, 0.0033696917816996574, 0.002646115142852068, 0.0019622845575213432, 0.005101676564663649, -0.001092510879971087, -0.0029570828191936016, 0.00023058694205246866, 0.009941746480762959, -0.0017436998896300793, 0.0003111663390882313, -0.000330167735228315, -3.631845174822956e-05, -0.0004195211222395301, 0.0019500640919432044, -0.00218559498898685, -0.003329712897539139, 0.0058202072978019714, 0.0007008136017248034, -0.0054463609121739864, -0.012794170528650284, 0.00021084955369587988, 0.001350703532807529], [0.0017893228214234114, 0.0007646566373296082, -0.004254741128534079, -2.4773151380941272e-05, -0.009173056110739708, 5.119565685163252e-05, -0.0010903566144406796, 5.15165738761425e-05, 0.008771783672273159, 0.00010203976853517815, -0.000502794689964503, -7.512979209423065e-05, -0.0017995687667280436, -0.0005426243296824396, -0.0007380413007922471, 0.00012169204273959622, 8.360474748769775e-05, -0.0019765186589211226, 0.001837320625782013, 0.00042204835335724056, 0.0002958207332994789, 0.0017224957700818777, 0.0003838257398456335, -0.006528052035719156, 0.0029980589170008898, 0.007138147950172424, 0.000719736737664789, 9.812941425479949e-05, 0.0021734510082751513, 0.00017104853759519756, -0.0004198926908429712, 0.0004032063588965684, -0.003371292958036065, -0.0022563349921256304, 0.0029597207903862, 0.0003328954626340419, -0.0013153190957382321, -0.00944218784570694, -0.001229025307111442, -0.0012318782974034548], [0.0039777304045856, 0.0029594972729682922, -0.024309836328029633, -0.009128731675446033, -0.0020729589741677046, -0.006171168759465218, -0.013414444401860237, -0.0003438392886891961, 0.0021729781292378902, -0.00348879536613822, -0.011034408584237099, 0.00019887392409145832, -0.01612030528485775, -0.0017130280612036586, -0.0027050210628658533, -0.006060195621103048, 8.039951353566721e-05, -0.00199821381829679, 0.01144401729106903, -0.008465851657092571, -0.0066255261190235615, -0.008821721188724041, -0.00047532643657177687, -0.02041521854698658, 0.0031032341066747904, -0.010863341391086578, 0.005499682389199734, -0.0003834230010397732, 0.009133053943514824, 0.0003069088270422071, -0.0001157943406724371, -0.005089054349809885, -0.010554125532507896, 0.0006872229278087616, -0.011596732772886753, -0.0035056062042713165, 0.008969783782958984, 0.010561888106167316, -0.0015732188476249576, -0.006719639990478754], [0.027362627908587456, 0.027197781950235367, -0.0033671564888209105, -0.014356059022247791, -0.000979881500825286, -0.026036761701107025, 0.04507991299033165, 8.218819857575e-06, 0.0715203583240509, 0.026847515255212784, -0.0661558285355568, -4.70763870907831e-06, 0.010323269292712212, -0.006385245360434055, -0.048546578735113144, -0.003488184418529272, -0.005824246909469366, -0.01635606773197651, -0.07057501375675201, -0.031915970146656036, -0.02474127896130085, -0.02127012237906456, 0.06801020354032516, -0.08988384902477264, 0.04664678871631622, 0.00408287113532424, 0.037499476224184036, 0.0015168195823207498, 0.05477047339081764, 0.0037018265575170517, -0.0122975530102849, -0.014826925471425056, -0.0914265587925911, -0.01330824475735426, -0.016248216852545738, -0.01279420405626297, 0.026325996965169907, -0.01620195433497429, -0.02554715797305107, -0.04343178868293762], [0.014207597821950912, 0.015081497840583324, 0.006096123717725277, 0.0018193102441728115, -0.1010984480381012, 0.003497048281133175, 0.019340256229043007, 0.0009489667136222124, 0.03957565128803253, -0.0010913577862083912, 0.005311746150255203, 0.0014362920774146914, 0.006620360072702169, -0.0036840634420514107, -0.013434065505862236, 0.004522672388702631, 0.0034326452296227217, -0.019887512549757957, 2.8816089070460293e-06, 0.012175073847174644, 0.008153403177857399, 0.030237842351198196, -0.008966879919171333, -0.03986619785428047, 0.04089048132300377, 0.04682121053338051, 0.0008547519100829959, 0.002231261460110545, 0.010513778775930405, 0.0006432730588130653, -0.007878783158957958, 0.009199985302984715, -0.023569980636239052, -0.020845822989940643, 0.038336846977472305, 0.005549036432057619, -0.03195566684007645, -0.06999564170837402, -0.001318546594120562, -0.0063619897700846195], [0.018266914412379265, 0.015671396628022194, -0.014988096430897713, -0.004260608460754156, -0.04781341552734375, -0.008015344850718975, 0.015401714481413364, 0.0011239215964451432, 0.04500666633248329, 0.01190991047769785, -0.013267412781715393, -0.0005630804225802422, 0.003491561859846115, -0.007057331968098879, -0.02873772569000721, 0.0007316055125556886, -0.0001585910504218191, -0.016805212944746017, -0.02130039967596531, -0.0035863686352968216, -0.0028173578903079033, 0.0060248165391385555, 0.016993066295981407, -0.06300869584083557, 0.04487787187099457, 0.031120281666517258, 0.01316407136619091, 0.0015089117223396897, 0.02396431379020214, 0.0024413904175162315, -0.007545038126409054, 0.00017413134628441185, -0.036593321710824966, -0.019111981615424156, 0.015000397339463234, -0.0001903361117001623, -0.005434112157672644, -0.043933846056461334, -0.011745533905923367, -0.01680007576942444], [0.006425133906304836, 0.00841989740729332, 0.09473881870508194, 0.010208260267972946, -0.16762791574001312, 0.020486198365688324, 0.04306613281369209, 0.0019193408079445362, 0.03477809578180313, -0.015082749538123608, 0.0313999280333519, 0.0027425687294453382, 0.020464971661567688, 7.91771017247811e-05, 0.0067674280144274235, 0.010946610011160374, 0.008444364182651043, -0.019064124673604965, 0.017886515706777573, 0.03379076346755028, 0.021311352029442787, 0.062261566519737244, -0.030554253607988358, -0.013491581194102764, 0.028398148715496063, 0.07677023112773895, -0.016712037846446037, 0.0018049938371405005, -0.01045200414955616, -0.0016545341350138187, -0.003372977487742901, 0.022497400641441345, 0.0005080646951682866, -0.02980964630842209, 0.07111773639917374, 0.01493105012923479, -0.07250557839870453, -0.10554482787847519, 0.005739765241742134, 0.00890362448990345], [0.012353349477052689, 0.022151341661810875, -0.04658911004662514, -0.021511850878596306, -0.054156821221113205, -0.008855012245476246, 0.04330631345510483, 0.0002804576652124524, 0.030859965831041336, -0.0252065546810627, -0.05729096382856369, 0.0011804172536358237, -0.06908711045980453, 0.00017942012345883995, -0.007048377767205238, -0.0028434605337679386, -0.0032888182904571295, -0.01212504506111145, 0.0272667296230793, -0.013531029224395752, -0.017833255231380463, 0.0029070267919451, -0.015901194885373116, -0.05111771821975708, 0.012832227163016796, -0.019982539117336273, 0.004972136113792658, 0.0017939710523933172, 0.03031286597251892, 0.002536545740440488, -0.010260874405503273, -0.005942577496170998, -0.08654975891113281, -0.009050147607922554, -0.012637603096663952, -0.011894041672348976, -0.00945201888680458, 0.007502383086830378, 0.003938089124858379, -0.01879333145916462], [0.05757737532258034, 0.06271706521511078, -0.07498656213283539, -0.02830238826572895, -0.011378129944205284, -0.04891102388501167, -0.0209943987429142, 0.0002836420899257064, 0.016762010753154755, 0.06022927537560463, -0.15078595280647278, 0.001280924305319786, 0.038583580404520035, -0.020379595458507538, -0.08038351684808731, -0.0038921087980270386, -0.016805769875645638, -0.03926542401313782, -0.10042369365692139, -0.05657956376671791, -0.05417092889547348, -0.03585657477378845, 0.10119348764419556, -0.14861512184143066, 0.08610382676124573, 0.014315836131572723, 0.05019266903400421, 0.008543523959815502, 0.10085271298885345, 0.008399972692131996, -0.031828317791223526, -0.024880219250917435, -0.21270336210727692, -0.033619675785303116, -0.04227566346526146, -0.035802166908979416, 0.012624108232557774, 0.024822235107421875, -0.015356358140707016, -0.06590760499238968], [0.06080827862024307, 0.04484181106090546, -0.20554718375205994, -0.04776850342750549, 0.0020643160678446293, -0.07352441549301147, -0.07696626335382462, -0.000763502495829016, -0.0606384314596653, 0.06279709935188293, -0.1038854792714119, -0.0001859949406934902, -0.08291614055633545, -0.023523632436990738, -0.22034987807273865, -0.015330840833485126, -0.01864434778690338, -0.03837496414780617, -0.08607552200555801, -0.05896963179111481, -0.05290834233164787, -0.0445668064057827, 0.07481023669242859, -0.26292696595191956, 0.22194576263427734, -0.10431922227144241, 0.09200059622526169, 0.010809637606143951, 0.09526391327381134, 0.011623893864452839, -0.029399538412690163, -0.034678708761930466, -0.19070252776145935, -0.0176608394831419, -0.05345046892762184, -0.0335710309445858, 0.020690610632300377, 0.04268335551023483, -0.02554457262158394, -0.07848259061574936], [-0.019895778968930244, -0.027627835050225258, 0.05610008165240288, 0.011968409642577171, -0.06155702471733093, 0.022304320707917213, -0.0023117447271943092, -0.0005992242367938161, -0.02280072495341301, -0.01555617991834879, 0.10714925080537796, -0.002209404716268182, 0.004414735361933708, 0.005306154955178499, 0.005085508339107037, 0.0017900805687531829, 0.012353358790278435, 0.004902143497020006, 0.039749838411808014, 0.03610445559024811, 0.03521575406193733, 0.036514364182949066, -0.03901086375117302, 0.014463425613939762, -0.007191577926278114, 0.037297431379556656, -0.018560219556093216, -0.00527849979698658, -0.052106257528066635, -0.003246766747906804, 0.016024412587285042, 0.016743581742048264, 0.13946540653705597, 0.015899499878287315, 0.056871987879276276, 0.02895498275756836, -0.046715620905160904, -0.07382030785083771, 0.005740042310208082, 0.028666043654084206], [0.021034356206655502, 0.01691865175962448, -0.08522402495145798, -0.012958751060068607, -0.031923793256282806, -0.018772928044199944, 0.003973263781517744, 0.000552346755284816, 0.008625039830803871, 0.008872396312654018, -0.023303542286157608, 1.370554173263372e-06, -0.025907784700393677, -0.0075000557117164135, -0.070969358086586, -0.002391538582742214, -0.0036005850415676832, -0.015991292893886566, -0.029995348304510117, -0.012458461336791515, -0.012200631201267242, -0.0038565860595554113, 0.023020589724183083, -0.09779899567365646, 0.08377262949943542, 0.02018437534570694, 0.027770157903432846, 0.003154782112687826, 0.03127649426460266, 0.003426383016631007, -0.008297232910990715, -0.006764164660125971, -0.051476527005434036, -0.013245136477053165, 0.001775849494151771, -0.0052064345218241215, -0.001982587855309248, -0.020966537296772003, -0.01033647172152996, -0.02499489299952984], [0.00010226495942333713, 0.0001639009133214131, -0.004539705812931061, -0.0003159979823976755, -0.00021763127006124705, -0.00012126508954679593, -0.0012818619143217802, -8.931328920880333e-06, -6.419793498935178e-05, -0.00039189966628327966, -0.00038898864295333624, -1.7311920601059683e-05, -0.002373109105974436, -5.808647983940318e-05, -0.0003446232294663787, -0.0002234740532003343, -9.930961095960811e-05, -3.3118507417384535e-05, 0.0029139863327145576, -7.397071021841839e-05, -0.0003219422360416502, -5.935049193794839e-05, -0.0007655685185454786, -0.002330618444830179, 0.000495589803904295, -9.902685997076333e-05, 0.00027923440211452544, -9.466532901569735e-06, 0.00037344201700761914, 3.51900453097187e-05, -7.167237345129251e-05, -9.410690836375579e-05, -0.0005763130611740053, 7.259161066031083e-05, -0.00013358908472582698, -0.00011819924111478031, 0.00038667451008222997, 0.00019961659563705325, -3.659049252746627e-05, -0.000406599574489519], [0.028613213449716568, 0.027606699615716934, -0.007602620869874954, -0.011427369900047779, -0.05495011433959007, -0.017680469900369644, 0.04349791258573532, 0.0021212478168308735, 0.05712495744228363, 0.01604936085641384, -0.03930994123220444, 0.0006169319385662675, 0.014376349747180939, -0.011355998925864697, -0.04199431464076042, -0.00173520902171731, -0.004488722886890173, -0.024984337389469147, -0.039661623537540436, -0.01607830636203289, -0.014656550250947475, -0.0012033038074150681, 0.026771338656544685, -0.08973956108093262, 0.06789341568946838, 0.024412041530013084, 0.022579645738005638, 0.0022826322820037603, 0.04504972696304321, 0.005656163673847914, -0.014125343412160873, -0.0063385688699781895, -0.07961618900299072, -0.025357376784086227, 0.007567082066088915, -0.006093880161643028, -0.0018627188401296735, -0.040654342621564865, -0.014729645103216171, -0.03244524821639061], [0.00042375773773528636, 0.00020804940140806139, -0.00290347239933908, -0.000548686133697629, -0.0027952210512012243, -0.00020335617591626942, -0.0011151874205097556, -1.9601879102992825e-05, 0.0019149563740938902, -0.00041393807623535395, -0.0006939944578334689, 5.603720273938961e-05, -0.0016460969345644116, -9.937375580193475e-05, -0.0005556648829951882, -0.00033993920078501105, -5.124313975102268e-05, -0.00013772962847724557, 0.0015750178135931492, -0.000351236027199775, -0.00019890644762199372, -1.4549433217325713e-05, -0.00037016827263869345, -0.0032040965743362904, 0.0007394560961984098, 0.0012211049906909466, 0.0003815660020336509, 2.099790799547918e-05, 0.0008764871745370328, 6.670720904367045e-05, -0.00010374991688877344, -0.00015175605949480087, -0.0010421352926641703, -0.0005443287082016468, 0.00015851450734771788, -6.258828943828121e-05, -0.0002602093736641109, -0.0012513253604993224, -0.0001114839396905154, -0.0002981838188134134], [0.0036424146965146065, 0.001798188895918429, -0.00992219615727663, -0.000998650211840868, -0.008642461150884628, -0.0012829238548874855, -0.002175097819417715, -0.00027063314337283373, 0.011880283243954182, -0.0008249036618508399, -0.00562128284946084, 0.00040394236566498876, -0.004750026389956474, -0.0013369787484407425, -0.0017976041417568922, -0.0016298157861456275, -0.00022659286332782358, -0.0016539378557354212, 0.004413702059537172, -0.00299341999925673, -0.0022810667287558317, -0.0019213182386010885, -7.47039302950725e-05, -0.012366930954158306, 0.004327543545514345, 0.005327372346073389, 0.001700686407275498, 0.00010704035230446607, 0.006019070278853178, 0.000168106154887937, -0.001317797228693962, -0.001159987528808415, -0.008384427055716515, -0.0021337266080081463, -0.0001534104667371139, -0.0005383088137023151, 0.001842841855250299, -0.004542223177850246, -0.0007988205761648715, -0.002965227235108614], [0.006853463128209114, 0.007411433849483728, -0.001151343691162765, 0.0016621578251942992, -0.030344052240252495, 0.0018401650013402104, -0.0008919850806705654, 0.0003573488793335855, 0.030717752873897552, 0.0013720033457502723, 0.003062297124415636, -0.00046144035877659917, -7.734986138530076e-05, -0.0027336694765836, -0.0034599595237523317, 0.0018085755873471498, 0.0011015590280294418, -0.009091833606362343, 0.0019126206170767546, 0.004464990925043821, 0.003682046430185437, 0.009699465706944466, 0.00025832426035776734, -0.01765955053269863, 0.012194076552987099, 0.02604074217379093, 0.0010657372185960412, 0.0004589392920024693, 0.004164465703070164, 0.0004694725794252008, -0.0025792266242206097, 0.00297733535990119, -0.006068123038858175, -0.007834547199308872, 0.01369551569223404, 0.002538420492783189, -0.00886277575045824, -0.03256171941757202, -0.004552197176963091, -0.002408578060567379], [0.057888418436050415, 0.049064163118600845, 0.04922031611204147, -0.025820398703217506, -0.07264062017202377, -0.051846858114004135, 0.02708309143781662, 0.00018890004139393568, -0.016947321593761444, 0.054665565490722656, -0.07571171224117279, 0.00046128506073728204, 0.06507917493581772, -0.022459866479039192, -0.16478878259658813, -0.002090565860271454, -0.011519725434482098, -0.04502302035689354, -0.14010348916053772, -0.028214091435074806, -0.04220119118690491, 0.0024201925843954086, 0.0604313425719738, -0.20222975313663483, 0.21244017779827118, 0.030339350923895836, 0.06070716679096222, 0.00785024743527174, 0.08423636853694916, 0.011971586383879185, -0.02995743229985237, -0.01754211075603962, -0.16736572980880737, -0.038257088512182236, -0.0016345740295946598, -0.023260662332177162, -0.03651481121778488, -0.05473748967051506, -0.01471894234418869, -0.06953801214694977], [-0.0017654614057391882, -0.0007359025184996426, 0.006467344239354134, 0.0006015425897203386, -0.0010636551305651665, 0.0007366911740973592, 0.0011173565872013569, -0.0002619803708512336, -0.002999386051669717, -0.003912508953362703, -1.3981249139760621e-05, -0.00010008633398683742, -8.834166510496289e-05, 0.0006695634219795465, 0.004098177887499332, -0.0004100338264834136, -0.0013530171709135175, 0.0013602850958704948, 0.007842964492738247, 0.0015841718995943666, -0.00182938645593822, 0.0019764092285186052, -0.005051883868873119, 0.006103841122239828, -0.0025208191946148872, 0.0034530668053776026, -0.0014690915122628212, -0.00035140421823598444, -0.0009916130220517516, 0.0002677875163499266, 0.0003188021946698427, 0.0007744581671431661, -0.001631336286664009, 0.0009998840978369117, 0.0010569170117378235, -0.0002001370012294501, -0.0012259322684258223, -0.0012250005966052413, 0.000880263396538794, 0.0003027870552614331], [0.022190602496266365, 0.02091429941356182, 0.0813080370426178, 0.005205228924751282, -0.2576349675655365, 0.019307816401124, 0.08290049433708191, 0.003155170241370797, 0.04577706381678581, -0.005399378482252359, 0.02376670204102993, 0.004140002653002739, 0.048383645713329315, -0.003535371972247958, -0.010955634526908398, 0.014711695723235607, 0.009812888689339161, -0.03424997255206108, -0.0066767060197889805, 0.03908479958772659, 0.01981176808476448, 0.08509906381368637, -0.022042233496904373, -0.05279143154621124, 0.0569889098405838, 0.1263314187526703, -0.012448599562048912, 0.005314346868544817, 0.004671245347708464, -0.001351364771835506, -0.00961146131157875, 0.028771737590432167, -0.030533401295542717, -0.054535891860723495, 0.10240427404642105, 0.015346662141382694, -0.0968828871846199, -0.15073786675930023, 0.0069287908263504505, -3.2333515264326707e-05], [0.005259872879832983, 0.005924290511757135, -0.0003569012915249914, 0.0006353161879815161, -0.01934005692601204, -0.00025120991631411016, -0.00016345256881322712, 0.0002665100619196892, 0.029114486649632454, 0.0019195566419512033, -0.0007294285460375249, -2.8071106044080807e-06, 0.001004867604933679, -0.0016346153570339084, -0.0037757973186671734, 0.0009419734706170857, 0.0003235578478779644, -0.00646485248580575, -0.0009722657268866897, 0.001223179278895259, 0.0015539114829152822, 0.0046553583815693855, 0.002318903338164091, -0.01376170665025711, 0.009740963578224182, 0.018657080829143524, 0.0018021768191829324, 0.0003600418276619166, 0.005495151504874229, 0.0005053052445873618, -0.0020945165306329727, 0.0011556148529052734, -0.007473238278180361, -0.0065809935331344604, 0.0078887939453125, 0.0008794089080765843, -0.0030215925071388483, -0.022703779861330986, -0.004831507336348295, -0.002788703190162778], [-0.010351334698498249, 0.0019406256033107638, 0.07079805433750153, 0.017373498529195786, -0.14975842833518982, 0.03722510486841202, 0.09039425104856491, 0.0022371483501046896, 0.04047752916812897, -0.04149272292852402, 0.04226281866431236, 0.00250800303183496, 0.00022235333744902164, 0.008243663236498833, 0.0648534819483757, 0.012622732669115067, 0.008221132680773735, -0.011641313321888447, 0.04434492439031601, 0.04200601950287819, 0.025114160031080246, 0.07272309809923172, -0.05897843837738037, 0.07098273187875748, -0.03267619013786316, 0.05672045424580574, -0.03860386833548546, -0.0007725802715867758, -0.027568085119128227, -0.0015966311329975724, 0.0025150964502245188, 0.0272832028567791, 0.023428484797477722, -0.02370656467974186, 0.06996666640043259, 0.015971140936017036, -0.08774726092815399, -0.08797097951173782, 0.02322503738105297, 0.024915050715208054], [-0.01630849950015545, -0.02681300975382328, 0.07934802025556564, 0.041742995381355286, -0.16061513125896454, 0.04488706588745117, -0.13614828884601593, 1.9033210264751688e-05, 0.08174532651901245, -0.02045254036784172, 0.1273757517337799, 0.0007180206594057381, 0.014875901862978935, 0.005821114871650934, 0.010375794023275375, 0.017072901129722595, 0.021647661924362183, -0.008251680992543697, 0.04795972257852554, 0.08095906674861908, 0.06768019497394562, 0.09424779564142227, -0.06771960854530334, 0.007336683105677366, 0.03000035509467125, 0.1905221939086914, -0.036552153527736664, -0.0016147823771461844, -0.07752221822738647, -0.0065486677922308445, 0.015394213609397411, 0.0420692078769207, 0.09809062629938126, -0.01801270805299282, 0.11400748789310455, 0.040148310363292694, -0.08670902252197266, -0.22526171803474426, 0.010627404786646366, 0.05284649878740311], [0.011845182627439499, 0.028444280847907066, -0.4425356090068817, 0.003182749729603529, 0.025554215535521507, -0.026278799399733543, 0.012761009857058525, -0.00020638950809370726, -0.008758523501455784, -0.055380284786224365, -0.03396660462021828, -0.00041450143908150494, -0.18024766445159912, 0.006300273817032576, -0.02005438506603241, -0.04610292986035347, -0.0058387890458106995, -0.023467393592000008, 0.22284342348575592, -0.017835676670074463, -0.02113528922200203, -0.015849169343709946, -0.05417817458510399, -0.0969386026263237, 0.034756287932395935, -0.10351238399744034, 0.0150519497692585, 0.003302297554910183, 0.03275028243660927, 0.0060484218411147594, -0.013285862281918526, -0.01191739086061716, -0.04822656884789467, 0.018145175650715828, -0.04295727238059044, -0.013813270255923271, 0.008948825299739838, 0.05165551230311394, 0.00773183349519968, -0.017085785046219826], [0.03003162145614624, 0.025205733254551888, -0.05396173521876335, -0.0186410341411829, -0.05180070549249649, -0.025754787027835846, 0.03417915850877762, 0.0011660970048978925, 0.0030557631980627775, 0.022853121161460876, -0.03702060133218765, 0.0020005751866847277, 0.00253636809065938, -0.011846375651657581, -0.07347262650728226, -0.0038453610613942146, -0.004940041806548834, -0.023372692987322807, -0.043856099247932434, -0.019543204456567764, -0.019510064274072647, -0.0044363997876644135, 0.025377945974469185, -0.12025664001703262, 0.09791094809770584, -0.005786060821264982, 0.02977330982685089, 0.004056640435010195, 0.04590665549039841, 0.005564540158957243, -0.013364539481699467, -0.009579738602042198, -0.07346359640359879, -0.020277298986911774, 0.002655918011441827, -0.007837395183742046, -0.007148818112909794, -0.021703705191612244, -0.011699149385094643, -0.03620707616209984], [0.007474254351109266, 0.008756579831242561, -0.00896827969700098, -0.0036738039925694466, -0.0032848797272890806, -0.006135075353085995, -0.004308853764086962, 0.0002088684996124357, 0.011099223047494888, 0.0022155570331960917, -0.009985096752643585, -0.000742356467526406, -0.0009768017334863544, -0.0037651134189218283, -0.009862431325018406, -0.0019065910018980503, -0.001762631582096219, -0.007168176118284464, -0.00350931566208601, -0.0073324223048985004, -0.004333030432462692, -0.006428438704460859, 0.00455129100009799, -0.01815207675099373, 0.01526641845703125, -0.002732838736847043, 0.006443043705075979, 9.660280193202198e-05, 0.00996643677353859, 0.001242986647412181, -0.0041346424259245396, -0.004376796539872885, -0.013342767022550106, -0.0028170254081487656, -0.00491018733009696, -0.0026680463925004005, 0.009205290116369724, -0.0015213402220979333, -0.0065181623212993145, -0.007302477490156889], [0.008067327551543713, 0.010658659040927887, -0.01110578328371048, -0.004045485518872738, -0.0055254725739359856, -0.006207745056599379, 0.0011679601157084107, 0.0003962210030294955, 0.0164895411580801, -0.0005709867109544575, -0.009889290668070316, -0.00045275731827132404, -0.004635118413716555, -0.00362352910451591, -0.00629665469750762, -0.002367285080254078, -0.0022451155818998814, -0.00920084211975336, 0.004782835487276316, -0.00809275358915329, -0.006056401412934065, -0.00730921933427453, 0.0008663226035423577, -0.015102047473192215, 0.011232889257371426, -0.0068650757893919945, 0.005188509356230497, -0.0001410425902577117, 0.011240001767873764, 0.001918248482979834, -0.005030621308833361, -0.00453827902674675, -0.010521715506911278, -0.002899085870012641, -0.004856589250266552, -0.0023174758534878492, 0.011165384203195572, 0.00026038175565190613, -0.004967255983501673, -0.0072965784929692745], [0.04382173717021942, 0.03533319756388664, -0.3517262637615204, 0.12911680340766907, -0.11133263260126114, 0.06843475997447968, 0.14882059395313263, -0.011026960797607899, -0.13994359970092773, 0.2631613612174988, -0.0572408065199852, -0.004343061242252588, 0.2322608381509781, 0.009185565635561943, -0.10742121934890747, 0.03537195175886154, -0.020145365968346596, -0.0274056289345026, -0.23464886844158173, 0.04122442007064819, -0.030752506107091904, -0.03036770597100258, 0.00646761292591691, 0.21231642365455627, 0.12370272725820541, 0.14839938282966614, 0.06999897211790085, -0.0004604216665029526, 0.04023011773824692, 0.011029439978301525, -0.021270345896482468, -0.027361257001757622, -0.05875362828373909, -0.053042344748973846, 0.06310475617647171, -0.018063198775053024, -0.008589807897806168, 0.11500392109155655, -0.05593926087021828, -0.07853203266859055], [0.008811429142951965, 0.00857570767402649, 0.00955201592296362, -0.005375067703425884, -0.028088081628084183, -0.003310359315946698, -0.009398868307471275, 0.0005688717355951667, 0.01888427324593067, 0.0007294899551197886, -0.010074211284518242, 0.0007657702080905437, -0.002239697379991412, -0.002260788343846798, -0.003201358253136277, -0.001334989327006042, -0.00031892635161057115, -0.010758880525827408, 0.007800162769854069, -0.0025986426044255495, -0.0014468374429270625, 0.000820771383587271, -0.00043161827488802373, -0.014845531433820724, 0.011900365352630615, -0.010596207343041897, 0.0006158628966659307, 0.0019241919508203864, 0.007560103666037321, 0.0004749169747810811, -0.005483903456479311, -0.0004320882726460695, -0.015874868258833885, -0.0038116287905722857, 0.0012206888059154153, -0.002890051808208227, -0.0014055976644158363, 0.0018391975900158286, 0.00294837960973382, -0.003915912471711636], [0.0017564492300152779, -0.006592182442545891, 0.06557467579841614, 0.04111219570040703, -0.3646547794342041, 0.05861632525920868, 0.028138279914855957, 0.005657322239130735, 0.19875074923038483, -0.010298552922904491, 0.08331543207168579, 0.005399008747190237, -0.030036479234695435, 0.010234629735350609, 0.043349966406822205, 0.031998682767152786, 0.026022061705589294, -0.0242533590644598, 0.05539532005786896, 0.088850237429142, 0.06373558938503265, 0.14577288925647736, -0.0386752188205719, 0.011156110092997551, -0.007736718747764826, 0.3108099699020386, -0.03650294244289398, 0.005623937584459782, -0.044254180043935776, -0.013886609114706516, 0.01251644641160965, 0.06012291833758354, 0.03792015090584755, -0.09857816994190216, 0.20324648916721344, 0.04297714680433273, -0.10442689806222916, -0.34996941685676575, -0.0007046686951071024, 0.03809848055243492], [0.005379002541303635, 0.004386830609291792, -0.010721582919359207, -0.0022382508032023907, -0.031811077147722244, -0.0004956505727022886, -0.0009271370945498347, 0.0008109296904876828, -0.000899357080925256, 0.0032410542480647564, 0.00132078118622303, 0.0005062743439339101, -0.0006233594613149762, -0.0019970107823610306, -0.018284305930137634, 0.0010145459091290832, 0.0015768720768392086, -0.008649824187159538, -0.004675185773521662, 0.0037355225067585707, 0.005200882907956839, 0.010966833680868149, 0.00226581864990294, -0.03192536532878876, 0.02797210030257702, 0.004492239560931921, 0.00362433772534132, 0.0010539388749748468, 0.004090245347470045, 0.00042528854100964963, -0.0018937932327389717, 0.0037455977872014046, -0.012170642614364624, -0.006927351001650095, 0.010141006670892239, 0.0010218368843197823, -0.012243072502315044, -0.023992737755179405, -6.506317731691524e-05, -0.0032615012023597956], [0.11978848278522491, 0.08216319978237152, 0.8081610798835754, 0.5152859687805176, 0.3594796359539032, -0.060218408703804016, 0.10155344009399414, 0.0018820181721821427, 0.21597816050052643, 0.5829105973243713, -0.1188330128788948, 0.0022042389027774334, 0.9070433974266052, -0.06217128783464432, -0.11302369832992554, 0.4027032256126404, -0.02354605123400688, -0.06539406627416611, -1.1527518033981323, -0.11141254007816315, -0.0866677463054657, -0.18193280696868896, 0.7987421154975891, 0.7312043309211731, 0.18045055866241455, 0.47971871495246887, 0.07667596638202667, 0.04162180796265602, 0.14726139605045319, 0.028129959478974342, -0.057785388082265854, -0.045422136783599854, -0.11600984632968903, -0.14128388464450836, -0.0014381685759872198, -0.021394439041614532, 0.08272102475166321, -0.13115358352661133, -0.03163395822048187, -0.17663243412971497], [5.8578742027748376e-05, -2.3651726223761216e-05, -0.0037329834885895252, -0.00027669352130033076, -0.0006597086903639138, -2.319165287190117e-05, -0.0007915918831713498, 2.1018388451921055e-06, 0.00026550889015197754, -0.00036657589953392744, -4.562024332699366e-05, -1.7682075849734247e-05, -0.0020789545960724354, -2.465946090524085e-05, -7.967781129991636e-05, -0.0001568878797115758, -5.189902367419563e-06, 1.2342890840955079e-05, 0.002676528412848711, -5.9794019762193784e-05, 3.403620894459891e-06, -3.123984424746595e-05, -0.0005448454176075757, -0.001854917500168085, 0.00012588837125804275, -0.00011050276953028515, 3.912358442903496e-05, -5.239248821453657e-06, 2.0462584870983846e-05, 9.37831100600306e-06, 7.840526450308971e-06, -4.307949711801484e-05, -7.42219272069633e-05, -6.809763726778328e-05, -4.724123209598474e-05, -3.319166353321634e-05, -6.294639024417847e-05, -0.0001818377641029656, -2.2295775124803185e-05, -2.5313896912848577e-05], [0.0022510350681841373, 0.009639573283493519, 0.25742048025131226, 0.17032933235168457, 0.1425033062696457, 0.01887022703886032, 0.1416076272726059, 0.0007015267619863153, 0.20025625824928284, 0.3937065899372101, -0.032642919570207596, -0.0009412890067324042, 0.7248571515083313, -0.03895065560936928, 0.11063065379858017, 0.20680508017539978, 0.003310173051431775, 0.009865879081189632, -0.20393308997154236, -0.022832434624433517, 0.004778314381837845, -0.0025717392563819885, 0.07866258919239044, 0.2983756959438324, -0.1008928045630455, 0.2088213562965393, -0.03401324525475502, -0.008381218649446964, -0.015531137585639954, 0.00269281305372715, -0.003795918542891741, -0.010263854637742043, 0.005080398637801409, 0.028551021590828896, 0.26487869024276733, -0.014390240423381329, 0.05466680973768234, 0.06329107284545898, 0.015602384693920612, 0.01619972474873066], [0.001527884160168469, 0.0018618390895426273, -0.03476820886135101, -0.025672854855656624, -0.005844624247401953, -0.0020228030625730753, -0.0027603982016444206, -0.00018395176448393613, -0.022974945604801178, 0.009609045460820198, -0.01059552188962698, -6.46740008960478e-05, -0.0026011003646999598, -0.0013168682344257832, -0.018367616459727287, -0.0013985800324007869, -0.0002815629995893687, 8.601286390330642e-05, 0.007715360261499882, -0.00123678520321846, -0.004771828651428223, -1.4342451322590932e-05, 0.0011166558833792806, -0.030027659609913826, 0.024280134588479996, -0.006449342239648104, 0.005489461589604616, -0.0003881442826241255, 0.0041851685382425785, -0.0002728601102717221, 2.3710632376605645e-05, -0.0023765850346535444, -0.0211490411311388, 0.004599626176059246, -0.0030581611208617687, -0.0015827338211238384, -0.00815512053668499, 0.0031579528003931046, -5.4730146075598896e-05, -0.004980402998626232], [0.01447277795523405, 0.007705731317400932, 0.003376440145075321, -0.006718797609210014, -0.07367361336946487, -0.009338406845927238, 0.02223341353237629, 0.003965608775615692, -0.06962179392576218, -0.0033454066142439842, 0.00762269226834178, 0.00328001263551414, 0.004605890717357397, -0.00990971364080906, -0.06323578953742981, 0.0018954012775793672, 0.0024021011777222157, -0.01624237559735775, 0.005617223680019379, 0.009915726259350777, -0.0012674283934757113, 0.028247758746147156, -0.025107450783252716, -0.050607457756996155, 0.09445436298847198, -0.02211117371916771, 0.007506879046559334, 0.003067076439037919, 0.004618823993951082, 0.003218812169507146, -0.008185192011296749, 0.00459845457226038, -0.012674151919782162, -0.012913460843265057, 0.026841215789318085, 0.0035394697915762663, -0.053324680775403976, -0.009496228769421577, 0.003950248006731272, -0.010835519060492516], [2.138897980330512e-05, 5.143238013260998e-05, -0.0016278086695820093, -0.0001842570782173425, -0.00043092379928566515, -2.7873333237948827e-05, -0.0003581539785955101, 3.247392305638641e-05, -7.001672929618508e-05, -0.00021948634821455926, -7.262505823746324e-05, -5.6686371863179374e-06, -0.0010314231039956212, 8.305031769850757e-06, -6.0231672250665724e-05, -0.00011475724750198424, -2.2790693037677556e-05, -4.215044464217499e-05, 0.0011292148847132921, -5.48410571354907e-05, -0.00010019748151535168, 3.9543108869111165e-05, -0.0003083453339058906, -0.0010038717882707715, 0.00011482666741358116, -0.00017727263912092894, 0.00011146828182972968, 2.5077792088268325e-05, 0.00017743153148330748, 6.876774932607077e-06, -2.056566154351458e-05, -1.0014248800871428e-05, -0.0001400221517542377, -9.603787475498393e-06, -3.397891850909218e-05, -8.492839697282761e-06, -2.5831226594164036e-05, -2.362449413340073e-05, -1.5579938917653635e-05, -8.899278327589855e-05], [-0.005180565640330315, -0.0025398540310561657, 0.015194758772850037, 0.0011642833705991507, -0.01968427188694477, 0.0067906915210187435, 0.03605438768863678, -0.0014497580705210567, -0.003530791262164712, -0.0037036300636827946, 0.002561508910730481, -0.002049689879640937, -0.003927222918719053, 0.004460982047021389, 0.004186978563666344, -0.0005789785645902157, 0.0014627320924773812, 0.004821224138140678, 0.0024827192537486553, 0.010779683478176594, -0.00021200597984716296, 0.01277408841997385, -0.008611936122179031, 0.011964038014411926, 0.00173051911406219, 0.03015722893178463, -0.0022792050149291754, -0.0012798304669559002, -0.001356105669401586, -0.0005984741728752851, 0.002855026861652732, 0.00393266323953867, -0.007636887952685356, -0.001716042635962367, 0.014486475847661495, 0.004339922219514847, -0.01863272301852703, -0.0253035556524992, 0.0012843203730881214, -0.0007938585476949811], [0.0033353902399539948, 0.003474034136161208, -0.005688730627298355, -0.0012799015967175364, -0.0007175813661888242, -0.002940183272585273, -0.0030098443385213614, 2.9023431125096977e-05, 0.001704085385426879, 0.0012826333986595273, -0.0048854295164346695, -0.00012122872431064025, -0.001254661357961595, -0.0010032843565568328, -0.0038948955480009317, -0.0004070564464200288, -0.0007014964357949793, -0.003457123413681984, -0.0013262474676594138, -0.00285736215300858, -0.0021222445648163557, -0.003117405576631427, 0.00353026925586164, -0.008526444435119629, 0.005626107566058636, -0.001506012282334268, 0.0032464757096022367, 0.000243591217440553, 0.006152916233986616, 0.00024991019745357335, -0.001681448775343597, -0.001653356128372252, -0.005887905601412058, -0.002035499084740877, -0.0016917368629947305, -0.0007311427034437656, 0.00328243151307106, -0.00013583252439275384, -0.0011365135433152318, -0.0039519970305264], [0.03993867710232735, 0.029644479975104332, -0.045708972960710526, -0.024323849007487297, 0.009298444725573063, -0.046747107058763504, -0.02160717360675335, 0.00019432340923231095, -0.021209750324487686, 0.06346683949232101, -0.07641638070344925, -7.847741653677076e-05, 0.011347039602696896, -0.015986861661076546, -0.11220140755176544, -0.00613129697740078, -0.01221129484474659, -0.02241087332367897, -0.1003739982843399, -0.04173523187637329, -0.03415774554014206, -0.033729437738657, 0.07297201454639435, -0.15503008663654327, 0.13607701659202576, 0.015309983864426613, 0.061163853853940964, 0.005472585558891296, 0.06918931007385254, 0.006810575257986784, -0.016862234100699425, -0.02262982353568077, -0.12932544946670532, -0.01181038748472929, -0.034232575446367264, -0.021624401211738586, 0.01998824067413807, 0.025453874841332436, -0.01998927630484104, -0.05391380563378334], [0.0004932909505441785, 0.0008938296814449131, -0.0023906647693365812, 0.0009331022156402469, -0.012702502310276031, 0.0020062297116965055, 0.0003732522309292108, 4.045653986395337e-05, 0.0082261823117733, -0.00035014431341551244, 0.0019188451115041971, 0.00017822235531639308, -0.0005373986205086112, 0.00015269932919181883, 0.002416673582047224, 0.0008478628587909043, 0.0005880044191144407, -0.0021582101471722126, 0.0026201563887298107, 0.00249904440715909, 0.0022089495323598385, 0.004257893189787865, -0.0011672828113660216, -0.0012135852593928576, 5.107428296469152e-05, 0.007650359999388456, -0.0018213307484984398, 0.00024096258857753128, -0.000964117469266057, -8.305541996378452e-05, -0.0003859737771563232, 0.0019044295186176896, -0.00042590691009536386, -0.0025597219355404377, 0.004735247232019901, 0.0007530117873102427, -0.00447087874636054, -0.010677958838641644, 0.00019889672694262117, 0.0016903666546568274], [0.0016569425351917744, 0.0001751307281665504, -0.0061707026325166225, -3.144796937704086e-05, -0.006583886221051216, 0.0003679412475321442, -0.00047034909948706627, 5.3363488405011594e-05, 0.003007079241797328, -0.00046243195538409054, 0.0001556373608764261, 7.026644743746147e-05, -0.0033528534695506096, -0.0005362180527299643, -0.0004886613460257649, 0.00014101572742220014, 0.00019187403086107224, -0.0014468533918261528, 0.004856822546571493, 0.000609765003900975, 0.0006511842366307974, 0.0018574622226879, -0.0006357678212225437, -0.004466452170163393, 0.002224287949502468, 0.003752760123461485, 0.00038795158616267145, 0.00013381526514422148, 0.0015748757869005203, 0.00010285533790010959, -5.836506170453504e-05, 0.000574532721657306, -0.0013921762583777308, -0.001797996461391449, 0.0022868888918310404, 0.0005225377972237766, -0.0013182377442717552, -0.006969642359763384, -0.0010325440671294928, -0.0007962763193063438], [0.002951582195237279, 0.0019502564100548625, -0.017549891024827957, -0.007429123390465975, -0.0012421245919540524, -0.0046638743951916695, -0.008924366906285286, -0.0003091248800046742, 0.0018608910031616688, -0.0029300893656909466, -0.008834813721477985, -2.996404691657517e-05, -0.012273941189050674, -0.0013306278269737959, -0.0005072591593489051, -0.004836892709136009, 0.00042119756108149886, -0.0016189614543691278, 0.009632826782763004, -0.0070267473347485065, -0.005033421795815229, -0.007653379812836647, -0.0005493052885867655, -0.014683942310512066, 0.00039357575587928295, -0.011254598386585712, 0.00387864513322711, -0.0003694431215990335, 0.006970493122935295, 0.0001508282875875011, 0.00043092487612739205, -0.003824337385594845, -0.005990901496261358, 0.000712823064532131, -0.00942082330584526, -0.002660338068380952, 0.006365327630192041, 0.010897033847868443, -0.00036328265559859574, -0.005032946355640888], [0.032973211258649826, 0.030033983290195465, -0.00585507694631815, -0.0187312550842762, 0.007405503187328577, -0.033097051084041595, 0.06468407809734344, 0.0008039454114623368, 0.07480467110872269, 0.0357612669467926, -0.07050471752882004, 0.0008697915473021567, 0.022867348045110703, -0.00903464574366808, -0.05748195946216583, -0.005506391637027264, -0.00648431247100234, -0.02016758732497692, -0.07535742968320847, -0.04107821360230446, -0.02831837348639965, -0.03307045251131058, 0.07802293449640274, -0.09642502665519714, 0.052338600158691406, -0.008565591648221016, 0.04364684596657753, 0.0022806855849921703, 0.06173437088727951, 0.0038537585642188787, -0.014172686263918877, -0.019847217947244644, -0.08720094710588455, -0.012865318916738033, -0.022608239203691483, -0.014152435585856438, 0.03808870539069176, 0.0015953178517520428, -0.03035840392112732, -0.049891114234924316], [0.009443197399377823, 0.009772607125341892, -0.012922458350658417, -0.000655543350148946, -0.06788177788257599, 0.002556309336796403, 0.01150120422244072, 0.0015028408961370587, 0.0066920178942382336, -0.002624208340421319, 0.00927112065255642, 0.0019789482466876507, -0.002793047111481428, -0.002881027525290847, -0.00994129665195942, 0.0019313734956085682, 0.0035284131299704313, -0.013997103087604046, 0.011594053357839584, 0.0076180147007107735, 0.007834221236407757, 0.018360834568738937, -0.00950017012655735, -0.021071303635835648, 0.02690792642533779, 0.005316640716046095, -0.0003660339571069926, 0.0013924348168075085, 0.003721759421750903, -0.00018139653548132628, -0.005837320350110531, 0.006636626087129116, -0.001149732037447393, -0.010861613787710667, 0.02418382465839386, 0.0050358218140900135, -0.02071501314640045, -0.02844500169157982, 1.5003573935246095e-05, -0.0022315511014312506], [0.01074417307972908, 0.008798421360552311, -0.025386415421962738, -0.003496326506137848, -0.034133732318878174, -0.004970677196979523, 0.007365385070443153, 0.0013144302647560835, 0.005072842817753553, 0.003944757394492626, -0.0026688973885029554, -0.0006540620233863592, -0.008538330905139446, -0.0051359268836677074, -0.022830015048384666, 0.000518530432600528, 0.00033236859599128366, -0.010834883898496628, 0.004990215413272381, -0.00015337402874138206, -0.0003211502335034311, 0.007222730200737715, -0.00014174760144669563, -0.040919769555330276, 0.035013291984796524, 0.0066383820958435535, 0.008061274886131287, 0.0011433024192228913, 0.011653676629066467, 0.0019063472282141447, -0.0051833344623446465, 0.001449853298254311, -0.015603809617459774, -0.011884748935699463, 0.012149103917181492, 0.0013490262208506465, -0.007772073615342379, -0.022664137184619904, -0.007817930541932583, -0.009251095354557037], [0.007199420128017664, 0.007710839621722698, 0.053416162729263306, 0.004859449341893196, -0.15236619114875793, 0.016155827790498734, 0.03674212098121643, 0.002766733057796955, 0.026391029357910156, -0.008238129317760468, 0.029746534302830696, 0.0038938107900321484, 0.012381883338093758, -0.0005702005000784993, 0.01020440086722374, 0.007915439084172249, 0.008184321224689484, -0.017007652670145035, 0.015316978096961975, 0.023090694099664688, 0.019620344042778015, 0.04309692606329918, -0.014975577592849731, -0.009111191146075726, 0.011729234829545021, 0.04800637438893318, -0.01562608778476715, 0.0024671463761478662, -0.011046270839869976, -0.003412931924685836, -0.002108933636918664, 0.017627988010644913, 0.022150838747620583, -0.025216642767190933, 0.06024674326181412, 0.013796569779515266, -0.0488235205411911, -0.07272229343652725, 0.0023420474026352167, 0.009470345452427864], [0.014305141754448414, 0.016769930720329285, -0.03905516862869263, -0.020445797592401505, -0.023524710908532143, -0.014133007265627384, 0.04217758774757385, 0.0010942168300971389, 0.030789343640208244, -0.007229055278003216, -0.039754029363393784, 0.0015193851431831717, -0.043752145022153854, -0.002530366647988558, -0.009914550930261612, -0.00532522052526474, -0.002082730643451214, -0.011044949293136597, 0.010336083360016346, -0.022037552669644356, -0.01349722407758236, -0.01701507531106472, -0.0021942390594631433, -0.04594554752111435, 0.0064935749396681786, -0.03709625452756882, 0.01002314779907465, 0.001676164916716516, 0.026132477447390556, 0.0010307891061529517, -0.007547718472778797, -0.010961380787193775, -0.037320300936698914, -0.0015903225867077708, -0.01841040700674057, -0.008090210147202015, 0.018130913376808167, 0.03115059807896614, -0.004145227372646332, -0.01869773492217064], [0.04125729948282242, 0.046036332845687866, -0.08255434781312943, -0.024883413687348366, -0.017931323498487473, -0.034885626286268234, -0.04545465111732483, 0.002357651013880968, 0.00047441734932363033, 0.04728403687477112, -0.10764013975858688, 0.0023608042392879725, 0.020090999081730843, -0.014607512392103672, -0.06330090016126633, -0.0037186353001743555, -0.011963059194386005, -0.029804369434714317, -0.05430540069937706, -0.04232938587665558, -0.035887014120817184, -0.025051945820450783, 0.0714937224984169, -0.13133485615253448, 0.0733167827129364, 0.012387892231345177, 0.036530960351228714, 0.0058440156280994415, 0.06945204734802246, 0.005984301678836346, -0.02426387183368206, -0.017874563112854958, -0.15372033417224884, -0.025446606799960136, -0.02955464832484722, -0.025019021704792976, 0.006341816391795874, 0.01683765836060047, -0.00954163447022438, -0.045549869537353516], [0.0645173043012619, 0.0516844280064106, -0.13099399209022522, -0.03602564334869385, 0.00024790092720650136, -0.06917063146829605, -0.07802937924861908, 0.00271784164942801, 0.0016511300345882773, 0.07388325035572052, -0.12675920128822327, 0.0022929662372916937, -0.021301735192537308, -0.017076628282666206, -0.17729797959327698, -0.010712968185544014, -0.019336707890033722, -0.04631489887833595, -0.10685329139232635, -0.059342216700315475, -0.048188213258981705, -0.03875730559229851, 0.0858391597867012, -0.23777465522289276, 0.20801424980163574, -0.03376710042357445, 0.09066630899906158, 0.011404749006032944, 0.1037643626332283, 0.01172706950455904, -0.033154964447021484, -0.03061830811202526, -0.23610614240169525, -0.0318472795188427, -0.050419896841049194, -0.03754899278283119, 0.026167675852775574, 0.03210185095667839, -0.026103707030415535, -0.07962121069431305], [-0.03627649322152138, -0.03808430954813957, 0.15544356405735016, 0.004882751032710075, -0.016987912356853485, 0.02102576196193695, -0.01952524110674858, -0.001821190700866282, -0.1144118532538414, -0.02763521298766136, 0.08439704775810242, -0.0024956660345196724, 0.02137274295091629, 0.009712057188153267, 0.015158726833760738, -0.002099958946928382, 0.009274022653698921, 0.020814917981624603, 0.035244420170784, 0.02808740921318531, 0.024474455043673515, 0.02314978651702404, -0.05725076422095299, 0.037134960293769836, -0.028243929147720337, -0.05652790516614914, -0.029339175671339035, -0.00637062918394804, -0.06277144700288773, -0.003927457146346569, 0.01881689578294754, 0.011030524969100952, 0.11692453920841217, 0.041399650275707245, 0.016343986615538597, 0.022302623838186264, -0.04703250899910927, 0.017124788835644722, 0.020336939021945, 0.03732185810804367], [0.011478187516331673, 0.010225462727248669, -0.057148974388837814, -0.006962148007005453, -0.018720893189311028, -0.010155215859413147, 0.005426870658993721, 0.0008556352695450187, -0.004490578547120094, 0.009672817774116993, -0.011874017305672169, 0.0001430432457709685, -0.006110291928052902, -0.003380031092092395, -0.041688330471515656, -0.0018244389211758971, -0.002786644734442234, -0.009923554956912994, 0.0026247829664498568, -0.00647709472104907, -0.007540817838162184, -0.0011304778745397925, 0.003230423666536808, -0.05586579814553261, 0.05205409228801727, 0.023321248590946198, 0.015354292467236519, 0.00229856139048934, 0.016987446695566177, 0.002585978712886572, -0.005265303421765566, -0.004133641254156828, -0.03105490282177925, -0.007351497653871775, 0.0013007414527237415, -0.0024492640513926744, -0.0032510049641132355, -0.007828854024410248, -0.005270682275295258, -0.013436715118587017], [-5.768465143773938e-06, -3.058506263187155e-05, -0.003018083283677697, -9.973606938729063e-05, -1.3045705600234214e-05, 3.698747241287492e-05, -0.0007584876730106771, -8.844643161864951e-06, 5.275037892715773e-06, -0.00039170769741758704, -0.00015638965123798698, -2.290949396410724e-06, -0.001637695007957518, -1.0832221960299648e-05, 6.421878060791641e-05, -0.00011892022303072736, -3.07313421217259e-05, 2.5001119865919463e-05, 0.0025287673342972994, 6.967704393900931e-05, -0.00014094269135966897, 8.032190817175433e-05, -0.000740766350645572, -0.0009774034842848778, 0.00012868017074652016, 9.86219456535764e-05, 6.02857289777603e-05, -1.2498310752562247e-05, 9.404163574799895e-05, 1.2453258932509925e-05, 1.521940703241853e-05, -4.355186774773756e-06, -0.00021851554629392922, 8.611123485025018e-05, 6.050741490071232e-07, -4.635427103494294e-05, 6.249007856240496e-05, 0.00022987312695477158, 7.294530951185152e-05, -0.0001293781097047031], [0.01977420039474964, 0.01775044947862625, -0.028008325025439262, -0.013297341763973236, -0.03048611432313919, -0.017238877713680267, 0.032995253801345825, 0.0029563282150775194, -0.007899600081145763, 0.007882657460868359, -0.02576528489589691, 0.0007659703842364252, -0.0035303602926433086, -0.009835963137447834, -0.04189271852374077, -0.0031124684028327465, -0.004194796085357666, -0.016680043190717697, -0.00721614109352231, -0.014654522761702538, -0.013837256468832493, -0.003797539509832859, 0.007075225003063679, -0.06631802767515182, 0.06190211698412895, -0.020878009498119354, 0.018941354006528854, 0.0016997017664834857, 0.03022024966776371, 0.004981971811503172, -0.010843436233699322, -0.0070085530169308186, -0.04747188091278076, -0.01394301000982523, 3.547189771779813e-05, -0.00504179997369647, -0.0036746650002896786, -0.0024364744313061237, -0.009945848025381565, -0.02518528699874878], [0.00040199540671892464, 0.00030794215854257345, -0.003165686037391424, -0.00015320689999498427, -0.0016966547118499875, -0.00014415393525268883, 0.0008580099674873054, -4.079886821273249e-06, 0.002239261521026492, 1.8798598830471747e-05, -0.0005473573692142963, 2.2580252334591933e-05, -0.0013444891665130854, -0.00011498406092869118, -0.0003855218237731606, -5.201275780564174e-05, -6.4101091993507e-05, -0.00012062834139214829, 0.0016616875072941184, -0.00023171778593678027, -0.00022698189422953874, 8.214663830585778e-05, 0.0004342924221418798, -0.0016104534734040499, 0.0007154306513257325, 0.0007850858964957297, 0.000337886594934389, 2.5871289835777134e-05, 0.000780502799898386, 6.9999965489842e-05, -0.0001995450584217906, -6.114679126767442e-05, -0.0008853740873746574, -0.0003908057988155633, 0.00022938377514947206, -3.480510349618271e-05, -0.0006357193924486637, -0.0010747869964689016, -4.764501136378385e-05, -0.0003081586037296802], [0.003018304007127881, 0.0010905744275078177, -0.00979301705956459, -0.0006190451676957309, -0.005140359979122877, -0.0007815510034561157, -0.002531967591494322, -0.0002235822903458029, 0.006092696450650692, -0.0013427669182419777, -0.0035086371935904026, -0.0006341447005979717, -0.00527301337569952, -0.0010194822680205107, -0.00046047018258832395, -0.0005648216465488076, -0.00029950105817988515, -0.001099162152968347, 0.007192809600383043, -0.002113372553139925, -0.0009363559656776488, -0.0008494367939420044, -0.0016414935234934092, -0.006414188537746668, 0.0022572241723537445, 0.001905730809085071, 0.0008683413616381586, -2.9062381145195104e-05, 0.004137312527745962, 0.0004799746093340218, -0.0009482846362516284, 0.0007776077254675329, -0.0035557360388338566, -0.002093852497637272, 0.0003151615965180099, -7.495384488720447e-05, 0.0006129107205197215, -0.004003563895821571, -4.481371888687136e-06, -0.0017288705566897988], [0.005070664454251528, 0.006149383261799812, -0.005395952146500349, 0.0012498032301664352, -0.022353753447532654, 0.0019506474491208792, -0.0015308220172300935, 0.00048827932914718986, 0.012292862869799137, 0.00041597048402763903, 0.00481212604790926, -0.00017199695867020637, -0.0027571883983910084, -0.0023259513545781374, -0.002817318541929126, 0.0016161809908226132, 0.0011199878063052893, -0.007523815147578716, 0.006772198248654604, 0.004108427092432976, 0.004090889357030392, 0.007824305444955826, -0.0026333462446928024, -0.010582066141068935, 0.00894120428711176, 0.011680623516440392, 5.839431469212286e-05, 0.0002626368950586766, 0.0012814782094210386, 0.00012231423170305789, -0.002206984907388687, 0.0026661225128918886, 0.0003476642305031419, -0.004083862528204918, 0.010134975425899029, 0.0026192779187113047, -0.006997364107519388, -0.020014451816678047, -0.003227571491152048, -0.0008453656919300556], [0.04633232206106186, 0.019701285287737846, -0.0961659774184227, -0.03712843731045723, -0.02868984080851078, -0.06308666616678238, -0.041500091552734375, -0.001393115264363587, -0.16261345148086548, 0.05683930218219757, -0.024971457198262215, 0.001069793477654457, -0.0017634695395827293, -0.02549433521926403, -0.2438182830810547, -0.0067986599169671535, -0.009644269943237305, -0.03066387213766575, -0.04887852445244789, -0.01318996213376522, -0.04076782241463661, 0.009597811847925186, 0.013302616775035858, -0.24804194271564484, 0.308866411447525, -0.029025357216596603, 0.0771278440952301, 0.011517434380948544, 0.047832779586315155, 0.01000426709651947, -0.0218192208558321, -0.01845697872340679, -0.10552886128425598, -0.012966562062501907, -0.01303050946444273, -0.018114300444722176, -0.07394666224718094, 0.020997995510697365, -0.005972632206976414, -0.06037403270602226], [-0.0033246451057493687, -0.0011187033960595727, 0.012611042708158493, 0.0024285120889544487, -0.0031125966925174, 0.002656771568581462, 0.0027915427926927805, -0.0001881065545603633, -0.0022679006215184927, -0.006293486803770065, 0.002205472206696868, -0.0001836595474742353, 0.00097274238942191, 0.0013961967779323459, 0.008549075573682785, 0.0006415979005396366, -0.0005149463540874422, 0.0014971772907301784, 0.012237688526511192, 0.004251382313668728, -0.0007325289188884199, 0.0049442630261182785, -0.008579622954130173, 0.013794916681945324, -0.00617268355563283, 0.006775976158678532, -0.003906342200934887, -0.0006071798852644861, -0.00310874474234879, -5.550308196689002e-05, 0.0006399459089152515, 0.002195726614445448, 0.0007103252573870122, 0.0007017110474407673, 0.0038773175328969955, 0.001176097197458148, -0.0042007556185126305, -0.0029223321471363306, 0.0018992985133081675, 0.00189144816249609], [0.015309175476431847, 0.012920021079480648, 0.0697569027543068, 0.008964364416897297, -0.27672886848449707, 0.026222290471196175, 0.058098237961530685, 0.004106436390429735, 0.05416140705347061, -0.004373969975858927, 0.03447829931974411, 0.005746716633439064, 0.04913085326552391, -0.0001386546209687367, 0.010907107964158058, 0.016420163214206696, 0.012870235368609428, -0.028633812442421913, 0.013091540895402431, 0.04108458012342453, 0.0265387874096632, 0.08386433869600296, -0.018389033153653145, -0.02147052437067032, 0.02381066419184208, 0.139524444937706, -0.02228112332522869, 0.0051434957422316074, -0.012096211314201355, -0.004628799855709076, -0.003946109674870968, 0.03143468126654625, 0.010011427104473114, -0.05663199722766876, 0.11244368553161621, 0.01920025423169136, -0.08567594736814499, -0.1501433253288269, 0.004516254644840956, 0.01403643935918808], [0.002259267494082451, 0.0034469508100301027, -0.007912106812000275, 0.0001255640818271786, -0.015975158661603928, 0.0007474964950233698, -0.0031448991503566504, 0.00031671414035372436, 0.010243191383779049, -0.0011851713061332703, 0.003500447841361165, 0.00020324288925621659, -0.005099906120449305, -0.0006302327965386212, -0.0037097700405865908, 0.0005178003921173513, 0.0007409311947412789, -0.0040908083319664, 0.010008884593844414, 0.002864884678274393, 0.0027313828468322754, 0.00549254659563303, -0.004185224883258343, -0.009533664211630821, 0.008488061837852001, 0.007243123836815357, 0.00015205559611786157, 0.00015911621449049562, 0.0010639163665473461, 0.00022093873121775687, -0.0011063356650993228, 0.0018232915317639709, 0.0002718439500313252, -0.0031649498268961906, 0.006501004099845886, 0.0015588781097903848, -0.004359030164778233, -0.014853551052510738, -0.001968605676665902, -0.00016282955766655505], [0.0025303587317466736, 0.0063036344945430756, 0.04711895063519478, 0.0035813827998936176, -0.14109140634536743, 0.020493805408477783, 0.0799245536327362, 0.0038213550578802824, 0.04358823969960213, -0.020942622795701027, 0.039144646376371384, 0.003931792918592691, -0.011075551621615887, 0.0019880281761288643, 0.04439270868897438, 0.005443490110337734, 0.007759771775454283, -0.016438649967312813, 0.020258210599422455, 0.018243053928017616, 0.0195115115493536, 0.03885539248585701, -0.022265871986746788, 0.03677487000823021, -0.0267166905105114, 0.02195247821509838, -0.02356705628335476, 0.0013067160034552217, -0.013337211683392525, -0.003014775225892663, 0.0010471171699464321, 0.016382575035095215, 0.049512479454278946, -0.022169584408402443, 0.05864173173904419, 0.015110927633941174, -0.03989028558135033, -0.05772543326020241, 0.008235444314777851, 0.013165684416890144], [-0.02589787170290947, -0.03469587862491608, 0.04802849516272545, 0.034562546759843826, -0.1837375909090042, 0.04854188114404678, -0.12171908468008041, 0.0015263480599969625, -0.004240446723997593, -0.026444463059306145, 0.12111594527959824, 0.002860946813598275, 0.002463387791067362, 0.009557794779539108, 0.01697300188243389, 0.018746552988886833, 0.024072034284472466, 0.001835871022194624, 0.054185524582862854, 0.07786709070205688, 0.063419871032238, 0.09396275132894516, -0.06488020718097687, 0.030311398208141327, 0.0033880406990647316, 0.10447648912668228, -0.045985497534275055, -0.0022596775088459253, -0.08534938097000122, -0.010211208835244179, 0.01964646577835083, 0.04416202753782272, 0.12034744024276733, -0.008978767320513725, 0.10606951266527176, 0.04118981212377548, -0.10629929602146149, -0.15671250224113464, 0.021522587165236473, 0.059361182153224945], [0.016268916428089142, 0.025225477293133736, 0.006699880585074425, 0.08292070031166077, 0.03463350236415863, -0.02358364686369896, 0.027360985055565834, 0.00083357491530478, 0.07777418196201324, 0.12015540152788162, 0.002508533652871847, -0.0003730138996616006, 0.16723020374774933, -0.0069973887875676155, -0.01332007721066475, 0.03010861761868, -0.00019126465485896915, -0.03142785653471947, 0.028608452528715134, -0.009350145235657692, -0.00464342487975955, -0.013868194073438644, 0.0033515463583171368, 0.031706925481557846, 0.03024636022746563, 0.13848742842674255, 0.018427789211273193, 0.004278889857232571, 0.027380486950278282, 0.004485069774091244, -0.010949136689305305, -0.006324810907244682, 0.01349619496613741, -0.0010165965650230646, 0.0027315800543874502, -0.0014818719355389476, 0.03068309836089611, 0.0021946425549685955, -0.008864766918122768, -0.009081698954105377], [0.016998596489429474, 0.014735342934727669, -0.041412681341171265, -0.01243150420486927, -0.020746106281876564, -0.017432518303394318, 0.024999594315886497, 0.0015863829758018255, -0.020457714796066284, 0.00882561132311821, -0.01921871304512024, 0.002138554584234953, -0.004545179661363363, -0.007793990429490805, -0.04503164440393448, -0.003286754246801138, -0.004041330888867378, -0.01374967023730278, -0.004767569247633219, -0.012720763683319092, -0.013425017707049847, -0.004662996158003807, 0.003381427377462387, -0.06479300558567047, 0.06310783326625824, -0.022119585424661636, 0.01730368472635746, 0.003011266468092799, 0.024592798203229904, 0.0042247530072927475, -0.008708019740879536, -0.00783727690577507, -0.038759879767894745, -0.010141090489923954, -0.0023734383285045624, -0.005174369551241398, -0.004929324146360159, 0.0019535378087311983, -0.006718034390360117, -0.020951049402356148], [-0.010338524356484413, -3.2869353162823245e-05, -0.10498524457216263, 0.0036198238376528025, -0.051933202892541885, 0.028802769258618355, -0.029739471152424812, 0.004298396874219179, 0.11864408850669861, -0.010496976785361767, -0.01734934374690056, 0.0019363523460924625, -0.033613305538892746, 0.006078432779759169, 0.004881208762526512, 0.012757441960275173, 0.019127679988741875, 0.0039014762733131647, 0.04536455124616623, 0.017715172842144966, 0.028768667951226234, 0.021701978519558907, 0.03187711536884308, -0.08625186234712601, 0.04725297912955284, 0.11940641701221466, 0.0012522496981546283, -0.00891667976975441, -0.00865393877029419, -0.015201651491224766, 0.015266607515513897, 0.027097085490822792, -0.06298387050628662, -0.007516013458371162, 0.038956157863140106, 0.01873392052948475, 0.017211157828569412, -0.14247752726078033, -0.01791422814130783, 0.0003086349170189351], [-0.040178216993808746, -0.02626054175198078, -0.11774619668722153, -0.06331562250852585, -0.037980496883392334, 0.06459734588861465, -0.027150478214025497, 0.004334332887083292, 0.1412104070186615, -0.0070525710470974445, 0.037926264107227325, 0.0017766039818525314, 0.08183281123638153, 0.013527617789804935, 0.11415582150220871, 0.024938734248280525, 0.02984151430428028, 0.02356458269059658, 0.10581208020448685, 0.0342581644654274, 0.050108980387449265, 0.04716205596923828, 0.004268148448318243, 0.017178401350975037, -0.01801244355738163, 0.22093430161476135, -0.048789460211992264, -0.0095332907512784, -0.04864434152841568, -0.022457383573055267, 0.029912257567048073, 0.04266006872057915, 0.0017764198128134012, 0.005853635724633932, 0.057092707604169846, 0.02632530778646469, -0.006323792971670628, -0.12820859253406525, -0.0014627643395215273, 0.03742480278015137], [0.22237813472747803, 0.060837455093860626, 0.254658579826355, 0.10757805407047272, 0.13611988723278046, -0.247023805975914, 0.11041823774576187, 0.004952474031597376, 0.07518798112869263, 0.174137681722641, -0.08242682367563248, -0.005996997933834791, 0.11850336194038391, -0.08370556682348251, -0.10879489779472351, 0.12466385215520859, -0.07171636074781418, -0.03247775137424469, -0.24952605366706848, -0.17391140758991241, -0.09170958399772644, -0.1456783562898636, 0.058598220348358154, 0.2320946902036667, -0.04521884769201279, -0.2665492594242096, -0.003867930267006159, 0.04896106943488121, 0.03152203559875488, 0.026180995628237724, -0.06461700052022934, -0.16229596734046936, 0.011453217826783657, -0.13197766244411469, 0.08762892335653305, 0.05187823995947838, 0.09530863165855408, 0.38879671692848206, 0.1888587325811386, -0.10030542314052582], [0.015742847695946693, 0.015853680670261383, 0.11020541936159134, -0.016494834795594215, 0.04797793924808502, 0.013464529067277908, -0.045269083231687546, -0.007794659584760666, 0.06144799664616585, 0.11859705299139023, -0.04614698886871338, -0.0030786655843257904, 0.12216377258300781, -0.013113046996295452, -0.09214571863412857, -0.03387665003538132, -0.013019084930419922, -0.002482584910467267, -0.03888992220163345, -0.0024483546148985624, -0.02979331649839878, -0.11752428114414215, 0.055811937898397446, 0.06998758763074875, 0.07520052045583725, -0.003099398920312524, 0.04549660161137581, 0.012426587752997875, 0.040128763765096664, 0.008319239132106304, -0.008905597031116486, -0.026019154116511345, -0.022143810987472534, -0.10818358510732651, -0.02531946823000908, -0.012856476940214634, 0.010918684303760529, 0.04272095859050751, -0.012054860591888428, -0.05008549988269806], [-0.02535075880587101, -0.05335620045661926, -0.2399030476808548, -0.003427978605031967, 0.15220171213150024, 0.013458527624607086, -0.2728041708469391, -0.007755194325000048, 0.04244241118431091, 0.22466449439525604, 0.047254398465156555, -0.003665405325591564, -0.05675044283270836, 0.07369586080312729, 0.033259302377700806, -0.001776650082319975, 0.001696866936981678, 0.053457360714673996, -0.1498064398765564, -0.003753234865143895, 0.05833819881081581, -0.11898548901081085, 0.21592029929161072, 0.2108837366104126, -0.06255397945642471, 0.2587398588657379, 0.07824535667896271, -0.02961602807044983, -0.04735899344086647, -0.0023596221581101418, 0.031695593148469925, -0.00812732707709074, 0.02153797633945942, 0.020692456513643265, -0.04153399541974068, 0.019471365958452225, 0.2126978635787964, -0.048957955092191696, -0.07972819358110428, 0.017971791326999664], [0.021868860349059105, 0.023079954087734222, -0.08219175040721893, -0.004221922252327204, -0.057534053921699524, -0.026603469625115395, 0.048886481672525406, -0.005338337738066912, -0.02035549096763134, -0.009497205726802349, -0.02925962395966053, -0.0007610449101775885, 0.011216321960091591, 0.002129818545654416, 0.028039734810590744, -0.00992567092180252, -0.02910044603049755, -0.010318303480744362, -0.07474531978368759, -0.009453833103179932, -0.04384230449795723, -0.005237414035946131, -0.0010990543523803353, 0.018646180629730225, -0.12360519915819168, -0.04940278083086014, 0.0317419096827507, 0.013582360930740833, 0.04238350689411163, 0.02036227099597454, -0.028063977137207985, -0.03176939859986305, -0.007418562192469835, -0.0070416624657809734, -0.017748622223734856, -0.011947328224778175, -0.039904844015836716, 0.07849770784378052, 0.005180953536182642, -0.020909659564495087], [0.1999122053384781, 0.20261530578136444, -0.4175776243209839, -0.13732855021953583, 0.04474301636219025, -0.26264554262161255, 0.6970394253730774, -0.02242928184568882, -0.21862518787384033, 0.17724919319152832, -0.4327917993068695, -0.00655923318117857, -0.044560812413692474, -0.11487158387899399, -0.24476979672908783, -0.06064027547836304, -0.13222624361515045, -0.10469420999288559, -0.13450965285301208, -0.2936829626560211, -0.289273202419281, -0.3173774778842926, 0.0790843516588211, -0.008310372941195965, 0.20885445177555084, -0.2878861427307129, 0.21496056020259857, 0.0535719059407711, 0.324920117855072, 0.07794269174337387, -0.1449854075908661, -0.21585708856582642, -0.3545047342777252, -0.03131476044654846, -0.33564049005508423, -0.16308754682540894, 0.26158374547958374, 0.43961045145988464, -0.28698474168777466, -0.36554035544395447], [0.001602196367457509, 0.004341193474829197, 0.04462466761469841, -0.006370732095092535, -0.004229636862874031, -0.0047753797844052315, 0.011072946712374687, -0.010506716556847095, 0.006666713394224644, 0.024376900866627693, -0.01898992620408535, -0.005401222966611385, 0.0018056200351566076, -0.0001473431766498834, 0.0022904700599610806, -0.0018796775257214904, -0.004578497726470232, 0.003125000512227416, -0.01367604173719883, -0.008766617625951767, -0.008708106353878975, -0.004659232683479786, 0.017437851056456566, 0.015190072357654572, -0.010601104237139225, -0.0064303092658519745, 0.003484850749373436, 0.0035687009803950787, 0.011127794161438942, 0.0016165891429409385, -0.0030013946816325188, -0.004975386895239353, -0.023055708035826683, 0.002721331547945738, -0.005668570287525654, -0.006803433410823345, -0.0013656016672030091, 0.00943738128989935, 0.03167630732059479, -0.006392060779035091], [0.14494377374649048, 0.17005188763141632, -0.1614648997783661, -0.2357790321111679, -0.11713552474975586, -0.07324882596731186, 0.10786838084459305, 0.013084442354738712, 0.44178149104118347, 0.06332795321941376, -0.153208389878273, 0.007266854867339134, -0.12144654989242554, -0.06102485582232475, -0.04219946265220642, -0.03668386489152908, -0.007811184506863356, -0.13705499470233917, -0.14654327929019928, -0.06489238888025284, -0.050570178776979446, -0.12053925544023514, 0.17129181325435638, -0.16205701231956482, 0.07151607424020767, 0.1777978390455246, 0.054873425513505936, -0.007131015881896019, 0.20099860429763794, 0.01683337800204754, -0.036894239485263824, -0.05936397984623909, -0.2947327792644501, -0.048498429358005524, -0.05264223739504814, -0.03502698242664337, 0.11910229176282883, -0.17272448539733887, -0.18886835873126984, -0.20438283681869507], [0.0008445183048024774, 0.022727016359567642, -0.1497674584388733, -0.03514302894473076, -0.021790780127048492, 0.03225324675440788, -0.07673744112253189, -0.0013178078224882483, 0.003784925676882267, -0.04372522979974747, -0.08925572782754898, -0.0021200969349592924, 0.0018710530130192637, -0.0024208298418670893, -0.08592011034488678, 0.0048454878851771355, 0.008706032298505306, -0.006705606356263161, -0.021423975005745888, 0.006987687200307846, -0.004274809267371893, -0.017160480841994286, 0.1160561665892601, -0.1350928395986557, 0.05967272073030472, 0.16470125317573547, 0.0905536487698555, -0.008390132337808609, 0.019760247319936752, -0.006936817429959774, -0.00011872072354890406, 0.012754924595355988, -0.14579761028289795, -0.03729913756251335, 0.0019402413163334131, -0.008413325063884258, 0.05154787376523018, -0.0724472776055336, -0.08453460037708282, -0.022698216140270233], [0.11748214811086655, 0.08422042429447174, 0.3995618224143982, -0.07486962527036667, 0.08498775213956833, -0.1531030535697937, 0.09401050209999084, -0.021059079095721245, -0.1009201630949974, 0.14693018794059753, -0.14481189846992493, -0.0067094117403030396, -0.02572205476462841, -0.11237449198961258, -0.25265729427337646, 0.04452630877494812, -0.09065306186676025, -0.07981311529874802, -0.08208057284355164, -0.13420741260051727, -0.1536785066127777, -0.09916482120752335, 0.08973489701747894, -0.0955967828631401, 0.09546951204538345, -0.2363392561674118, 0.1711588203907013, 0.03318054601550102, 0.1977585107088089, 0.07681015133857727, -0.09541720151901245, -0.1714659333229065, -0.0008940723491832614, 0.09578137844800949, -0.046514514833688736, -0.10472149401903152, 0.05676930397748947, 0.28664350509643555, -0.026974258944392204, -0.1565885990858078], [-0.0031994504388421774, -0.003693321021273732, 0.018426550552248955, 0.0015770676545798779, -0.0016154899494722486, 0.0012571632396429777, 0.007766837254166603, -0.006810254417359829, -0.00254606525413692, -0.000589417468290776, 0.0005499658873304725, -0.003498600097373128, 0.014256266877055168, 0.0023078646045178175, 0.0067004249431192875, 0.00015966544742695987, -0.00046517702867276967, 0.005387438926845789, -0.010445495136082172, 0.0016867079539224505, 0.0005349841667339206, 0.004053494427353144, 0.0009799262043088675, -0.0027743736281991005, -0.00829963106662035, 0.0027067731134593487, -0.001918051508255303, 0.0034411251544952393, -0.001344252610579133, -0.00026620106655173004, 0.00026887463172897696, 0.0013821127358824015, -0.003185418900102377, 0.0008746805833652616, 0.002654152223840356, -0.0006936455029062927, -0.010098854079842567, -0.002771717729046941, -0.00097154505783692, 0.0005289316759444773], [0.004481818061321974, 0.009312939830124378, 0.09362397342920303, 0.005242516752332449, -0.03398432210087776, -0.002943682251498103, 0.07695755362510681, -0.002736410591751337, 0.03728470206260681, 0.03729018568992615, -0.0032150489278137684, -0.0024458335246890783, 0.01725935749709606, 0.008406097069382668, -0.058857474476099014, -0.0011617850977927446, -0.003416911931708455, -0.00034906601649709046, -0.0908699482679367, 0.022273031994700432, -0.008532589301466942, 0.013676546514034271, 0.010377605445683002, 0.03630641847848892, 0.04066822677850723, 0.12738141417503357, 0.01945967599749565, -0.0007147558499127626, 0.019480908289551735, 0.003229178488254547, -0.0027958424761891365, 0.005953192710876465, -0.040493667125701904, -0.023890575394034386, 0.029183026403188705, 0.005452350247651339, -0.028597313910722733, -0.060378849506378174, -0.016315162181854248, -0.02571919932961464], [-4.01905199396424e-05, -0.0001459890918340534, 0.12446184456348419, 0.0032180924899876118, 0.04197467491030693, -0.007494030985981226, 0.031675200909376144, -0.0032908672001212835, -0.06598357856273651, 0.00844975933432579, -0.0012390047777444124, -0.0012041054433211684, 0.10454116016626358, -0.007541695609688759, 0.022177092730998993, 0.0012590230908244848, -0.00859657023102045, 0.004015057347714901, -0.025105392560362816, -0.007563682738691568, -0.01541543286293745, -0.0052504469640553, 0.01790670119225979, 0.05955072492361069, -0.0501701794564724, -0.01030284445732832, -0.0032564359717071056, 0.003454267978668213, 0.00675872853025794, 0.0065481713972985744, -0.005418826825916767, -0.008422520942986012, 0.010368414223194122, 0.005484637804329395, -0.01528182439506054, -0.008195045404136181, -0.007492949720472097, 0.04657849296927452, 0.006936350837349892, -0.0015369855100288987], [-0.018190205097198486, 0.037606365978717804, 0.2658092677593231, 0.1859796941280365, 0.030581871047616005, -0.06691351532936096, 0.11503893882036209, -0.0002633898111525923, 0.17477431893348694, 0.029331550002098083, -0.09252718091011047, 0.002168233972042799, 0.37978652119636536, 0.03741808980703354, -0.02301052398979664, 0.0769115462899208, -0.023563329130411148, 0.005304587539285421, -0.10193969309329987, -0.05846727639436722, -0.034442152827978134, 0.036039065569639206, 0.0873510017991066, 0.11663001030683517, -0.6062982678413391, 0.1416466385126114, -0.15723897516727448, 0.016696376726031303, 0.07495681196451187, 0.013031640090048313, -0.0343959704041481, -0.030022840946912766, -0.03538505360484123, 0.03151087090373039, 0.09608004987239838, -0.16807672381401062, 0.08963282406330109, -0.018351860344409943, -0.01688825711607933, 0.025174126029014587], [0.01920676976442337, 0.025618186220526695, -0.012031888589262962, -0.01558553334325552, -0.0861722007393837, -0.01183686126023531, 0.010354666039347649, -0.0023592649959027767, 0.0018402881687507033, 0.002843448892235756, -0.0408143512904644, -0.0012085196794942021, -0.03344281390309334, -0.001547154039144516, -0.025499824434518814, -0.013901359401643276, -0.007843227125704288, -0.01927478052675724, 0.05065207555890083, -0.0015467695193365216, -0.020890232175588608, 0.012905589304864407, -0.003138577798381448, -0.04839380457997322, 0.035614319145679474, -0.0030232856515794992, 0.024316076189279556, 0.0038619348779320717, 0.03686875104904175, 0.006492466200143099, -0.015289158560335636, -0.005576578434556723, -0.05884186923503876, -0.012386293150484562, 0.019329572096467018, -0.013703074306249619, -0.015150640159845352, -0.025137757882475853, -0.010972199030220509, -0.02626807428896427], [0.02728220447897911, 0.025605086237192154, -0.022502480074763298, -0.02624725177884102, -0.03315332159399986, -0.02935362420976162, 0.004201881121844053, -0.003566339146345854, -0.021349545568227768, 0.015092136338353157, -0.04585201293230057, -0.0009053126559592783, -0.070988230407238, -0.005696140695363283, -0.02745361067354679, -0.02099127136170864, -0.022234568372368813, -0.010589705780148506, 0.016814278438687325, -0.030593710020184517, -0.041632771492004395, -0.018709596246480942, -0.011629016138613224, -0.046727634966373444, 0.003771752817556262, -0.02971203811466694, 0.03731994703412056, 0.008896974846720695, 0.058402255177497864, 0.013845392502844334, -0.021275365725159645, -0.03290613740682602, -0.04090059548616409, -0.0037742259446531534, -0.014499220997095108, -0.028410397469997406, 0.01167064905166626, 0.06383876502513885, -0.018210355192422867, -0.04008845239877701], [0.008765521459281445, 0.007486527319997549, 0.07311519980430603, -0.007208772469311953, 0.026031386107206345, -0.020298799499869347, -0.010352282784879208, -0.001975907711312175, -0.10900207608938217, -0.01651858538389206, 0.00392112648114562, -0.0014987322501838207, -0.036956414580345154, -0.008571982383728027, -0.013573547825217247, -0.008063006214797497, -0.008839101530611515, -0.0229285079985857, -0.023193737491965294, -0.003632783656939864, -0.016568567603826523, -0.0019096748437732458, -0.04124709591269493, 0.06265249848365784, -0.013598156161606312, -0.12898266315460205, -0.007945447228848934, 0.00372159481048584, 0.0007257287506945431, 0.011139717884361744, -0.016153527423739433, -0.007998052053153515, 0.028862569481134415, 0.00340425968170166, -0.036426860839128494, -0.013446617871522903, -0.03039434552192688, 0.11503720283508301, 0.017972424626350403, 0.009523626416921616], [-0.033489637076854706, -0.03696436807513237, 0.16459180414676666, 0.042309436947107315, 0.027793141081929207, 0.015909438952803612, -0.013086650520563126, -0.00043921335600316525, -0.16873286664485931, -0.03724241629242897, 0.058728717267513275, 0.00022928076214157045, -0.04813285171985626, 0.005236863158643246, 0.03756856173276901, -0.011103211902081966, -0.0002187172503909096, 0.02855624072253704, 0.06387105584144592, 0.01243580412119627, 0.012581300921738148, 0.008462385274469852, -0.1118423268198967, 0.09153160452842712, -0.06231403723359108, -0.19269663095474243, -0.051916323602199554, -0.0036519381683319807, -0.059964895248413086, -0.0018042509909719229, 0.015521984547376633, -0.004115352872759104, 0.12440763413906097, 0.039236124604940414, -0.021365152671933174, 0.0026369495317339897, -0.025223128497600555, 0.13348087668418884, 0.054892636835575104, 0.05986740440130234], [0.03651992231607437, 0.04040336608886719, 0.0882585272192955, -0.033916063606739044, -0.0119474483653903, -0.09028702974319458, 0.06899994611740112, -0.013647325336933136, -0.19621969759464264, -0.13008494675159454, -0.07803961634635925, -0.0022617208305746317, 0.03191166743636131, -0.006566615309566259, -0.13036330044269562, 0.011118057183921337, -0.045289527624845505, -0.02493280917406082, 0.13212233781814575, -0.08924170583486557, -0.08701953291893005, -0.0045860521495342255, -0.11732088029384613, -0.19869744777679443, 0.09025786072015762, 0.11854144185781479, 0.12905853986740112, -0.016760027036070824, 0.10515386611223221, 0.03320692479610443, -0.03871159628033638, -0.09198329597711563, -0.025583410635590553, 0.0722285658121109, -0.09981857240200043, -0.04011325165629387, 0.012322068214416504, 0.1991884410381317, 0.011610276065766811, -0.06589500606060028], [0.049466572701931, 0.0443844310939312, -0.17491032183170319, -0.028626523911952972, -0.00044492175220511854, -0.06185648962855339, -0.049393169581890106, -0.008445996791124344, -0.03963407874107361, 0.0260910727083683, -0.08115995675325394, -0.0020787648390978575, 0.15227533876895905, -0.014318053610622883, 0.013327261433005333, -0.006348894443362951, -0.0466749407351017, -0.020121153444051743, -0.14101296663284302, -0.040130164474248886, -0.07543961703777313, -0.021051766350865364, 0.0025713383220136166, -0.08491410315036774, -0.08777247369289398, 0.011475169099867344, 0.04908075928688049, 0.0046599674969911575, 0.09470327198505402, 0.0301364716142416, -0.04162058234214783, -0.07252949476242065, -0.01048701349645853, 0.031579699367284775, -0.040032967925071716, -0.057689227163791656, 0.040830012410879135, 0.12438619136810303, -0.05143967270851135, -0.04871169850230217], [0.0443369522690773, 0.028352463617920876, 0.6115459203720093, 0.031397804617881775, -0.11452013999223709, -0.13482213020324707, 0.0985909178853035, -0.008823291398584843, -0.15403106808662415, 0.0792657807469368, -0.05686916038393974, -0.0019179955124855042, 0.08973748981952667, -0.05073001980781555, -0.21857823431491852, -0.05423566326498985, -0.045765507966279984, -0.021676070988178253, 0.153175950050354, 0.04310709983110428, -0.12668083608150482, -0.010374496690928936, -0.1486087143421173, -0.10423514246940613, 0.1657847762107849, -0.09008923172950745, 0.06476321071386337, 0.018479129299521446, 0.12699535489082336, 0.03940484672784805, -0.03733036667108536, -0.13213030993938446, 0.04563301429152489, -0.1016450971364975, 0.08469860255718231, -0.08741465210914612, -0.15410320460796356, 0.3604699671268463, 0.06394010037183762, -0.08359427005052567], [0.010194671340286732, 0.020209182053804398, -0.3857986032962799, 0.032234419137239456, -0.15141384303569794, 0.06143634766340256, -0.1475832164287567, 0.005001104436814785, 0.2381305694580078, -0.07880955189466476, 0.006226810626685619, 0.0011191436788067222, 0.12286201119422913, 0.05313795059919357, 0.14449577033519745, 0.025361882522702217, 0.007338587194681168, -0.01229426171630621, -0.08188314735889435, 0.0023175457026809454, 0.027433400973677635, 0.09807775169610977, 0.01524693425744772, -0.10192042589187622, -0.0894673690199852, 0.3263981342315674, -0.021634304895997047, -0.02555123157799244, -0.00888092815876007, -0.006167314480990171, -0.003950595855712891, 0.05148747190833092, -0.09699339419603348, 0.05680600553750992, -0.0009657436748966575, 0.00631982646882534, 0.06328685581684113, -0.23495301604270935, -0.12436319887638092, -0.014688071794807911], [-0.05408015102148056, -0.018792754039168358, -0.08270969986915588, 0.0010811412939801812, 0.19743967056274414, 0.07107794284820557, 0.14679817855358124, -0.008883007802069187, 0.04234202206134796, 0.1405390501022339, -0.060045257210731506, -0.0015880264109000564, 0.07751494646072388, 0.1190071702003479, 0.08873221278190613, -0.02603854238986969, 0.021055521443486214, 0.04394863545894623, -0.06516394019126892, 0.03825724497437477, 0.03460097685456276, -0.04941556975245476, 0.2611537277698517, -0.08008171617984772, -0.19824138283729553, 0.27009037137031555, -0.059022869914770126, -0.036103442311286926, -0.039575301110744476, -0.016491206362843513, 0.0297918189316988, 0.02026706002652645, 0.010430746711790562, 0.02451127953827381, 0.048347651958465576, -0.02815956436097622, 0.13850587606430054, -0.03965296968817711, 0.01293958630412817, 0.08545169979333878], [-0.0018065012991428375, -0.06946402043104172, -0.3735311031341553, -0.08113793283700943, -0.16163675487041473, -0.019051915034651756, -0.10199762880802155, 0.0005638061556965113, -0.25981345772743225, -0.042705681174993515, 0.10691585391759872, -0.0012198863551020622, -0.22142168879508972, 0.015278234146535397, -0.4444032907485962, 0.07370847463607788, 0.028410153463482857, 0.0013840083265677094, -0.16607584059238434, 0.0654093399643898, 0.028624314814805984, 0.036865245550870895, -0.034689631313085556, -0.12110462784767151, 0.18380627036094666, -0.363622784614563, 0.09501181542873383, -0.018069300800561905, -0.08259090036153793, -0.012813025154173374, 0.0355493426322937, 0.020230144262313843, 0.026741670444607735, 0.09326408058404922, -0.06698335707187653, 0.033800140023231506, -0.1691434532403946, -0.03310395032167435, 0.05099071189761162, 0.009552725590765476], [0.026484334841370583, 0.012304478324949741, 0.2370898276567459, -0.2749049663543701, -0.11831281334161758, -0.16405068337917328, -0.04372624680399895, -0.04348737746477127, 0.1550590544939041, -0.18595288693904877, 0.026444358751177788, -0.005610454827547073, 0.11225001513957977, -0.06051451340317726, -0.21002823114395142, -0.25435495376586914, -0.06105613708496094, -0.0028458067681640387, -0.013807948678731918, -0.11622846871614456, -0.15307927131652832, -0.03270426020026207, 0.22538039088249207, -0.7650650143623352, 0.31790629029273987, -0.08828920125961304, 0.026202935725450516, 0.0074022128246724606, 0.22722333669662476, 0.032856956124305725, -0.04684172198176384, 0.002188176615163684, -0.028287066146731377, -0.08490579575300217, -0.23837323486804962, 0.0469362735748291, -0.20614024996757507, 0.024322688579559326, -0.0746612548828125, 0.004914444405585527], [-0.04836004972457886, -0.030901223421096802, -0.15682639181613922, 0.061235275119543076, 0.046285033226013184, 0.03123914822936058, -0.007662073243409395, 0.002740533323958516, -0.016103480011224747, 0.10219921916723251, 0.06217705085873604, 0.00016663486894685775, 0.1171843484044075, 0.03548131138086319, -0.04492355138063431, 0.005860625300556421, 0.020588530227541924, 0.019173704087734222, -0.1059088483452797, 0.044967953115701675, 0.04213220253586769, 0.011601361446082592, 0.10338107496500015, 0.0386153906583786, 0.03556973859667778, 0.22263087332248688, 0.01127275638282299, 