{
    "version": "0.5.0",
    "architecture": "WaveNet",
    "config": {
        "layers": [
            {
                "input_size": 1,
                "condition_size": 1,
                "head_size": 8,
                "channels": 16,
                "kernel_size": 3,
                "dilations": [
                    1,
                    2,
                    4,
                    8,
                    16,
                    32,
                    64,
                    128,
                    256,
                    512
                ],
                "activation": "Tanh",
                "gated": false,
                "head_bias": false
            },
            {
                "input_size": 16,
                "condition_size": 1,
                "head_size": 1,
                "channels": 8,
                "kernel_size": 3,
                "dilations": [
                    1,
                    2,
                    4,
                    8,
                    16,
                    32,
                    64,
                    128,
                    256,
                    512
                ],
                "activation": "Tanh",
                "gated": false,
                "head_bias": true
            }
        ],
        "head": null,
        "head_scale": 1.0
    },
    "weights": [
        -0.6227596998214722,
        -0.03529419004917145,
        0.3563109040260315,
        -0.5908689498901367,
        -0.5172558426856995,
        0.9033282995223999,
        -0.8211271166801453,
        0.4925519526004791,
        0.08444821089506149,
        0.48491373658180237,
        -0.2189493328332901,
        -0.730830729007721,
        0.18759071826934814,
        0.6131163239479065,
        0.07866624742746353,
        -0.4522697329521179,
        0.058064986020326614,
        -0.08390641212463379,
        0.1567583978176117,
        0.09252528846263885,
        -0.11799266934394836,
        -0.11427284777164459,
        0.023642735555768013,
        -0.10704345256090164,
        -0.10809675604104996,
        0.12533298134803772,
        0.04438918083906174,
        0.1348893791437149,
        0.0879940614104271,
        0.050604380667209625,
        0.1659204661846161,
        0.10521958768367767,
        -0.030077094212174416,
        0.0026692997198551893,
        0.08179675042629242,
        0.007273680064827204,
        0.1121964380145073,
        0.012763887643814087,
        0.11222763359546661,
        -0.1612410843372345,
        -0.026913193985819817,
        -0.011684906668961048,
        -0.10608663409948349,
        0.04952767863869667,
        0.12065812945365906,
        0.06771188229322433,
        0.0756547600030899,
        0.006165536120533943,
        -0.07778382301330566,
        0.0033509687054902315,
        -0.08995934575796127,
        0.1636725664138794,
        -0.11233969032764435,
        0.024776708334684372,
        -0.18631628155708313,
        0.11011774092912674,
        0.09848085790872574,
        0.06395900994539261,
        -0.1453600972890854,
        0.0671267956495285,
        -0.09714119881391525,
        -0.04251951724290848,
        0.0826767310500145,
        0.13897116482257843,
        -0.047939661890268326,
        -0.02189403399825096,
        0.07113811373710632,
        0.05654731020331383,
        -0.013673149980604649,
        0.06878781318664551,
        0.025780901312828064,
        -0.013728989288210869,
        0.07665383815765381,
        -0.08150966465473175,
        0.07921759784221649,
        -0.031028389930725098,
        -0.01786026358604431,
        -0.10726744681596756,
        -0.1384972184896469,
        0.10846899449825287,
        0.08988312631845474,
        0.15020518004894257,
        0.1282901018857956,
        -0.05708583444356918,
        -0.06374401599168777,
        0.11747384816408157,
        0.002812026534229517,
        -0.02268427610397339,
        -0.07739002257585526,
        -0.1631717085838318,
        -0.023835519328713417,
        -0.03508846461772919,
        -0.1597951501607895,
        0.10692549496889114,
        -0.095453642308712,
        0.07677862793207169,
        -0.05564161017537117,
        0.10200154781341553,
        0.12600693106651306,
        -0.036304693669080734,
        0.08154810220003128,
        -0.11928048729896545,
        0.11512435227632523,
        -0.007875354960560799,
        -0.1005435362458229,
        -0.12908385694026947,
        -0.10843796283006668,
        0.1310722380876541,
        -0.05546307563781738,
        -0.0632471963763237,
        0.05497437343001366,
        0.1085553839802742,
        -0.07214964926242828,
        0.0692029669880867,
        0.10834052413702011,
        -0.12212453782558441,
        0.08078376203775406,
        0.003495702752843499,
        -0.12648962438106537,
        -0.11694271117448807,
        0.13161613047122955,
        -0.10373038798570633,
        -0.01396664883941412,
        -0.05246222764253616,
        0.12244797497987747,
        0.05987991765141487,
        0.1290591061115265,
        -0.08625201135873795,
        -0.082435242831707,
        -0.08988714218139648,
        -0.06436607241630554,
        0.014331446960568428,
        -0.10804577171802521,
        0.009064922109246254,
        0.03378993645310402,
        0.10589758306741714,
        -0.10960865020751953,
        -0.07940569519996643,
        -0.07585436850786209,
        -0.028873953968286514,
        0.05885390564799309,
        0.1371450275182724,
        0.07146407663822174,
        0.07758273184299469,
        0.10174649208784103,
        0.008236699737608433,
        0.10050322115421295,
        -0.1071392074227333,
        0.08336937427520752,
        -0.12798407673835754,
        -0.05335927754640579,
        0.12066809087991714,
        -0.07005693763494492,
        0.05792853981256485,
        -0.07717273384332657,
        -0.07791757583618164,
        0.01237533614039421,
        0.10988419502973557,
        0.1606045961380005,
        -0.074263796210289,
        -0.00884801521897316,
        0.17794592678546906,
        0.20135219395160675,
        -0.016505450010299683,
        0.07283278554677963,
        -0.0033065041061490774,
        0.054729148745536804,
        -0.13201750814914703,
        -0.08356248587369919,
        0.02079060487449169,
        0.06867360323667526,
        0.0533553808927536,
        0.028885671868920326,
        0.13593129813671112,
        -0.01331241987645626,
        0.03698044642806053,
        0.09555076062679291,
        -0.04054439067840576,
        -0.08514811098575592,
        0.05498022958636284,
        0.17221593856811523,
        0.08626925200223923,
        -0.0018759645754471421,
        0.056618958711624146,
        -0.129380002617836,
        0.01679697073996067,
        -0.1995348483324051,
        0.001257633208297193,
        0.03478699177503586,
        -0.03832763060927391,
        -0.05380498245358467,
        0.12629631161689758,
        0.05835758522152901,
        0.03777095302939415,
        0.1106531172990799,
        -0.04300883039832115,
        -0.19512861967086792,
        -0.029652787372469902,
        -0.2230031043291092,
        -0.17269091308116913,
        0.0831616073846817,
        -0.19924189150333405,
        -0.01290183700621128,
        0.06713494658470154,
        -0.09387501329183578,
        -0.06971751898527145,
        0.15958480536937714,
        0.2062613070011139,
        -0.05122647061944008,
        -0.049382030963897705,
        0.03482973948121071,
        -0.0678970143198967,
        0.05050353333353996,
        -0.13632778823375702,
        -0.1154673770070076,
        -0.028580229729413986,
        0.08231347799301147,
        -0.02357923425734043,
        0.018044352531433105,
        -0.03328126296401024,
        0.03084830567240715,
        0.09937024861574173,
        -0.19818934798240662,
        -0.08725927025079727,
        0.10314352065324783,
        0.0654805451631546,
        0.08557409793138504,
        0.17573687434196472,
        -0.05379277840256691,
        0.020220069214701653,
        -0.07904764264822006,
        0.17746418714523315,
        0.027501240372657776,
        -0.05897938460111618,
        0.1951763778924942,
        0.10027313977479935,
        -0.10229426622390747,
        0.1678384691476822,
        -0.06522896885871887,
        -0.08937165886163712,
        -0.08320555835962296,
        -0.060683414340019226,
        -0.09179963171482086,
        0.0571865551173687,
        -0.150336354970932,
        -0.029622800648212433,
        -0.011522671207785606,
        -0.013335876166820526,
        -0.016275685280561447,
        0.1704801470041275,
        -0.05373701453208923,
        0.09528879821300507,
        0.13976116478443146,
        -0.10439026355743408,
        0.1641121655702591,
        -0.021283302456140518,
        -0.07628477364778519,
        0.06645020842552185,
        0.06772547960281372,
        -0.13710127770900726,
        0.05003809183835983,
        -0.04742841795086861,
        0.09197419881820679,
        0.03964303061366081,
        -0.056153468787670135,
        -0.07740644365549088,
        -0.15647049248218536,
        0.02754264511168003,
        0.06025656685233116,
        -0.04993746429681778,
        -0.11233635246753693,
        -0.021477937698364258,
        0.19063054025173187,
        -0.12403982877731323,
        0.10158617049455643,
        -0.04945680871605873,
        0.06435550004243851,
        0.002359442412853241,
        0.048291292041540146,
        0.024245744571089745,
        0.056715067476034164,
        0.1255601942539215,
        -0.06205786392092705,
        0.059316568076610565,
        0.1663217395544052,
        -0.12517797946929932,
        -0.07731327414512634,
        -0.05815846845507622,
        -0.041388288140296936,
        -0.07678237557411194,
        -0.1266956478357315,
        0.011669710278511047,
        -0.06315077841281891,
        -0.05019431561231613,
        -0.11783382296562195,
        -0.12518027424812317,
        -0.00859345868229866,
        0.09772223979234695,
        0.12786725163459778,
        0.015917113050818443,
        0.1020972803235054,
        0.1138753816485405,
        0.024799896404147148,
        0.1383170485496521,
        -0.025966474786400795,
        -0.11295436322689056,
        -0.032019902020692825,
        -0.11751977354288101,
        0.07948942482471466,
        0.0306752547621727,
        -0.12440982460975647,
        0.09467057138681412,
        0.03334054723381996,
        -0.06295149028301239,
        -0.0522887296974659,
        0.0067849550396203995,
        0.007152852136641741,
        0.03191949427127838,
        -0.021657602861523628,
        0.08854269236326218,
        -0.06078820303082466,
        0.11916268616914749,
        -0.014969267882406712,
        -0.1097143217921257,
        0.013778739608824253,
        -0.13528254628181458,
        0.0035582678392529488,
        0.051868364214897156,
        -0.006733458489179611,
        0.035220496356487274,
        -0.1590394824743271,
        -0.01028301939368248,
        0.10582976043224335,
        -0.022785862907767296,
        -0.11930358409881592,
        -0.014479286037385464,
        -0.06479714810848236,
        -0.13021107017993927,
        0.0771137923002243,
        0.059877000749111176,
        -0.02019069530069828,
        -0.07890934497117996,
        -0.03631165996193886,
        -0.0930807814002037,
        -0.043806858360767365,
        -0.15790651738643646,
        0.022486599162220955,
        -0.12326381355524063,
        0.09362080693244934,
        -0.08895965665578842,
        -0.15666139125823975,
        -0.08496668189764023,
        0.12384055554866791,
        0.029859120026230812,
        0.08011478930711746,
        -0.13904353976249695,
        0.07376798987388611,
        -0.13684630393981934,
        -0.11911991238594055,
        -0.02914365753531456,
        0.11673960089683533,
        0.07374360412359238,
        -0.047405168414115906,
        -0.055685028433799744,
        0.09315124899148941,
        0.06649809330701828,
        0.035303302109241486,
        0.12867406010627747,
        -0.013440319336950779,
        -0.08660036325454712,
        -0.11008859425783157,
        -0.08506345748901367,
        -0.14281600713729858,
        0.08068343997001648,
        0.19161619246006012,
        0.15714552998542786,
        -0.10994993150234222,
        0.18038704991340637,
        -0.049856267869472504,
        0.06859579682350159,
        0.17701970040798187,
        -0.05492212623357773,
        -0.04855898395180702,
        0.07796603441238403,
        -0.062228865921497345,
        0.09276225417852402,
        0.025676246732473373,
        -0.05312827602028847,
        0.08845335990190506,
        0.07849477231502533,
        0.02784247323870659,
        -0.02274405024945736,
        0.09077766537666321,
        0.06741306930780411,
        -0.04017098620533943,
        0.16089943051338196,
        0.06253663450479507,
        0.1058889627456665,
        -0.13939505815505981,
        0.041440658271312714,
        -0.0680936872959137,
        0.00945982150733471,
        -0.091023288667202,
        -0.12595884501934052,
        0.022934161126613617,
        0.04394417628645897,
        0.08117703348398209,
        -0.044844966381788254,
        -0.0619274340569973,
        0.03357383981347084,
        0.08878041803836823,
        -0.10062050819396973,
        0.01696069911122322,
        0.016396155580878258,
        -0.08000118285417557,
        -0.009926976636052132,
        -0.060515545308589935,
        0.12742246687412262,
        0.07872311770915985,
        -0.06930467486381531,
        0.04263851419091225,
        -0.034409910440444946,
        0.07722050696611404,
        -0.07620806246995926,
        -0.0021625531371682882,
        0.03211785480380058,
        0.03686359152197838,
        -0.07958291471004486,
        0.08872003108263016,
        0.04649622365832329,
        -0.057748012244701385,
        0.1301024854183197,
        -0.18942439556121826,
        -0.0160878524184227,
        0.023106541484594345,
        -0.08885853737592697,
        0.17202669382095337,
        0.09177939593791962,
        -0.0005848903092555702,
        -0.10401680320501328,
        0.03681812435388565,
        0.00727930897846818,
        0.04536785930395126,
        0.14319200813770294,
        -0.07979825139045715,
        0.08194337785243988,
        0.02563285268843174,
        -0.03871442377567291,
        0.05879224091768265,
        0.08265507966279984,
        -0.10132546722888947,
        0.11648787558078766,
        0.1218368336558342,
        0.01039750687777996,
        -0.04764048755168915,
        -0.04726088419556618,
        0.10868632048368454,
        0.10136640071868896,
        0.06074965372681618,
        0.023841658607125282,
        -0.09799086302518845,
        -0.053026363253593445,
        -0.1570129096508026,
        -0.0692659467458725,
        -0.14887049794197083,
        0.09488725662231445,
        -0.061411790549755096,
        0.04662357643246651,
        0.02759539522230625,
        -0.07817786186933517,
        0.004993733484297991,
        0.08881606161594391,
        -0.15114539861679077,
        -0.1597936600446701,
        0.17816752195358276,
        0.11480298638343811,
        -0.014865035191178322,
        -0.007448114920407534,
        -0.07003998756408691,
        0.022373927757143974,
        -0.10812389105558395,
        -0.036586932837963104,
        0.07388787716627121,
        0.03914574906229973,
        -0.11645691841840744,
        -0.007178046740591526,
        0.1662042737007141,
        -0.06886465847492218,
        0.023214370012283325,
        0.017122436314821243,
        -0.07179956883192062,
        -0.07788854092359543,
        -0.07284688949584961,
        -0.011117667891085148,
        -0.049876172095537186,
        0.015363886021077633,
        -0.02581992745399475,
        -0.001976113300770521,
        -0.17173311114311218,
        -0.04925467446446419,
        -0.07859372347593307,
        0.09494972229003906,
        -0.08259302377700806,
        -0.0848228931427002,
        -0.04421665146946907,
        -0.05884435027837753,
        -0.03976088762283325,
        -0.034418731927871704,
        -0.006081035360693932,
        -0.057981736958026886,
        0.08891582489013672,
        0.04772528260946274,
        0.08526325225830078,
        0.02559172548353672,
        -0.05362456291913986,
        0.024826420471072197,
        -0.029101422056555748,
        -0.12015526741743088,
        0.12490787357091904,
        0.03450395539402962,
        0.14481134712696075,
        -0.17170991003513336,
        -0.04539735987782478,
        -0.0908634215593338,
        0.11320144683122635,
        0.14885784685611725,
        0.057854194194078445,
        -0.02143748849630356,
        -0.0498146191239357,
        0.0756637379527092,
        0.01953357458114624,
        -0.07741013914346695,
        0.11784135550260544,
        0.09242794662714005,
        0.06900520622730255,
        -0.06630239635705948,
        0.0167432501912117,
        0.12536858022212982,
        0.06964559108018875,
        -0.06713532656431198,
        -0.08237726241350174,
        -0.04288647323846817,
        -0.020489083603024483,
        0.07939636707305908,
        -0.0367574542760849,
        0.18098920583724976,
        -0.03588678315281868,
        0.08725415170192719,
        0.08032350987195969,
        -0.02984633855521679,
        -0.11018901318311691,
        -0.04837143421173096,
        -0.11616986989974976,
        -0.050397854298353195,
        0.1527877300977707,
        -0.025178343057632446,
        0.11335992813110352,
        0.009421702474355698,
        0.07754506170749664,
        -0.022788425907492638,
        0.046370863914489746,
        0.009754064492881298,
        -0.09659028053283691,
        0.09641718864440918,
        -0.02155296504497528,
        0.005085292272269726,
        -0.1703895926475525,
        -0.023554639890789986,
        -0.006395791657269001,
        -0.17354485392570496,
        -0.02798386849462986,
        -0.0029076971113681793,
        0.07918565720319748,
        -0.005620594602078199,
        0.1304028332233429,
        0.14086461067199707,
        0.008733161725103855,
        0.06360958516597748,
        -0.05208658427000046,
        -0.08353067934513092,
        0.04823165759444237,
        -0.1604802906513214,
        -0.05002470687031746,
        -0.07495365291833878,
        -0.2038973867893219,
        -0.062370602041482925,
        0.07748705893754959,
        -0.11030697822570801,
        -0.12959128618240356,
        -0.09638310223817825,
        0.014320924878120422,
        -0.00015104985504876822,
        -0.08326665312051773,
        0.12185067683458328,
        0.13789495825767517,
        0.12985728681087494,
        0.14017519354820251,
        0.08084949851036072,
        -0.11434422433376312,
        0.046977847814559937,
        -0.12413138896226883,
        -0.09959645569324493,
        0.09670533984899521,
        0.0009712178143672645,
        -0.07889311760663986,
        0.056149937212467194,
        -0.042593397200107574,
        0.1049833744764328,
        0.0347183458507061,
        0.15074700117111206,
        -0.012142609804868698,
        0.09974851459264755,
        -0.06961881369352341,
        -0.01992998830974102,
        -0.08295126259326935,
        -0.042693257331848145,
        -0.04599279910326004,
        0.109600730240345,
        0.038121651858091354,
        -0.031947966665029526,
        0.0149283017963171,
        -0.13653483986854553,
        0.11539486795663834,
        0.09652163833379745,
        0.010464656166732311,
        0.04169061407446861,
        -0.1261165589094162,
        0.04795950651168823,
        0.09177602082490921,
        0.007711999583989382,
        0.03808605298399925,
        -0.09043381363153458,
        0.003962745424360037,
        0.03071151301264763,
        -0.1393633633852005,
        0.12411925196647644,
        0.04066118225455284,
        -0.08800571411848068,
        -0.0866345465183258,
        0.052081916481256485,
        0.029092205688357353,
        -0.13580861687660217,
        -0.07202471792697906,
        -0.05558674409985542,
        0.03625550493597984,
        -0.04237726703286171,
        -0.13136398792266846,
        -0.028699005022644997,
        -0.17585332691669464,
        -0.12047813087701797,
        0.013840311206877232,
        0.12894859910011292,
        -0.09656865894794464,
        0.017831899225711823,
        -0.08651340007781982,
        -0.010450582019984722,
        0.15916471183300018,
        -0.04124879464507103,
        -0.049563612788915634,
        0.006539324764162302,
        0.11224903911352158,
        0.06718528270721436,
        -0.05118374899029732,
        -0.016908707097172737,
        0.045878004282712936,
        0.24475261569023132,
        0.03824707120656967,
        -0.06162182614207268,
        -0.07630966603755951,
        0.04623252525925636,
        0.026806868612766266,
        -0.19038629531860352,
        0.18236535787582397,
        -0.09094975888729095,
        0.08123910427093506,
        -0.10069970786571503,
        -0.02292328141629696,
        -0.0403192974627018,
        0.02548983506858349,
        -0.023898283019661903,
        0.18474608659744263,
        -0.03824865445494652,
        -0.10477207601070404,
        -0.1167227104306221,
        -0.010568639263510704,
        0.03724300116300583,
        0.07953516393899918,
        0.1432221233844757,
        -0.1197582334280014,
        0.020933546125888824,
        0.01657755859196186,
        -0.0117953484877944,
        0.050880830734968185,
        -0.045508816838264465,
        0.09204120188951492,
        -0.06443416327238083,
        -0.10764671862125397,
        -0.11985331773757935,
        0.12103593349456787,
        0.07772378623485565,
        -0.16379283368587494,
        0.03722388297319412,
        0.09073389321565628,
        0.059665706008672714,
        0.07117275148630142,
        -0.12706656754016876,
        -0.012048698961734772,
        -0.0303257517516613,
        -0.10534068942070007,
        -0.0010171274188905954,
        -0.10269630700349808,
        0.0960569828748703,
        0.10743146389722824,
        -0.08130232244729996,
        0.012403941713273525,
        -0.06545662134885788,
        -0.01645878702402115,
        -0.04396478086709976,
        -0.11607937514781952,
        0.057007595896720886,
        0.032700829207897186,
        -0.027533244341611862,
        -0.14458781480789185,
        -0.08071177452802658,
        -0.06751783937215805,
        -0.05363947153091431,
        0.04739106446504593,
        0.03728601709008217,
        0.13551339507102966,
        0.030923370271921158,
        -0.09726225584745407,
        -0.10727419704198837,
        -0.1397344321012497,
        0.07378486543893814,
        0.010647937655448914,
        -0.043241746723651886,
        -0.11525513976812363,
        0.04196861758828163,
        0.010591220110654831,
        0.06187386438250542,
        -0.10753048956394196,
        0.03688305243849754,
        -0.07676605135202408,
        0.07548026740550995,
        0.06389610469341278,
        0.06324182450771332,
        0.003511203918606043,
        -0.10569082200527191,
        -0.09409289807081223,
        -0.012708339840173721,
        -0.016285106539726257,
        -0.027767369523644447,
        0.008391212671995163,
        -0.13274693489074707,
        -0.03359083831310272,
        0.061687733978033066,
        0.06165913864970207,
        -0.02244689129292965,
        -0.1264418065547943,
        0.028298139572143555,
        -0.13973522186279297,
        -0.02637404017150402,
        -0.03940018266439438,
        0.04308822378516197,
        -0.12723012268543243,
        0.009741726331412792,
        0.05360295996069908,
        0.13041353225708008,
        0.16373196244239807,
        0.14172831177711487,
        0.07373440265655518,
        0.0402107834815979,
        -0.05686125531792641,
        -0.07555541396141052,
        -0.10495855659246445,
        0.04764862358570099,
        -0.12391941994428635,
        -0.09086316078901291,
        0.11533883213996887,
        -0.1109224408864975,
        0.03836929425597191,
        -0.06382934004068375,
        -0.014560295268893242,
        0.044873494654893875,
        0.027113936841487885,
        -0.0003196485049556941,
        -0.021744640544056892,
        0.05191073939204216,
        0.09185678511857986,
        0.0868167132139206,
        -0.06232808902859688,
        -0.00013113512250129133,
        -0.14046692848205566,
        -0.027231767773628235,
        -0.0856705978512764,
        -0.10134579241275787,
        -0.05340350791811943,
        -0.13757702708244324,
        0.11601980030536652,
        0.10987230390310287,
        0.43403109908103943,
        -0.008330547250807285,
        -0.552128255367279,
        0.6050834655761719,
        -0.44656118750572205,
        0.3740118741989136,
        0.2051846981048584,
        0.07437419146299362,
        -0.8664355874061584,
        -0.08564261347055435,
        -0.841673731803894,
        -0.3472238779067993,
        -0.036918871104717255,
        0.9167362451553345,
        0.6318172216415405,
        -1.0245814323425293,
        -0.05823017656803131,
        0.012475816532969475,
        -0.02259153500199318,
        -0.2408137023448944,
        0.14504383504390717,
        -0.12948082387447357,
        -0.15577827394008636,
        0.18724338710308075,
        0.2401399463415146,
        -0.09560537338256836,
        0.04885737597942352,
        -0.20879384875297546,
        0.02814018353819847,
        0.06120290979743004,
        0.12111766636371613,
        -0.1308070570230484,
        -0.0028026439249515533,
        0.1331632137298584,
        0.09618597477674484,
        0.03224678337574005,
        -0.15510940551757812,
        -0.008549388498067856,
        0.06545814126729965,
        0.14074160158634186,
        -0.19948998093605042,
        -0.1536131501197815,
        -0.01955972984433174,
        -0.010014457628130913,
        -0.16513140499591827,
        0.1447167843580246,
        0.1632385104894638,
        0.14705616235733032,
        0.05711767449975014,
        -0.16503866016864777,
        0.17599308490753174,
        0.2310238927602768,
        0.13111354410648346,
        0.21281011402606964,
        -0.0799972414970398,
        0.1649601310491562,
        0.1299949735403061,
        0.21044230461120605,
        -0.028251279145479202,
        0.25689396262168884,
        0.22276294231414795,
        0.2007097601890564,
        -0.09692182391881943,
        0.12718386948108673,
        -0.17322233319282532,
        -0.20562522113323212,
        0.06944166123867035,
        0.1501946896314621,
        0.23365072906017303,
        0.11643335223197937,
        -0.2201208621263504,
        -0.08950164914131165,
        -0.09122765064239502,
        -0.13209372758865356,
        0.13835009932518005,
        0.029536228626966476,
        0.1990603655576706,
        0.11003199219703674,
        0.004273353144526482,
        0.23384088277816772,
        -0.19724704325199127,
        0.15406721830368042,
        -0.2536686360836029,
        0.1407908797264099,
        0.12395458668470383,
        -0.08775467425584793,
        0.19927816092967987,
        0.27080827951431274,
        -0.05039981007575989,
        -0.24426314234733582,
        0.045585997402668,
        0.09219645708799362,
        0.22521013021469116,
        -0.1705174744129181,
        -0.10319073498249054,
        0.19016887247562408,
        -0.17725446820259094,
        0.030523018911480904,
        0.11726756393909454,
        -0.006938818842172623,
        -0.0041046361438930035,
        -0.16765086352825165,
        -0.18334154784679413,
        -0.0005966068129055202,
        0.13006353378295898,
        -0.2011132538318634,
        0.22816632688045502,
        0.20851574838161469,
        -0.014762291684746742,
        0.1667027622461319,
        0.1933409869670868,
        -0.23335231840610504,
        -0.0924520418047905,
        -0.10749148577451706,
        -0.08465464413166046,
        -0.2563150227069855,
        0.010340746492147446,
        0.04857473447918892,
        -0.084440216422081,
        0.16909432411193848,
        -0.1586693525314331,
        0.2613111138343811,
        0.1938973218202591,
        -0.10088659077882767,
        0.1752932220697403,
        0.005460606422275305,
        0.12938325107097626,
        0.11652178317308426,
        -0.1384505033493042,
        -0.04437696933746338,
        -0.22467558085918427,
        0.20039886236190796,
        -0.056489404290914536,
        -0.09906572848558426,
        -0.032782938331365585,
        -0.2355259656906128,
        -0.1615452766418457,
        -0.23997530341148376,
        0.14107629656791687,
        0.05355273187160492,
        0.11799342185258865,
        -0.2495030164718628,
        -0.12624461948871613,
        -0.002791973063722253,
        0.12106622010469437,
        -0.19005943834781647,
        -0.2115873098373413,
        -0.009599610231816769,
        -0.16728878021240234,
        -0.17638592422008514,
        0.14654192328453064,
        -0.1248341053724289,
        -0.20473384857177734,
        -0.06644845753908157,
        0.08249780535697937,
        0.16355420649051666,
        0.1598656177520752,
        -0.2373627871274948,
        -0.04747956991195679,
        0.17947639524936676,
        -0.1256110966205597,
        0.12024279683828354,
        0.1929922252893448,
        0.16874323785305023,
        -0.2265312224626541,
        -0.12247396260499954,
        0.08553643524646759,
        0.15961313247680664,
        -0.11236488074064255,
        -0.2336367964744568,
        0.0898759514093399,
        -0.19443151354789734,
        -0.13523392379283905,
        0.12415675073862076,
        0.0916505753993988,
        -0.20761261880397797,
        0.021096089854836464,
        0.03730396553874016,
        0.021430479362607002,
        -0.17864999175071716,
        0.01270650327205658,
        0.27061593532562256,
        -0.21165452897548676,
        -0.13412632048130035,
        -0.2080630660057068,
        0.13960151374340057,
        0.06803879141807556,
        -0.08213375508785248,
        -0.25880059599876404,
        -0.18695543706417084,
        -0.1485857218503952,
        -0.09753063321113586,
        -0.000576519058085978,
        0.19998766481876373,
        -0.012968804687261581,
        0.2422877848148346,
        -0.16735152900218964,
        0.2338840514421463,
        0.15280193090438843,
        0.06139667332172394,
        0.19570057094097137,
        0.24125121533870697,
        -0.0599663071334362,
        -0.1637505143880844,
        0.1898188441991806,
        0.09735739231109619,
        0.019133105874061584,
        -0.08187855780124664,
        -0.17067044973373413,
        0.09038303792476654,
        -0.17711985111236572,
        -0.06784098595380783,
        0.244007408618927,
        0.1794431507587433,
        0.003932340070605278,
        -0.023137718439102173,
        0.11514817178249359,
        0.08507324755191803,
        -0.2218257039785385,
        -0.1157388985157013,
        -0.14576175808906555,
        -0.16237308084964752,
        -0.030526282265782356,
        0.10158302634954453,
        0.03067447431385517,
        -0.0533425398170948,
        -0.12397006154060364,
        -0.1903928816318512,
        0.036778952926397324,
        0.09891384840011597,
        -0.03421475365757942,
        -0.14770248532295227,
        0.02221265807747841,
        0.04138607159256935,
        0.04272889718413353,
        -0.09857549518346786,
        -0.11978834122419357,
        -0.1207616850733757,
        0.09676748514175415,
        0.020043781027197838,
        0.214791402220726,
        0.018241191282868385,
        -0.1134466677904129,
        0.004070896189659834,
        0.038985125720500946,
        0.1988278031349182,
        -0.25521403551101685,
        -0.15344920754432678,
        -0.012762364000082016,
        0.2073250263929367,
        -0.19057495892047882,
        0.06711762398481369,
        0.2524004280567169,
        -0.19102218747138977,
        0.2004261612892151,
        -0.05290490761399269,
        -0.10609885305166245,
        0.04830221086740494,
        0.16897018253803253,
        -0.14270222187042236,
        0.0496072918176651,
        -0.13889922201633453,
        0.1270105242729187,
        -0.17295822501182556,
        -0.19938090443611145,
        0.21908466517925262,
        0.07840999960899353,
        0.034027550369501114,
        -0.05262898653745651,
        0.22924165427684784,
        -0.0847730040550232,
        -0.0565170980989933,
        0.20111392438411713,
        -0.10341855883598328,
        0.21563765406608582,
        0.10283241420984268,
        -0.059195417910814285,
        0.16812506318092346,
        0.03701820224523544,
        -0.13648706674575806,
        0.108599953353405,
        0.08884454518556595,
        -0.03462287783622742,
        -0.1865127831697464,
        -0.025401972234249115,
        0.04871963709592819,
        -0.08166637271642685,
        -0.10938474535942078,
        -0.08916644752025604,
        -0.06892470270395279,
        -0.07102535665035248,
        0.11267522722482681,
        -0.10429715365171432,
        -0.0687689259648323,
        0.03144045174121857,
        0.07343699783086777,
        -0.018813585862517357,
        -0.020105140283703804,
        0.06285340338945389,
        -0.10210497677326202,
        -0.03191639110445976,
        0.02038271352648735,
        -0.04566256329417229,
        -0.07288940995931625,
        0.0022187780123203993,
        -0.10662034898996353,
        0.11167202889919281,
        0.012972165830433369,
        -0.1096813976764679,
        0.05841677263379097,
        0.1184045821428299,
        -0.10887542366981506,
        0.07721707969903946,
        0.05119244009256363,
        -0.15028806030750275,
        -0.02348298765718937,
        0.019481444731354713,
        -0.05878009647130966,
        -0.09891506284475327,
        -0.104158416390419,
        0.1450900286436081,
        -0.02301933616399765,
        -0.11815354973077774,
        0.11521344631910324,
        -0.10115382075309753,
        -0.09746651351451874,
        -0.01862994208931923,
        -0.02135283127427101,
        0.017582356929779053,
        0.055562280118465424,
        -0.10535188764333725,
        -0.0331348218023777,
        0.08213340491056442,
        0.057796910405159,
        0.023282881826162338,
        0.016574639827013016,
        0.07107536494731903,
        -0.07594925910234451,
        0.009550074115395546,
        0.004368343856185675,
        0.13810811936855316,
        -0.08036939054727554,
        0.02815297245979309,
        0.029015792533755302,
        0.061152148991823196,
        0.13468654453754425,
        0.023356113582849503,
        -0.12028937041759491,
        -0.04339521750807762,
        0.14793728291988373,
        0.006104257423430681,
        0.05215912684798241,
        0.09759239852428436,
        0.017458800226449966,
        0.11106418073177338,
        0.11136946827173233,
        -0.03874687850475311,
        0.10045330971479416,
        -0.04967730492353439,
        0.09352673590183258,
        0.13979323208332062,
        -0.0975375846028328,
        0.06280374526977539,
        0.05315622687339783,
        -0.014194008894264698,
        0.13454265892505646,
        0.1349385529756546,
        -0.13252675533294678,
        -0.01569746993482113,
        0.029087424278259277,
        0.12887528538703918,
        0.09378241002559662,
        -0.08916936069726944,
        -0.08644160628318787,
        0.10515665262937546,
        0.1319631189107895,
        -0.08605191111564636,
        0.022670667618513107,
        -0.0663803443312645,
        -0.09324204921722412,
        0.0960131362080574,
        0.0617210827767849,
        0.022304363548755646,
        0.08168041706085205,
        0.04081319645047188,
        -0.1178494542837143,
        -0.08597226440906525,
        0.03672197088599205,
        0.03835512697696686,
        -0.05487145483493805,
        0.018412360921502113,
        0.04367297515273094,
        -0.10734926164150238,
        0.1091250330209732,
        -0.13180646300315857,
        -0.12104736268520355,
        -0.015628276392817497,
        -0.07761447876691818,
        0.0983642190694809,
        -0.052430782467126846,
        0.03631419315934181,
        0.06727875769138336,
        -0.03696924075484276,
        0.04565304145216942,
        -0.09488445520401001,
        0.08189564943313599,
        -0.05753067880868912,
        -0.058919914066791534,
        -0.06267520040273666,
        0.055424295365810394,
        -0.04605906829237938,
        -0.039709243923425674,
        -0.04678450897336006,
        0.09257079660892487,
        -0.08345887809991837,
        -0.05227766931056976,
        -0.13892586529254913,
        -0.0010178264928981662,
        0.017313148826360703,
        -0.008219800889492035,
        -0.10622212290763855,
        -0.03145339712500572,
        -0.0662706047296524,
        -0.11822041124105453,
        -0.06461868435144424,
        0.008275176398456097,
        0.018492210656404495,
        -0.05820139870047569,
        0.025589363649487495,
        0.08155471831560135,
        0.1362445205450058,
        -0.08656051754951477,
        0.06734926998615265,
        -0.11248602718114853,
        -0.0596395768225193,
        0.028195643797516823,
        0.06162204593420029,
        -0.09326153993606567,
        -0.03943881392478943,
        0.10839375108480453,
        0.1486244946718216,
        0.022681832313537598,
        -0.009484329260885715,
        -0.09209156036376953,
        -0.059753645211458206,
        -0.10132352262735367,
        0.12921036779880524,
        0.1347237378358841,
        0.11503437161445618,
        0.07348046451807022,
        0.0005165140028111637,
        -0.055597539991140366,
        -0.02573554962873459,
        -0.060467325150966644,
        -0.1146087720990181,
        -0.1153377816081047,
        -0.004921489395201206,
        -0.02973840944468975,
        0.0331818126142025,
        -0.08439865708351135,
        -0.040139660239219666,
        -0.07831687480211258,
        0.10017844289541245,
        -0.10819822549819946,
        0.095551036298275,
        0.10234522819519043,
        0.003745409194380045,
        0.026846744120121002,
        -0.06328427791595459,
        0.056686487048864365,
        -0.11754050105810165,
        -0.10517708212137222,
        0.1151481568813324,
        -0.13085243105888367,
        0.07040294259786606,
        -0.04395727068185806,
        0.053790170699357986,
        -0.0500500425696373,
        -0.05735989287495613,
        0.08764688670635223,
        -0.06496550887823105,
        0.038524430245161057,
        -0.014701738022267818,
        -0.128672257065773,
        0.0737612396478653,
        0.027831552550196648,
        -0.01916101947426796,
        -0.12781018018722534,
        0.03261442109942436,
        -0.1033613383769989,
        -0.005667991004884243,
        0.13779912889003754,
        0.10398992151021957,
        0.13545715808868408,
        0.1030479222536087,
        0.030971623957157135,
        0.022545602172613144,
        0.10815264284610748,
        0.05190812796354294,
        -0.039576455950737,
        -0.132887065410614,
        -0.08649418503046036,
        -0.12161646783351898,
        -0.08920899778604507,
        -0.04700595140457153,
        -0.09944193810224533,
        -0.05789293348789215,
        0.13190661370754242,
        0.05598542466759682,
        0.020435567945241928,
        0.02018100954592228,
        -0.0814104899764061,
        -0.04979002848267555,
        -0.07723502069711685,
        -0.007292686030268669,
        0.020531389862298965,
        0.11830812692642212,
        -0.08796181529760361,
        -0.0856894850730896,
        0.07496168464422226,
        0.044983308762311935,
        0.006087409798055887,
        -0.0647791177034378,
        -0.14038081467151642,
        0.0794023722410202,
        -0.1058097630739212,
        0.06788773834705353,
        0.018337350338697433,
        0.11411391198635101,
        0.055241405963897705,
        -0.1454666554927826,
        -0.04264427348971367,
        0.025687623769044876,
        -0.12940624356269836,
        -0.004673679359257221,
        -0.03505425900220871,
        0.044957224279642105,
        -0.08818411082029343,
        -0.04354173690080643,
        -0.015724653378129005,
        0.00705873966217041,
        0.09251664578914642,
        -0.030952194705605507,
        -0.04547560587525368,
        -0.0985323041677475,
        0.028060754761099815,
        -0.013359465636312962,
        0.05164790526032448,
        0.14340777695178986,
        -0.10605642944574356,
        0.11920002847909927,
        0.11734933406114578,
        0.02168453298509121,
        -0.06065061315894127,
        -0.06768758594989777,
        0.15770383179187775,
        -0.044590629637241364,
        0.07806363701820374,
        -0.03983284905552864,
        -0.0481095165014267,
        -0.022321078926324844,
        0.07597658038139343,
        -0.11540601402521133,
        -0.1251368522644043,
        -0.0632108524441719,
        -0.0013870764523744583,
        -0.03990444168448448,
        -0.043347906321287155,
        -0.011297806166112423,
        -0.0916166678071022,
        -0.07641424238681793,
        -0.016649920493364334,
        0.09884210675954819,
        0.03306308016180992,
        0.14886926114559174,
        0.09502429515123367,
        0.08644091337919235,
        0.05848889797925949,
        0.11607861518859863,
        0.12929384410381317,
        -0.07313796132802963,
        -0.09644412994384766,
        0.15463106334209442,
        -0.12631285190582275,
        -0.04353431612253189,
        0.0598568394780159,
        0.09075912088155746,
        -0.1008269339799881,
        0.052141569554805756,
        -0.016197569668293,
        0.0435614176094532,
        0.150787353515625,
        0.02651320956647396,
        0.11248055100440979,
        -0.07140745967626572,
        0.13547319173812866,
        0.046220529824495316,
        -0.13177716732025146,
        -0.09206853061914444,
        0.039911214262247086,
        0.0021660581696778536,
        -0.0756918266415596,
        -0.06278754025697708,
        0.033906448632478714,
        0.009598429314792156,
        -0.051064882427453995,
        0.04891768842935562,
        -0.09490355104207993,
        -0.02585713379085064,
        -0.061609458178281784,
        0.11035820841789246,
        -0.023359689861536026,
        0.12428221851587296,
        0.030700556933879852,
        0.08268643915653229,
        0.1453891396522522,
        -0.0640813410282135,
        -0.05071642994880676,
        -0.001071539823897183,
        0.009547226130962372,
        0.0023030496668070555,
        -0.05267397686839104,
        -0.04744142293930054,
        0.09673228859901428,
        0.15046513080596924,
        -0.04379656910896301,
        -0.06851101666688919,
        -0.013716578483581543,
        0.03772623464465141,
        0.12371868640184402,
        0.11831729114055634,
        -0.07788796722888947,
        0.10030458122491837,
        -0.07652651518583298,
        0.010055909864604473,
        -0.10488040000200272,
        -0.12375915050506592,
        -0.0028581449296325445,
        -0.09225223958492279,
        0.091417595744133,
        -0.12638185918331146,
        -0.0666951835155487,
        0.04392939805984497,
        -0.13035722076892853,
        0.05987362936139107,
        0.05376497656106949,
        0.00634335121139884,
        -0.13021552562713623,
        -0.0591498464345932,
        0.11774080246686935,
        0.019074898213148117,
        0.08488921076059341,
        -0.12389542162418365,
        0.04726150631904602,
        0.0763888955116272,
        -0.10843159258365631,
        0.09480453282594681,
        -0.06657109409570694,
        0.12012849003076553,
        -0.0195284616202116,
        0.05583280697464943,
        0.1251625120639801,
        0.08983557671308517,
        -0.0434439480304718,
        0.11780917644500732,
        0.021728960797190666,
        0.06260854005813599,
        0.014704529196023941,
        -0.03987092897295952,
        0.044331833720207214,
        0.1290351152420044,
        -0.13026508688926697,
        -0.021948378533124924,
        -0.12229130417108536,
        -0.08731291443109512,
        0.07168646901845932,
        0.12211797386407852,
        0.03132520243525505,
        0.058586329221725464,
        -0.08392547816038132,
        -0.14522916078567505,
        0.0443057082593441,
        -0.02763187140226364,
        -0.1630810648202896,
        -0.0855230838060379,
        0.1513471156358719,
        -0.07366600632667542,
        0.033396098762750626,
        0.058265116065740585,
        -0.15019828081130981,
        -0.061292339116334915,
        -0.04876565933227539,
        0.007657639216631651,
        -0.06661222130060196,
        0.06933090835809708,
        -0.00442978972569108,
        0.10837750881910324,
        0.024493170902132988,
        -0.16373693943023682,
        0.09295336157083511,
        0.04709884151816368,
        -0.10954286903142929,
        0.02175222709774971,
        0.0567937009036541,
        0.0647733137011528,
        0.13683445751667023,
        0.08464503288269043,
        0.05927272513508797,
        -0.09235071390867233,
        0.03991546481847763,
        -0.10375583171844482,
        0.08583041280508041,
        -0.04842635989189148,
        -0.13654157519340515,
        0.14570391178131104,
        -0.0025293503422290087,
        -0.07300565391778946,
        0.0474272221326828,
        -0.001057082088664174,
        0.05874741077423096,
        0.150580033659935,
        0.1204933300614357,
        0.1487010270357132,
        -0.0017967827152460814,
        -0.12914346158504486,
        -0.006494986359030008,
        -0.11271090060472488,
        -0.0964757427573204,
        -0.11665575951337814,
        0.015295788645744324,
        0.13653476536273956,
        0.07606799155473709,
        -0.13422130048274994,
        0.01573684625327587,
        -0.13985930383205414,
        0.09143630415201187,
        -0.03099302388727665,
        -0.0722542554140091,
        -0.06447769701480865,
        -0.09634282439947128,
        -0.10926897823810577,
        0.11638785898685455,
        0.12107455730438232,
        -0.09059789776802063,
        -0.12595467269420624,
        -0.007459794636815786,
        0.054689519107341766,
        -0.13912856578826904,
        0.07463566213846207,
        0.0591348260641098,
        -0.0013298462145030499,
        0.014209399931132793,
        -0.057127516716718674,
        -0.03827395290136337,
        -0.12989011406898499,
        -0.043852467089891434,
        0.010672995820641518,
        -0.07878290861845016,
        0.04406895115971565,
        0.0206694845110178,
        -0.13817809522151947,
        0.010250366292893887,
        -0.036274831742048264,
        0.03176622465252876,
        -0.03343473747372627,
        -0.040627408772706985,
        -0.004729241598397493,
        -0.14012958109378815,
        -0.10920707136392593,
        0.04093967378139496,
        -0.05987406522035599,
        0.062056250870227814,
        -0.14667198061943054,
        -0.09172972291707993,
        -0.11071891337633133,
        -0.07901369035243988,
        0.08652163296937943,
        0.019182272255420685,
        0.028460033237934113,
        0.09755256026983261,
        0.03843589127063751,
        -0.034619081765413284,
        -0.05849742516875267,
        -0.07896213978528976,
        0.13486769795417786,
        0.05939120054244995,
        -0.1197960376739502,
        0.10254256427288055,
        -0.011805444024503231,
        0.13294556736946106,
        0.005525927525013685,
        -0.018184492364525795,
        -0.055039212107658386,
        -0.11618731915950775,
        0.12188033759593964,
        0.07273989915847778,
        0.06000344455242157,
        -0.13515999913215637,
        0.11949776113033295,
        -0.14371076226234436,
        0.09418193250894547,
        0.0004560396773740649,
        0.12295328080654144,
        0.05124220997095108,
        0.07837440073490143,
        0.10631288588047028,
        -0.03370080888271332,
        0.00506075844168663,
        -0.10561977326869965,
        -0.1470671445131302,
        0.03665958717465401,
        0.09186017513275146,
        -0.11469724029302597,
        0.11471451073884964,
        -0.053091201931238174,
        0.12697193026542664,
        0.028289850801229477,
        0.013200987130403519,
        0.002922131447121501,
        0.10345793515443802,
        0.07479021698236465,
        0.02826414629817009,
        0.1395493596792221,
        -0.0844714567065239,
        0.0318949893116951,
        -0.05852299928665161,
        0.15058432519435883,
        -0.04367456212639809,
        0.09838031232357025,
        -0.04704178497195244,
        -0.01440038438886404,
        -0.11594009399414062,
        0.11746527999639511,
        0.06211812049150467,
        -0.05183403193950653,
        0.03236716613173485,
        -0.073868028819561,
        0.06269887089729309,
        -0.00812627375125885,
        -0.05376758798956871,
        0.10111925005912781,
        0.04846073314547539,
        -0.0700850784778595,
        -0.0913049578666687,
        0.11404985934495926,
        0.029036428779363632,
        -0.044154081493616104,
        -0.02763434685766697,
        0.12122776359319687,
        -0.043571244925260544,
        -0.08728550374507904,
        -0.033174846321344376,
        -0.15141411125659943,
        0.03257742151618004,
        0.056606464087963104,
        -0.03331383690237999,
        -0.022362641990184784,
        0.09874140471220016,
        -0.11330851167440414,
        -0.09377210587263107,
        -0.14897078275680542,
        0.01794542744755745,
        -0.1278892159461975,
        0.10846531391143799,
        0.04342455416917801,
        0.027867859229445457,
        0.10245469957590103,
        -0.10833770781755447,
        -0.043063193559646606,
        -0.004720582626760006,
        -0.09401678293943405,
        0.0743616595864296,
        -0.09262175112962723,
        -0.01281212829053402,
        -0.007367759011685848,
        0.001780012622475624,
        0.03914449363946915,
        0.10586251318454742,
        -0.012176242657005787,
        0.057136841118335724,
        0.022984609007835388,
        0.030204132199287415,
        0.018967794254422188,
        -0.09527278691530228,
        0.10915397852659225,
        0.044401541352272034,
        0.10492739081382751,
        -0.08185751736164093,
        0.0064758784137666225,
        -0.044132050126791,
        0.012881843373179436,
        -0.07063253223896027,
        0.017558058723807335,
        0.08432182669639587,
        -0.02723798155784607,
        -0.12899398803710938,
        0.031847815960645676,
        -0.005267478991299868,
        -0.039576031267642975,
        -0.14035683870315552,
        -0.08363734185695648,
        0.08354607969522476,
        0.03673184663057327,
        -0.006501697935163975,
        0.012025795876979828,
        -0.04204099252820015,
        0.11556307971477509,
        -0.14219717681407928,
        0.011051729321479797,
        -0.025026369839906693,
        -0.0882582888007164,
        0.12581005692481995,
        -0.05691482126712799,
        0.010451899841427803,
        0.004361025523394346,
        0.11471164971590042,
        0.035021111369132996,
        -0.032964207231998444,
        -0.09025885164737701,
        -0.030238373205065727,
        0.10475200414657593,
        0.12819379568099976,
        -0.04688756540417671,
        -0.04283316060900688,
        -0.020615648478269577,
        -0.015959128737449646,
        -0.13391341269016266,
        -0.05845317617058754,
        0.07589589804410934,
        -0.093129962682724,
        0.0156545490026474,
        -0.04912504926323891,
        0.03577152639627457,
        0.040463484823703766,
        0.02711704932153225,
        -0.08192060142755508,
        0.04466020688414574,
        0.07113076001405716,
        0.14662878215312958,
        -0.0245037991553545,
        -0.1253877729177475,
        0.006894203368574381,
        0.03193558752536774,
        -0.0986383780837059,
        0.07488376647233963,
        0.06935074925422668,
        -0.0008475398644804955,
        0.09098780155181885,
        0.15594537556171417,
        0.038622092455625534,
        0.032924432307481766,
        0.05058303475379944,
        -0.010258752852678299,
        -0.10344213247299194,
        0.0193890780210495,
        -0.12941613793373108,
        -0.13473866879940033,
        -0.023491129279136658,
        -0.01434063445776701,
        -0.0584963783621788,
        0.055198460817337036,
        -0.13287986814975739,
        -0.022712744772434235,
        0.10963255167007446,
        -0.0647340714931488,
        -0.0018325416604056954,
        -0.11968659609556198,
        0.08328891545534134,
        -0.10450431704521179,
        -0.02507864311337471,
        0.09844203293323517,
        0.057018451392650604,
        -0.07192052900791168,
        0.11665963381528854,
        0.07769385725259781,
        0.046031832695007324,
        0.014191695488989353,
        -0.07111937552690506,
        -0.029812274500727654,
        0.003544771810993552,
        -0.028410185128450394,
        -0.03936649113893509,
        0.11847668886184692,
        0.1527596414089203,
        0.09211670607328415,
        -0.15517458319664001,
        0.08755014091730118,
        -0.014345930889248848,
        0.09780780225992203,
        -0.09901320189237595,
        0.06441620737314224,
        -0.06935728341341019,
        -0.07917369902133942,
        0.04589288681745529,
        -0.1001027375459671,
        0.0066991872154176235,
        -0.0019529741257429123,
        -0.002704179147258401,
        0.01901283860206604,
        0.06506766378879547,
        -0.1412065476179123,
        -0.13468508422374725,
        0.04212427884340286,
        -0.007301777135580778,
        -0.087282195687294,
        -0.06164579465985298,
        -0.06116354838013649,
        0.10618674010038376,
        0.11823898553848267,
        -0.1180608868598938,
        0.10177214443683624,
        -0.08512374758720398,
        0.04434268921613693,
        -0.08792529255151749,
        -0.05846284702420235,
        0.024747921153903008,
        0.029893523082137108,
        -0.07735064625740051,
        -0.009999883361160755,
        0.029566096141934395,
        -0.09843194484710693,
        0.06428065896034241,
        0.030660852789878845,
        -0.06094658374786377,
        -0.10710997879505157,
        -0.08032487332820892,
        -0.09525743871927261,
        -0.07704702764749527,
        0.046672526746988297,
        -0.05407104641199112,
        0.03750166669487953,
        0.07996106147766113,
        -0.10247436165809631,
        0.1183207556605339,
        0.1056513786315918,
        -0.134626567363739,
        -0.11226958781480789,
        -0.050669025629758835,
        0.04353991523385048,
        -0.05295621603727341,
        0.03431627154350281,
        -0.12974055111408234,
        0.04651873931288719,
        0.010004937648773193,
        -0.20171834528446198,
        -0.0450071357190609,
        -0.10397420823574066,
        -0.15615087747573853,
        -0.11696983873844147,
        -0.13065528869628906,
        0.11055789142847061,
        0.026649219915270805,
        0.02464672550559044,
        0.14491493999958038,
        0.10410405695438385,
        -0.1309482455253601,
        0.06163056939840317,
        0.0761028602719307,
        0.09450402855873108,
        0.11805017292499542,
        0.032892629504203796,
        0.08243325352668762,
        -0.04048989340662956,
        0.054153405129909515,
        -0.06890366226434708,
        0.10288896411657333,
        -0.10744507610797882,
        0.11408109217882156,
        -0.09196462482213974,
        -0.023881657049059868,
        0.0784979835152626,
        -0.12925992906093597,
        0.47670331597328186,
        0.01686660759150982,
        0.21502555906772614,
        0.6328765153884888,
        0.545629620552063,
        0.10513373464345932,
        0.14904777705669403,
        0.6536726951599121,
        0.07735222578048706,
        0.5097326636314392,
        0.32963529229164124,
        -0.7544053196907043,
        -0.051428280770778656,
        0.07139791548252106,
        0.23869642615318298,
        0.046557895839214325,
        -0.1373136341571808,
        -0.11792413145303726,
        0.03760117292404175,
        -0.13922297954559326,
        -0.24265432357788086,
        -0.1748662292957306,
        -0.2008003443479538,
        -0.01405350398272276,
        0.2604283392429352,
        -0.003434911370277405,
        -0.17802214622497559,
        0.1619248390197754,
        0.21428221464157104,
        -0.056518007069826126,
        0.1870216727256775,
        -0.018854215741157532,
        -0.24633193016052246,
        -0.1801588386297226,
        0.20744135975837708,
        -0.04145815595984459,
        0.1117912232875824,
        -0.14862701296806335,
        -0.16560304164886475,
        -0.10843873769044876,
        -0.2493918091058731,
        0.24493926763534546,
        -0.26265963912010193,
        0.03410527482628822,
        0.10643225163221359,
        0.12669017910957336,
        -0.12963545322418213,
        0.06780141592025757,
        0.07164749503135681,
        -0.11486160755157471,
        0.18891602754592896,
        0.215638667345047,
        0.04822735860943794,
        0.13363412022590637,
        -0.0709943026304245,
        -0.05701303109526634,
        0.12517081201076508,
        0.13378562033176422,
        0.01749170944094658,
        0.13342493772506714,
        -0.2039395123720169,
        -0.13922810554504395,
        0.23995037376880646,
        0.03054128773510456,
        0.21670813858509064,
        -0.15193821489810944,
        -0.09450984746217728,
        -0.1361803412437439,
        -0.013451261445879936,
        -0.22366340458393097,
        0.004579806700348854,
        0.20985834300518036,
        -0.19493621587753296,
        -0.009696440771222115,
        -0.1877070814371109,
        -0.005846119951456785,
        0.22028055787086487,
        -0.11820174008607864,
        0.1259709894657135,
        -0.0609714649617672,
        -0.02581283450126648,
        -0.0978257805109024,
        -0.09734589606523514,
        0.1152193695306778,
        -0.05283571034669876,
        0.056326236575841904,
        0.18379120528697968,
        0.0787309855222702,
        0.09026578068733215,
        0.06511428207159042,
        0.04735903814435005,
        0.10388116538524628,
        -0.018083341419696808,
        0.12168745696544647,
        -0.19365529716014862,
        0.09364110976457596,
        0.12664540112018585,
        0.17212897539138794,
        -0.14293262362480164,
        -0.23111680150032043,
        -0.1729886829853058,
        -0.13781368732452393,
        -0.007068334612995386,
        0.0284112561494112,
        -0.2225324809551239,
        0.121688611805439,
        -0.14778998494148254,
        -0.2092762142419815,
        -0.06871689110994339,
        -0.12001534551382065,
        0.18578091263771057,
        0.14744843542575836,
        0.09404607862234116,
        0.18006083369255066,
        0.06686609983444214,
        -0.08177058398723602,
        0.10771166533231735,
        0.03968872129917145,
        -0.18283124268054962,
        -0.018199283629655838,
        0.014814318157732487,
        -0.056849405169487,
        -0.03300153464078903,
        -0.12896418571472168,
        -0.163985475897789,
        -0.10255792737007141,
        -0.1387350857257843,
        0.0989038497209549,
        -0.08125673234462738,
        0.00807131826877594,
        0.06816727668046951,
        -0.1932682991027832,
        -0.20306333899497986,
        -0.23178252577781677,
        0.01357277575880289,
        -0.06383461505174637,
        0.19469556212425232,
        -0.1750636100769043,
        0.04614299163222313,
        -0.24433065950870514,
        -0.09159401059150696,
        0.05790938436985016,
        0.1774671971797943,
        -0.23005053400993347,
        0.17621585726737976,
        -0.009028498083353043,
        0.16831903159618378,
        0.17450226843357086,
        -0.08193150162696838,
        0.20174944400787354,
        -0.1301073282957077,
        0.08844539523124695,
        0.1138019859790802,
        -0.0018826811574399471,
        -0.1473342627286911,
        0.17346295714378357,
        -0.08696837723255157,
        -0.0008142132428474724,
        -0.20590165257453918,
        -0.16206249594688416,
        -0.22264978289604187,
        -0.05866604298353195,
        -0.1382451355457306,
        -0.057078767567873,
        -0.03249236196279526,
        0.08518234640359879,
        0.07235457748174667,
        -0.32525259256362915,
        -0.23103991150856018,
        0.18069487810134888,
        0.10280051082372665,
        0.04814469814300537,
        -0.19537630677223206,
        0.15401218831539154,
        -0.04287765175104141,
        0.12402424216270447,
        0.15737496316432953,
        0.08383354544639587,
        -0.15375125408172607,
        -0.21919037401676178,
        -0.16599370539188385,
        0.2017996609210968,
        -0.18153300881385803,
        -0.038419209420681,
        0.14487697184085846,
        -0.16926832497119904,
        0.05703309178352356,
        0.17826738953590393,
        0.17115874588489532,
        -0.22545109689235687,
        -0.14114607870578766,
        -0.04524964466691017,
        0.10352874547243118,
        0.005376030225306749,
        -0.2211325466632843,
        0.21698909997940063,
        -0.17439943552017212,
        0.010554427281022072,
        0.06715571135282516,
        0.03941963613033295,
        0.05609380453824997,
        0.18098093569278717,
        -0.14684414863586426,
        0.1791965812444687,
        -0.1710612177848816,
        -0.10994978249073029,
        -0.17831797897815704,
        -0.2538643777370453,
        -0.1457739919424057,
        -0.11873338371515274,
        -0.023053612560033798,
        -0.19131548702716827,
        -0.11848054081201553,
        -0.1951906830072403,
        -0.09443675726652145,
        -0.1598048359155655,
        0.19036707282066345,
        0.24784669280052185,
        0.0656801164150238,
        -0.08099780231714249,
        -0.03520429506897926,
        0.16366535425186157,
        0.06326915323734283,
        0.11163830757141113,
        -0.04579053819179535,
        0.18957296013832092,
        0.06986309587955475,
        0.162438303232193,
        0.0982619896531105,
        -0.12348364293575287,
        0.19136247038841248,
        0.0797920674085617,
        -0.2122662365436554,
        0.1644309163093567,
        -0.2487911432981491,
        0.22041575610637665,
        0.1737029105424881,
        0.020838245749473572,
        0.2034355103969574,
        -0.0609080009162426,
        -0.12141483277082443,
        0.10311132669448853,
        0.12019656598567963,
        -0.0214662067592144,
        0.1958029866218567,
        -0.0575726255774498,
        0.06360645592212677,
        0.1741490662097931,
        -0.16624702513217926,
        0.13127556443214417,
        0.19055534899234772,
        0.2368464171886444,
        -0.23824980854988098,
        0.1065995916724205,
        -0.22229081392288208,
        -0.0336730070412159,
        0.15245208144187927,
        -0.0974123626947403,
        -0.14642147719860077,
        0.07233946025371552,
        -0.012385142035782337,
        -0.07203496992588043,
        0.11184857785701752,
        -0.023853877559304237,
        0.009045105427503586,
        -0.0595298707485199,
        -0.2331375926733017,
        0.04846014454960823,
        -0.2047109752893448,
        0.1137184128165245,
        0.02640276774764061,
        0.10091470181941986,
        -0.17490248382091522,
        -0.14578227698802948,
        -0.11289434880018234,
        -0.12046569585800171,
        -0.09874149411916733,
        -0.059491246938705444,
        -0.023045247420668602,
        -0.2434260994195938,
        -0.19644421339035034,
        -0.19763913750648499,
        -0.02253207191824913,
        0.13343670964241028,
        0.07813085615634918,
        -0.21825380623340607,
        -0.09060390293598175,
        -0.17707271873950958,
        -0.05907818675041199,
        -0.17056208848953247,
        0.039277270436286926,
        -0.049192722886800766,
        0.15971209108829498,
        -0.018713025376200676,
        -0.04210010915994644,
        0.038698624819517136,
        -0.11957322061061859,
        -0.09836646914482117,
        0.019883781671524048,
        0.08051908761262894,
        0.05749381706118584,
        -0.10107926279306412,
        -0.01867656037211418,
        0.09537030011415482,
        0.08053097128868103,
        0.06365057826042175,
        0.004170883446931839,
        -0.13883207738399506,
        -0.036564748734235764,
        0.06294532865285873,
        0.08859144896268845,
        -0.031052131205797195,
        -0.04306105524301529,
        -0.08144104480743408,
        -0.0953533798456192,
        0.15517978370189667,
        -0.0833626538515091,
        -0.04531187191605568,
        -0.09948476403951645,
        0.1764366775751114,
        -0.10015788674354553,
        0.08905775099992752,
        -0.10382943600416183,
        -0.07042328268289566,
        0.05616331845521927,
        -0.004744308069348335,
        -0.038752928376197815,
        0.0682818740606308,
        -0.04504832997918129,
        0.17420661449432373,
        0.12104532867670059,
        -0.0900278240442276,
        0.009798877872526646,
        0.05794806033372879,
        -0.08381900936365128,
        0.07569627463817596,
        0.08101845532655716,
        -0.10354677587747574,
        0.005511838011443615,
        0.07582853734493256,
        0.07063310593366623,
        0.05554591864347458,
        -0.09640564024448395,
        0.01685146614909172,
        -0.01680998131632805,
        -0.08348564058542252,
        -0.019259266555309296,
        0.0076888748444616795,
        -0.143880233168602,
        -0.1010270044207573,
        0.09377475082874298,
        -0.10321489721536636,
        0.06885227560997009,
        -0.12374073266983032,
        0.03207065165042877,
        -0.005339153576642275,
        -0.05329745635390282,
        0.0006455566035583615,
        -0.1183970496058464,
        -0.09404750913381577,
        0.08149884641170502,
        0.013287176378071308,
        0.1200549304485321,
        -0.1168719157576561,
        -0.10357733070850372,
        -0.05714481696486473,
        0.05624138563871384,
        -0.13095268607139587,
        0.07674136012792587,
        0.09780912101268768,
        0.07954920828342438,
        -0.0028086311649531126,
        0.013457497581839561,
        -0.07347534596920013,
        0.022435100749135017,
        0.042558543384075165,
        -0.03360101208090782,
        -0.01308620534837246,
        -0.00722858589142561,
        -0.15606440603733063,
        0.1219327300786972,
        -0.1237618699669838,
        -0.0690586045384407,
        0.013410828076303005,
        -0.12298939377069473,
        0.10653799772262573,
        -0.09061728417873383,
        0.010360845364630222,
        -0.0018478936981409788,
        -0.02364499308168888,
        -0.08289702236652374,
        0.05044497922062874,
        -0.06142948195338249,
        -0.03930060938000679,
        -0.011008677072823048,
        0.03496572747826576,
        -0.06827098876237869,
        -0.01580750197172165,
        0.00010229886538581923,
        -0.08359622955322266,
        -0.14531205594539642,
        0.06907478719949722,
        -0.0203135684132576,
        0.07508009672164917,
        0.04766910523176193,
        0.11309237778186798,
        -0.0694180279970169,
        0.12234261631965637,
        0.0749046728014946,
        -0.1084708422422409,
        -0.0374368391931057,
        0.14796069264411926,
        0.13747970759868622,
        -0.05731632187962532,
        0.018866034224629402,
        0.013667162507772446,
        0.10043592005968094,
        -0.11978360265493393,
        0.06494642049074173,
        0.10639961808919907,
        0.09470490366220474,
        -0.013179625384509563,
        -0.13340593874454498,
        -0.09003304690122604,
        -0.08901628851890564,
        0.05731850862503052,
        0.0641799345612526,
        -0.0779440850019455,
        0.03603231534361839,
        -0.050140269100666046,
        0.13122618198394775,
        0.06668857485055923,
        -0.016782794147729874,
        0.1559654325246811,
        0.021257348358631134,
        0.11901550740003586,
        0.10547485947608948,
        -0.09237221628427505,
        0.007029528729617596,
        0.14553898572921753,
        -0.04161377251148224,
        -0.05538399517536163,
        -0.11252721399068832,
        -0.14952848851680756,
        -0.08182884007692337,
        0.11974503099918365,
        -0.1537562608718872,
        -0.10424713790416718,
        0.03865142539143562,
        -0.05618845671415329,
        -0.06159446761012077,
        0.11864389479160309,
        0.03678411617875099,
        -0.013541525229811668,
        -0.10588148981332779,
        -0.08738099783658981,
        0.05639355629682541,
        0.0639399066567421,
        -0.10278697311878204,
        0.0873052179813385,
        0.06304869800806046,
        -0.04628710448741913,
        0.0682888850569725,
        0.0020163992885500193,
        -0.01693221740424633,
        -0.1512891799211502,
        -0.035766709595918655,
        0.08945286273956299,
        0.015122959390282631,
        0.11928752809762955,
        -0.0019581352826207876,
        -0.11156126111745834,
        -0.12465134263038635,
        -0.023954132571816444,
        0.1147417351603508,
        -0.017675328999757767,
        -0.0022097069304436445,
        -0.14495252072811127,
        -0.05993804708123207,
        0.06927302479743958,
        0.05791495367884636,
        -0.1364164501428604,
        0.06770449131727219,
        0.06306418031454086,
        -0.11860446631908417,
        -0.10836360603570938,
        -0.015435904264450073,
        -0.10670384019613266,
        0.11771982163190842,
        0.09837857633829117,
        0.09211170673370361,
        0.06793771684169769,
        -0.11761423945426941,
        -0.11814788728952408,
        -0.05934123694896698,
        0.030179237946867943,
        0.1335645169019699,
        0.10007571429014206,
        -0.10421789437532425,
        -0.0036556581035256386,
        0.13858658075332642,
        -0.07818722724914551,
        0.048942625522613525,
        -0.0018159350147470832,
        -0.10003475844860077,
        0.018929652869701385,
        -0.037789102643728256,
        0.03045949712395668,
        0.08463327586650848,
        -0.0013111878652125597,
        -0.03619236499071121,
        0.10600846260786057,
        0.09281676262617111,
        0.1286766082048416,
        -0.11735179275274277,
        -0.09275434166193008,
        -0.018851570785045624,
        -0.01568502187728882,
        -0.047798678278923035,
        -0.1199859231710434,
        0.12057770788669586,
        0.11462687700986862,
        -0.11607818305492401,
        0.11912843585014343,
        0.11903218179941177,
        0.01072163600474596,
        -0.10527408868074417,
        -0.005116692744195461,
        -0.020251212641596794,
        0.08988595753908157,
        0.05851572006940842,
        -0.06438553333282471,
        -0.05970387905836105,
        0.07639434933662415,
        -0.014379439875483513,
        0.002282899571582675,
        0.013760296627879143,
        -0.001923491363413632,
        -0.11124739795923233,
        0.06232021376490593,
        0.14174416661262512,
        0.09438779950141907,
        0.08311326801776886,
        0.004966190084815025,
        0.10711012035608292,
        0.030033757910132408,
        0.0755298063158989,
        -0.07558247447013855,
        -0.05014258623123169,
        0.0854129046201706,
        0.11260592192411423,
        0.1269918978214264,
        -0.1650974303483963,
        0.06288579851388931,
        -0.008403537794947624,
        0.12387194484472275,
        -0.09871501475572586,
        0.08639051020145416,
        -0.045415524393320084,
        -0.01388032827526331,
        0.09312967211008072,
        -0.038748279213905334,
        -0.021257083863019943,
        -0.04943224787712097,
        -0.05993207171559334,
        0.06683987379074097,
        -0.02497633546590805,
        -0.011416028253734112,
        -0.03468695655465126,
        0.07971935719251633,
        0.04046174883842468,
        -0.014950430952012539,
        0.10722246021032333,
        0.1505061835050583,
        -0.02145552635192871,
        0.07804939895868301,
        0.09489373862743378,
        -0.11658245325088501,
        -0.05703860521316528,
        -0.13239449262619019,
        0.028097305446863174,
        -0.013523648492991924,
        0.0481083057820797,
        -0.07196160405874252,
        -0.10101484507322311,
        0.0686192587018013,
        -0.09556030482053757,
        0.05283620208501816,
        0.05239309370517731,
        0.08417509496212006,
        -0.03490447252988815,
        -0.060803644359111786,
        -0.07370225340127945,
        -0.04205545037984848,
        -0.012393469922244549,
        0.1344531923532486,
        0.027966691181063652,
        0.080409936606884,
        -0.026214757934212685,
        -0.04187164828181267,
        -0.1433716118335724,
        0.056123360991477966,
        0.005572926718741655,
        -0.07221285253763199,
        -0.0113463019952178,
        -0.09997126460075378,
        -0.049728840589523315,
        -0.11033960431814194,
        -0.12078717350959778,
        -0.09821560233831406,
        0.1175684705376625,
        -0.09953470528125763,
        0.09517741948366165,
        -0.06285909563302994,
        0.05934450030326843,
        0.11074528843164444,
        0.0009296606294810772,
        -0.08677349239587784,
        0.13902537524700165,
        -0.011019941419363022,
        -0.03929862752556801,
        0.10641869157552719,
        0.13918501138687134,
        -0.025709817185997963,
        0.09019573032855988,
        -0.07059001177549362,
        -0.07063610851764679,
        -0.07957034558057785,
        0.00043303921120241284,
        0.01725207269191742,
        -0.12665919959545135,
        0.12930087745189667,
        -0.03280358761548996,
        -0.034413717687129974,
        -0.045933034271001816,
        0.0321471244096756,
        -0.09390109032392502,
        -0.06914728879928589,
        -0.12533728778362274,
        0.11299601942300797,
        0.08036745339632034,
        -0.05162477120757103,
        0.03874361887574196,
        0.07715500891208649,
        -0.05576273426413536,
        -0.05237641558051109,
        -0.11299721896648407,
        -0.12348747253417969,
        0.12880659103393555,
        0.10756853967905045,
        -0.08199302107095718,
        -0.1484491229057312,
        0.0471680648624897,
        0.0043524871580302715,
        -0.08345475792884827,
        -0.09117131680250168,
        0.12078370153903961,
        0.0058450764045119286,
        -0.02400662750005722,
        0.005507725290954113,
        -0.12560264766216278,
        0.02088804915547371,
        -0.05330943688750267,
        -0.09903160482645035,
        -0.03143482655286789,
        0.043138645589351654,
        0.12549683451652527,
        -0.11755821108818054,
        -0.090394027531147,
        0.021277695894241333,
        -0.033680208027362823,
        -0.013794186525046825,
        0.04820431396365166,
        0.04682444781064987,
        0.10233443975448608,
        -0.09556641429662704,
        -0.1185944527387619,
        -0.06888625770807266,
        0.0015474571846425533,
        0.058723852038383484,
        0.0496792234480381,
        0.19426541030406952,
        -0.03945291414856911,
        0.1355423927307129,
        -0.09527510404586792,
        -0.13504977524280548,
        -0.007760399952530861,
        0.028995858505368233,
        0.11197639256715775,
        -0.025138117372989655,
        -0.047792453318834305,
        0.10474812984466553,
        0.009043185971677303,
        -0.11801038682460785,
        -0.010494427755475044,
        0.12358605861663818,
        -0.06850825995206833,
        -0.11866161972284317,
        0.06913207471370697,
        -0.011484424583613873,
        -0.014995013363659382,
        0.0036607878282666206,
        -0.061577603220939636,
        0.1253317892551422,
        -0.10492447018623352,
        -0.023715050891041756,
        -0.036519329994916916,
        0.00955092255026102,
        0.06305253505706787,
        0.06970224529504776,
        0.12358865886926651,
        -0.019141068682074547,
        -0.04244166985154152,
        0.08247718214988708,
        -0.1035737693309784,
        0.06525863707065582,
        -0.074432872235775,
        -0.0407811664044857,
        0.0050544291734695435,
        0.049061886966228485,
        0.08229973167181015,
        -0.01458149403333664,
        0.011704410426318645,
        -0.10223735123872757,
        0.046055056154727936,
        0.05673171579837799,
        0.0120267728343606,
        0.10237205028533936,
        -0.051501061767339706,
        -0.11187954992055893,
        -0.03905507177114487,
        0.12024011462926865,
        0.11667467653751373,
        -0.06565625220537186,
        -0.0907072126865387,
        0.12305186688899994,
        0.03255588188767433,
        0.13571611046791077,
        -0.01626122184097767,
        -0.05057903379201889,
        0.12436053901910782,
        0.025157377123832703,
        0.07351171225309372,
        -0.07268311083316803,
        0.046035077422857285,
        0.12125776708126068,
        0.018080465495586395,
        -0.021802609786391258,
        0.1251879185438156,
        0.027168119326233864,
        -0.10266699641942978,
        0.051292289048433304,
        0.04087871313095093,
        -0.012456514872610569,
        0.06726616621017456,
        0.1315973997116089,
        0.01956065557897091,
        -0.05252841114997864,
        -0.09866897761821747,
        -0.1669473499059677,
        0.005399677436798811,
        -0.1267356425523758,
        -0.13278762996196747,
        -0.024077508598566055,
        -0.03151208907365799,
        0.001995432423427701,
        -0.11867343634366989,
        0.14222486317157745,
        -0.05070404335856438,
        -0.11949557065963745,
        0.0358828529715538,
        -0.04349077492952347,
        -0.09011368453502655,
        -0.0920276865363121,
        -0.10121630877256393,
        -0.04470660164952278,
        -0.06746648997068405,
        0.020464710891246796,
        0.08466757833957672,
        0.08140087127685547,
        -0.10482347756624222,
        0.099525585770607,
        0.01890498213469982,
        0.02513762190937996,
        -0.12639042735099792,
        -0.07620440423488617,
        -0.0941411703824997,
        -0.004442666657269001,
        0.06788706034421921,
        -0.07841882109642029,
        0.035286903381347656,
        0.08112429082393646,
        -0.11683977395296097,
        0.07514383643865585,
        0.007159411441534758,
        -0.054494816809892654,
        0.021433735266327858,
        -0.15948617458343506,
        -0.10980184376239777,
        0.03530418872833252,
        -0.09116734564304352,
        0.0498470775783062,
        -0.10703262686729431,
        0.08051188290119171,
        -0.12984131276607513,
        0.05660197511315346,
        -0.0073308879509568214,
        0.01848645508289337,
        -0.17570337653160095,
        0.14909037947654724,
        -0.14148665964603424,
        0.041025664657354355,
        0.11793648451566696,
        0.022177880629897118,
        0.10157081484794617,
        -0.1229957640171051,
        0.008319132030010223,
        -0.08038577437400818,
        0.05356432497501373,
        0.08364924043416977,
        0.13304194808006287,
        -0.00837683491408825,
        0.13712365925312042,
        -0.1137927770614624,
        -0.025474658235907555,
        0.07773780822753906,
        0.10829003900289536,
        0.0619392991065979,
        0.10342119634151459,
        0.09511091560125351,
        -0.06319788098335266,
        0.12382810562849045,
        -0.03181937336921692,
        -0.12328560650348663,
        -0.07085955142974854,
        0.05517604947090149,
        0.0680655762553215,
        0.027318697422742844,
        -0.09668149799108505,
        -0.08915907144546509,
        0.05138154327869415,
        -0.10900203138589859,
        0.01210834551602602,
        0.006115503143519163,
        0.1324952095746994,
        -0.11351636052131653,
        0.07304250448942184,
        0.12384779751300812,
        0.1285920888185501,
        -0.06887701898813248,
        -0.05859099701046944,
        0.10091108828783035,
        0.09155946224927902,
        -0.10917527973651886,
        -0.0603456012904644,
        0.06813451647758484,
        0.03369493782520294,
        -0.053898703306913376,
        0.004564372356981039,
        0.04876327142119408,
        0.06191049516201019,
        0.13389335572719574,
        0.09575999528169632,
        0.08671098947525024,
        -0.1110701858997345,
        -0.05209343135356903,
        -0.03788461163640022,
        0.09964270144701004,
        0.031249113380908966,
        -0.01661641336977482,
        0.0854848325252533,
        0.0035758812446147203,
        0.06641674786806107,
        -0.0868782103061676,
        -0.057368963956832886,
        -0.08777213096618652,
        -0.12029184401035309,
        0.031029734760522842,
        -0.09417074173688889,
        -0.016768790781497955,
        0.019167529419064522,
        0.06339314579963684,
        -0.023286927491426468,
        -0.12481795251369476,
        -0.0602756068110466,
        -0.04659009724855423,
        -0.02901580184698105,
        -0.007718265522271395,
        0.12949661910533905,
        -0.05551942065358162,
        -0.10559775680303574,
        0.06744730472564697,
        -0.06818578392267227,
        -0.11840123683214188,
        0.06476547569036484,
        0.011508405208587646,
        -0.12796205282211304,
        -0.12692870199680328,
        0.1163063794374466,
        -0.018463024869561195,
        0.07417253404855728,
        -0.1402217596769333,
        0.011400124989449978,
        -0.13198836147785187,
        0.08716358989477158,
        -0.04716455191373825,
        -0.10452262312173843,
        0.11072956025600433,
        -0.02412477508187294,
        -0.0090858805924654,
        0.1308755874633789,
        0.13516183197498322,
        -0.0034338696859776974,
        0.09162452816963196,
        0.007215479388833046,
        -0.051280368119478226,
        -0.059505995362997055,
        0.0333058163523674,
        0.007377076428383589,
        0.0790228620171547,
        -0.09206452965736389,
        0.07678072899580002,
        -0.14010068774223328,
        -0.011366818100214005,
        0.05088607594370842,
        0.16036303341388702,
        0.03263576328754425,
        0.00300541240721941,
        -0.03739678114652634,
        -0.07136651873588562,
        0.09757287055253983,
        -0.07575109601020813,
        0.014748635701835155,
        0.0875418558716774,
        0.01377958245575428,
        -0.06501269340515137,
        -0.009514693170785904,
        0.046282023191452026,
        -0.14115667343139648,
        -0.05814991518855095,
        -0.09688414633274078,
        0.12982574105262756,
        0.10296677052974701,
        -0.043450213968753815,
        0.09734289348125458,
        -0.09521715342998505,
        0.08304376900196075,
        -0.030286146327853203,
        0.017198991030454636,
        0.00426180474460125,
        0.07461658865213394,
        0.0803665891289711,
        0.013355100527405739,
        0.04220633953809738,
        0.01863568276166916,
        -0.0025093459989875555,
        -0.12392424792051315,
        0.12624427676200867,
        0.11286289989948273,
        -0.008630438707768917,
        0.0007970983278937638,
        -0.05409344285726547,
        -0.07394913583993912,
        -0.019344786182045937,
        -0.008374973200261593,
        0.042716290801763535,
        -0.10551255196332932,
        0.07193877547979355,
        0.030015263706445694,
        0.044424448162317276,
        0.011143255047500134,
        0.18666650354862213,
        -0.08323600888252258,
        0.015502373687922955,
        0.07112691551446915,
        0.04039169102907181,
        -0.06518405675888062,
        0.08036237210035324,
        0.018524562940001488,
        -0.09955721348524094,
        0.15011651813983917,
        -0.14036373794078827,
        -0.05581130087375641,
        -0.1583646982908249,
        -0.103944331407547,
        0.058076102286577225,
        0.05067463591694832,
        -0.05018642172217369,
        0.003838867647573352,
        0.10292249172925949,
        0.09558658301830292,
        0.0501609742641449,
        -0.1292848140001297,
        -0.10073404014110565,
        0.0196121446788311,
        -0.08971331268548965,
        -0.10159515589475632,
        -0.1365215927362442,
        0.09964894503355026,
        -0.1448155790567398,
        -0.06854559481143951,
        -0.03081466816365719,
        0.013675089925527573,
        0.0029443211387842894,
        -0.13474415242671967,
        -0.0879959985613823,
        0.08980270475149155,
        -0.02599330246448517,
        0.10193581879138947,
        0.09445787966251373,
        0.01575426198542118,
        0.11132456362247467,
        0.08827410638332367,
        -0.06200655549764633,
        -0.04091639816761017,
        -0.07169300317764282,
        0.08416016399860382,
        -0.0705178827047348,
        0.06111384555697441,
        -0.03775821998715401,
        0.06365399062633514,
        0.07659345120191574,
        -0.04473334923386574,
        0.1683342158794403,
        0.031439654529094696,
        0.12404065579175949,
        -0.002982550300657749,
        -0.08067663013935089,
        -0.07254014164209366,
        -0.06913786381483078,
        0.0214766263961792,
        0.014673973433673382,
        0.15554438531398773,
        -0.10036936402320862,
        0.14545947313308716,
        -0.12278232723474503,
        -0.026677122339606285,
        0.12092716246843338,
        0.02948004938662052,
        0.09360875189304352,
        0.012682498432695866,
        -0.11272227019071579,
        -0.002673923736438155,
        -0.015549174509942532,
        0.0349353663623333,
        -0.16270780563354492,
        0.02140740118920803,
        0.07964450120925903,
        -0.16054797172546387,
        -0.10812480002641678,
        0.1093192920088768,
        0.1091996505856514,
        -0.16202786564826965,
        -0.0028514221776276827,
        -0.1720387041568756,
        0.0371863879263401,
        -0.17018096148967743,
        -0.007049407344311476,
        -0.11631505191326141,
        0.028307603672146797,
        -0.016758564859628677,
        0.058001331984996796,
        0.019213790073990822,
        0.0038056564517319202,
        -0.03874685987830162,
        0.0615198016166687,
        0.013130299746990204,
        0.045916952192783356,
        0.03245997428894043,
        -0.08352914452552795,
        -0.04895320162177086,
        -0.001341363531537354,
        0.30067676305770874,
        0.5228212475776672,
        -0.19190596044063568,
        0.2941156327724457,
        0.9317899942398071,
        -0.9801439046859741,
        -0.04927895963191986,
        -0.6148552894592285,
        -0.798263430595398,
        -0.3747897744178772,
        -0.8766905069351196,
        0.6760870814323425,
        0.5456059575080872,
        -0.7968909740447998,
        -0.2752583622932434,
        -0.41744980216026306,
        0.22564558684825897,
        -0.02837352268397808,
        0.15374083817005157,
        0.18013155460357666,
        0.07179312407970428,
        0.09313560277223587,
        0.23514072597026825,
        -0.06601797789335251,
        -0.1278837025165558,
        -0.10125955939292908,
        0.006798422895371914,
        -0.13496799767017365,
        -0.16645239293575287,
        0.20880664885044098,
        -0.1581798493862152,
        -0.004318820312619209,
        -0.06662158668041229,
        -0.1339413970708847,
        0.04866296052932739,
        0.2546985447406769,
        -0.20817184448242188,
        -0.25184372067451477,
        -0.18488715589046478,
        -0.009867081418633461,
        0.12354806810617447,
        -0.11271549761295319,
        -0.058702755719423294,
        -0.1316215693950653,
        0.01348345447331667,
        -0.04375305771827698,
        -0.08208835870027542,
        0.1614857017993927,
        -0.039846889674663544,
        0.18073244392871857,
        0.1558430790901184,
        -0.09204816818237305,
        -0.1707969605922699,
        -0.19451718032360077,
        0.2233496606349945,
        0.23680545389652252,
        -0.06881833076477051,
        0.11710987240076065,
        -0.012367045506834984,
        0.12306021898984909,
        -0.157680943608284,
        0.04863831028342247,
        -0.12465465068817139,
        0.019675832241773605,
        0.1826474964618683,
        -0.07753608375787735,
        -0.16682344675064087,
        -0.2209918200969696,
        0.15562030673027039,
        -0.043643828481435776,
        -0.17364823818206787,
        0.17263787984848022,
        -0.058833081275224686,
        -0.11330465972423553,
        0.14929717779159546,
        0.07543687522411346,
        -0.0808677226305008,
        0.17093244194984436,
        -0.18626730144023895,
        -0.2233237326145172,
        -0.1115514412522316,
        -0.21849434077739716,
        -0.09215068817138672,
        0.03821156919002533,
        0.04919512942433357,
        0.1611155867576599,
        0.26033031940460205,
        0.24377092719078064,
        0.23832130432128906,
        -0.2115333378314972,
        -0.04891427606344223,
        0.07382732629776001,
        -0.1037241518497467,
        -0.0651746317744255,
        0.1561262607574463,
        0.030986182391643524,
        -0.1101824939250946,
        -0.19246788322925568,
        0.04068618267774582,
        0.2078135907649994,
        0.03675004839897156,
        -0.2001284807920456,
        0.06375140696763992,
        0.16986751556396484,
        -0.20991604030132294,
        0.23613959550857544,
        0.07673825323581696,
        -0.16671393811702728,
        0.11600009351968765,
        0.0779145210981369,
        0.16633683443069458,
        0.003315714420750737,
        0.24237515032291412,
        -0.021545613184571266,
        -0.16967947781085968,
        -0.2482718825340271,
        -0.27103886008262634,
        0.009416457265615463,
        -0.18860173225402832,
        -0.021914266049861908,
        0.012987105175852776,
        0.06769166886806488,
        -0.14617809653282166,
        0.18856361508369446,
        0.23232027888298035,
        0.01716219075024128,
        0.0743476152420044,
        -0.10939723253250122,
        -0.08520352095365524,
        -0.13821916282176971,
        0.1219937652349472,
        0.009447053074836731,
        0.08122380077838898,
        -0.11927260458469391,
        -0.14135321974754333,
        0.023406408727169037,
        0.17230038344860077,
        -0.19655220210552216,
        -0.19537736475467682,
        -0.14408744871616364,
        -0.03051307611167431,
        -0.1563771367073059,
        0.23888935148715973,
        0.006063629407435656,
        0.08586788922548294,
        -0.02357066422700882,
        0.1475079506635666,
        -0.035042982548475266,
        0.05406487360596657,
        0.19331032037734985,
        0.01925613358616829,
        0.028546063229441643,
        0.20265986025333405,
        0.24467529356479645,
        0.0014182223239913583,
        -0.11895012110471725,
        0.14567965269088745,
        -0.1271028369665146,
        -0.060552362352609634,
        -0.000574104895349592,
        0.10766377300024033,
        0.11539239436388016,
        -0.026986442506313324,
        0.15716776251792908,
        -0.07201886177062988,
        0.08728635311126709,
        -0.054936569184064865,
        -0.2309161275625229,
        0.11438438296318054,
        0.2340129166841507,
        -0.02233171835541725,
        0.12012017518281937,
        0.1431885063648224,
        -0.00479120435193181,
        0.04118877649307251,
        0.009487572126090527,
        -0.1537519246339798,
        0.1531897336244583,
        -0.030298370867967606,
        0.0345735177397728,
        0.141649529337883,
        -0.25262486934661865,
        -0.06209230795502663,
        0.1543826162815094,
        0.14460867643356323,
        0.01761523075401783,
        -0.03877410292625427,
        -0.18998339772224426,
        0.19563549757003784,
        -0.23887993395328522,
        0.1028924435377121,
        0.0045707072131335735,
        0.10527098923921585,
        -0.22921320796012878,
        0.014202311635017395,
        0.03309326991438866,
        0.03768813982605934,
        0.07647555321455002,
        0.10226567834615707,
        0.15267208218574524,
        -0.01398148201406002,
        -0.022331789135932922,
        -0.07059488445520401,
        -0.13206487894058228,
        -0.14074565470218658,
        0.07586844265460968,
        -0.08956996351480484,
        -0.25233450531959534,
        0.22136713564395905,
        0.0421689972281456,
        -0.0668022483587265,
        0.025201499462127686,
        -0.1561478227376938,
        0.18098385632038116,
        -0.13941718637943268,
        0.14179304242134094,
        0.08892514556646347,
        0.006652327720075846,
        -0.03155813738703728,
        -0.25134414434432983,
        -0.23292267322540283,
        -0.17464995384216309,
        0.010676894336938858,
        -0.14157982170581818,
        -0.028560131788253784,
        0.2763313055038452,
        -0.17256323993206024,
        0.0710621252655983,
        -0.05890706554055214,
        0.21307708323001862,
        0.20153923332691193,
        -0.12773340940475464,
        -0.20374014973640442,
        -0.18514002859592438,
        -0.08228159695863724,
        -0.1383146047592163,
        -0.07898218184709549,
        -0.1492452621459961,
        -0.09564734250307083,
        0.15800511837005615,
        -0.17884883284568787,
        0.0340951643884182,
        0.11843519657850266,
        0.003645524615421891,
        -0.2530299425125122,
        -0.1812393218278885,
        -0.032476380467414856,
        0.13311973214149475,
        -0.18690644204616547,
        0.03080013580620289,
        -0.11675088107585907,
        -0.21618983149528503,
        -0.202421635389328,
        0.14008478820323944,
        0.20627838373184204,
        -0.07585790008306503,
        0.08912486582994461,
        0.15904435515403748,
        -0.1273394078016281,
        0.08355555683374405,
        0.09132774919271469,
        -0.13274456560611725,
        -0.0748012587428093,
        0.1154559776186943,
        0.006637319922447205,
        0.1178489401936531,
        0.2180572748184204,
        0.0027971919625997543,
        -0.1490512639284134,
        0.0677410364151001,
        -0.03217030689120293,
        0.15301840007305145,
        -0.11208996176719666,
        0.24609680473804474,
        -0.05755683779716492,
        -0.22621306777000427,
        0.05698339641094208,
        -0.11159501224756241,
        0.04328791797161102,
        0.11976595968008041,
        0.1400974690914154,
        0.034726619720458984,
        -0.05963033065199852,
        -0.07729918509721756,
        0.17052365839481354,
        -0.17032553255558014,
        -0.02724631316959858,
        0.2039518505334854,
        0.14559872448444366,
        0.10868967324495316,
        0.04025573283433914,
        0.0557682178914547,
        -0.11128179728984833,
        0.09956870228052139,
        0.1276739537715912,
        -0.1100120097398758,
        0.13160905241966248,
        0.08613952249288559,
        -0.12803636491298676,
        -0.11059906333684921,
        -0.005842397455126047,
        0.09126831591129303,
        -0.11940797418355942,
        0.11262992024421692,
        0.06234980747103691,
        -0.00019031479314435273,
        0.029964715242385864,
        -0.12174147367477417,
        -0.046967800706624985,
        0.03169778361916542,
        0.05542070046067238,
        -0.09306617826223373,
        -0.089508056640625,
        0.0765969380736351,
        -0.01847672648727894,
        0.048765793442726135,
        -0.06232563033699989,
        -0.043045807629823685,
        -0.08537985384464264,
        0.025428613647818565,
        -0.04802862927317619,
        -0.06687726825475693,
        -0.1310710310935974,
        0.1320633888244629,
        0.1489771604537964,
        -0.05646362900733948,
        -0.09732179343700409,
        -0.0741167813539505,
        0.008039478212594986,
        0.10386036336421967,
        0.04243472218513489,
        -0.16357797384262085,
        -0.01183584239333868,
        -0.004534275736659765,
        -0.04297367110848427,
        -0.029812559485435486,
        0.0517783984541893,
        -0.09428248554468155,
        -0.059136807918548584,
        0.028574148193001747,
        -0.03753458708524704,
        0.19445326924324036,
        -0.08699574321508408,
        0.010133684612810612,
        -0.1350041925907135,
        0.0034041465260088444,
        -0.03829735890030861,
        -0.1124238446354866,
        -0.10945938527584076,
        -0.1143159493803978,
        0.0982615277171135,
        0.1216355636715889,
        -0.09005804359912872,
        0.11921965330839157,
        -0.004763125441968441,
        0.04958635941147804,
        -0.07280608266592026,
        0.07947094738483429,
        0.130974680185318,
        0.07310792058706284,
        -0.10345151275396347,
        -0.04902498051524162,
        -0.10796847939491272,
        0.11867202073335648,
        -0.02923395484685898,
        -0.09578811377286911,
        0.10529995709657669,
        0.01894252747297287,
        0.1302226483821869,
        0.1544312834739685,
        0.1456603854894638,
        0.06942714005708694,
        -0.11626733094453812,
        0.06827914714813232,
        -0.015401499345898628,
        -0.049422163516283035,
        -0.05226892605423927,
        0.05112727731466293,
        0.08196821808815002,
        0.1625218242406845,
        -0.05441761016845703,
        0.044398218393325806,
        -0.01421087421476841,
        0.011119691655039787,
        0.03296128660440445,
        -0.06810051947832108,
        -0.05078176409006119,
        0.08207082003355026,
        -0.1089664101600647,
        0.05592939257621765,
        0.13536326587200165,
        0.1474371701478958,
        0.00409336993470788,
        -0.029633160680532455,
